<?xml version="1.0"?>
<opencv_storage>
<my_svm type_id="opencv-ml-svm">
  <svm_type>C_SVC</svm_type>
  <kernel><type>LINEAR</type></kernel>
  <C>1.0000000000000000e-002</C>
  <term_criteria><epsilon>1.0000000474974513e-003</epsilon>
    <iterations>1100</iterations></term_criteria>
  <var_all>8100</var_all>
  <var_count>8100</var_count>
  <class_count>2</class_count>
  <class_labels type_id="opencv-matrix">
    <rows>1</rows>
    <cols>2</cols>
    <dt>i</dt>
    <data>
      -1 1</data></class_labels>
  <sv_total>1</sv_total>
  <support_vectors>
    <_>
      -3.67191806e-002 -1.78064592e-002 8.72617238e-004 2.86315698e-002
      3.73007320e-002 5.60814841e-003 1.58333518e-002 -9.43399966e-004
      -1.36543140e-002 -4.97786067e-002 -1.04052857e-001
      -5.63421361e-002 2.88718194e-003 4.29737046e-002 -8.68700445e-003
      1.53310290e-002 5.64466231e-003 2.33521610e-002 -4.40895446e-002
      -4.81055975e-002 -2.67869942e-002 -1.83924045e-002 2.77425442e-002
      -5.63064683e-003 2.95433542e-003 -1.30315020e-004 -1.03229042e-002
      -1.54929552e-002 -5.90326041e-002 7.53430044e-003 4.00481559e-002
      3.39419283e-002 -2.10040566e-002 6.74411841e-003 -1.46299703e-002
      -1.54020432e-002 -1.91979576e-003 -1.44124441e-002
      -1.40711740e-002 -5.42743728e-002 -3.72823589e-002
      -3.44515890e-002 1.10329762e-002 8.09850451e-003 5.54274917e-002
      -4.73326482e-002 -2.17719451e-002 8.78018141e-003 -1.88920107e-002
      -9.70409077e-004 -2.58788727e-002 -2.05508061e-003
      -1.94884073e-002 5.77085046e-003 -2.52292193e-002 -3.42143551e-002
      1.71856564e-002 2.95861568e-002 2.61087958e-002 -5.80651127e-003
      7.69677386e-003 -1.54727669e-002 -2.62039285e-002 1.43484445e-003
      -1.69650801e-002 1.34392101e-002 -2.49462505e-003 1.86103396e-002
      1.13732331e-002 2.79254671e-002 6.22640271e-003 1.70848165e-002
      -4.83048055e-003 1.43633108e-003 -2.90274285e-002 -1.41104218e-002
      -1.27461925e-002 -7.28617539e-004 1.75182391e-002 1.63718630e-002
      7.64090288e-003 -1.20322714e-002 -4.50014509e-002 -2.51698233e-002
      -8.79231840e-004 1.55236460e-002 1.24262623e-003 8.55624396e-003
      1.01580434e-002 1.65996123e-002 -2.61297543e-002 -3.21014151e-002
      -4.04471420e-002 -1.86251532e-002 1.94694959e-002 1.60621926e-002
      2.15682779e-002 9.02845245e-003 -2.28749402e-002 -3.19343209e-002
      -4.01451886e-002 -3.69960517e-002 -3.81389782e-002
      -1.09361354e-002 1.17082987e-002 2.45622192e-002 -5.88018261e-003
      -6.88463524e-002 -1.46539405e-003 -1.38212731e-002
      -1.38435829e-002 -3.26466113e-002 -1.96299218e-002
      -1.06320390e-002 3.85849364e-003 1.92799680e-002 4.97633144e-002
      -2.09560953e-002 -1.65180899e-002 9.39454883e-003 -1.00131594e-002
      1.33280819e-002 -2.33510062e-002 6.18921267e-003 -2.64069880e-003
      2.01363210e-002 -2.27138083e-002 -3.49703468e-002 -4.94745411e-002
      -9.32579767e-003 -2.13448815e-002 -2.45311148e-002 1.17294677e-002
      1.30012380e-002 -3.12724966e-003 1.87735073e-002 1.90293435e-002
      -1.57029461e-002 -1.45805720e-002 -1.25688063e-002 1.19873248e-002
      1.87367406e-002 2.00201608e-002 1.92209873e-002 3.04125505e-003
      -8.86732247e-003 8.12520832e-003 -1.60264336e-002 -1.70683023e-002
      -1.16367079e-002 2.29234938e-002 3.41937616e-002 2.07306016e-002
      -8.74224957e-003 -1.60425622e-002 -7.95453042e-003
      -1.22941537e-002 -1.67864226e-002 -1.49015822e-002
      -2.23927125e-002 2.25505722e-003 6.89395890e-003 -1.04516344e-002
      2.70632189e-002 -4.37046541e-003 -4.11417056e-003 2.94511579e-003
      1.24434670e-002 2.30013020e-002 3.05806939e-003 -2.78664790e-002
      -5.15656695e-002 -3.42995524e-002 -1.50177600e-002
      -9.41973086e-003 1.95096768e-002 2.12871879e-002 3.63796428e-002
      1.52491666e-002 -2.98437476e-002 -5.46592772e-002 -9.21323244e-003
      3.38008218e-002 2.42121555e-002 6.92847976e-003 -8.08087084e-003
      2.92942803e-002 1.42227691e-002 -3.30067948e-002 -6.41295314e-003
      -1.51295159e-002 -2.78534144e-002 -1.23016164e-002
      -1.00396201e-002 -7.52899610e-003 5.52715408e-003 1.23493392e-002
      1.08382013e-003 -1.25902919e-002 -2.26105154e-002 -2.28657778e-002
      -1.65138009e-003 2.30081659e-003 -1.78361293e-002 1.88936684e-002
      1.83641128e-002 2.04197876e-002 -6.04172889e-003 1.40003196e-003
      4.89686476e-003 2.45946739e-003 -6.34284457e-003 7.39323534e-003
      1.83343105e-002 1.74983200e-002 -1.53469127e-002 -2.27111275e-003
      -3.53351701e-003 7.29622436e-004 -1.34257902e-003 -9.32035502e-003
      2.89782742e-003 1.07532516e-002 8.78248177e-003 1.25641818e-003
      7.06460606e-003 -7.80339492e-003 -6.47836085e-003 -5.26056904e-003
      -1.59816574e-002 -2.36268062e-002 -2.53383107e-002
      -1.14295585e-002 6.91734673e-003 -1.48595637e-002 -5.09026134e-003
      -5.14415698e-003 -1.30841276e-002 -7.62830768e-003
      -1.52534256e-002 -3.22651416e-002 3.42061720e-003 2.29261233e-004
      -2.80364696e-002 -1.08757382e-002 2.30521592e-003 1.04661183e-002
      7.51746679e-003 3.68698919e-003 1.36545533e-002 8.35054927e-003
      -2.93351635e-002 -4.71852459e-002 6.44286536e-003 1.83939822e-002
      4.92321933e-003 -1.76901668e-002 -7.77464826e-003 2.68413890e-002
      6.11088146e-003 -4.10202630e-002 -3.74185597e-003 2.02431809e-002
      1.24589652e-002 -4.63243946e-003 2.54709236e-002 -1.75416823e-002
      -3.80468331e-002 -4.02965471e-002 -2.71776747e-002
      -3.26502905e-003 -2.75873812e-003 -1.96174998e-002 2.37304415e-003
      -2.02597491e-002 8.80642969e-004 9.36559215e-003 3.20943110e-002
      5.42772934e-003 -1.38191320e-002 1.70933194e-002 2.03988440e-002
      3.89763787e-002 9.29144863e-003 1.25421938e-002 4.79859114e-002
      1.09048430e-002 3.65506485e-003 -2.77478453e-002 2.86698400e-004
      1.67389493e-002 1.19703030e-002 -1.48433875e-002 -1.48608061e-002
      -2.86255516e-002 -2.87466701e-002 -1.65182948e-002 8.93651566e-004
      -1.21419271e-002 -1.66678950e-002 -1.87501218e-002
      -3.08495648e-002 -1.15458900e-002 -9.87561606e-003 7.35010998e-003
      9.73203965e-003 -4.79926635e-003 -1.91723311e-003 -2.09244825e-002
      -4.86220839e-003 -1.50718223e-002 -1.83257591e-002
      -4.40289788e-002 -6.71248976e-003 5.46223437e-003 7.38156820e-003
      -6.31593261e-003 -5.16302325e-003 -3.66763137e-002
      -2.59145163e-002 -5.28064091e-003 -2.52644345e-002
      -2.30282024e-002 7.45930104e-003 -2.27937661e-003 3.00884712e-002
      -6.06605690e-003 -1.77072268e-002 -1.46767506e-002
      -1.32064726e-002 2.40242295e-003 -1.08039826e-002 -9.77523997e-003
      1.60636362e-002 4.75374721e-002 2.12000366e-002 -2.37732958e-002
      4.57034307e-003 -2.83731222e-002 -4.73726764e-002 -1.84705015e-002
      2.82027144e-002 2.19505304e-003 6.75315829e-003 3.86173930e-003
      -4.12091240e-002 -4.13990803e-002 -7.54039362e-002
      -6.46045357e-002 -2.00652331e-002 2.56741438e-002 2.36467160e-002
      1.57926269e-002 2.99071092e-002 2.22448558e-002 -1.43228527e-002
      -1.56236254e-002 8.98352731e-003 6.39968645e-003 2.91262101e-002
      3.70749645e-002 2.09632162e-002 4.18655090e-002 1.42356083e-002
      -4.31215670e-003 5.23200212e-003 -3.98821849e-003 -1.11412387e-002
      2.44758818e-002 -8.36750120e-003 1.34474039e-002 1.49285570e-002
      -6.37323037e-002 -4.54990044e-002 -4.68496121e-002
      -4.78315204e-002 -6.95962384e-002 -3.09792478e-002 9.08310153e-003
      -6.73026138e-004 -2.29529012e-003 7.90125784e-003 4.71076462e-003
      -1.46576704e-003 -1.69350132e-002 -6.57826837e-004 7.72937341e-003
      2.08274908e-002 8.29186849e-003 -2.60524377e-002 -4.77828830e-002
      -1.14544388e-002 1.59703940e-002 -1.21189542e-002 -1.59648862e-002
      1.69707127e-002 -2.32616477e-002 1.13107953e-002 -8.54623970e-003
      -3.77424546e-002 -3.63562885e-003 -1.38792638e-002
      -1.05626779e-002 -4.07951465e-003 -1.29550667e-002 3.99392880e-002
      3.56112942e-002 4.05807048e-003 -1.66631900e-002 3.01497709e-003
      -4.43694070e-002 -3.49787176e-002 5.59139950e-003 5.89632429e-002
      2.50550415e-002 2.31988337e-002 -1.14355255e-002 -6.77993745e-002
      -4.84289005e-002 -6.29762262e-002 -1.59500036e-002 4.04445417e-002
      4.67076525e-002 -1.20566152e-002 -2.57880893e-002 -2.89614033e-002
      -3.30706984e-002 -2.54830513e-002 -4.12552804e-002
      -3.45175266e-002 1.70675851e-002 2.49865819e-002 3.28438431e-002
      9.95945185e-003 1.90029275e-002 9.73967370e-003 -8.21016449e-003
      1.94140654e-002 1.05522694e-002 -8.15145113e-003 1.90598033e-002
      2.83430936e-003 7.31798038e-002 2.34219823e-002 -6.27939403e-002
      -6.87965900e-002 -2.37790626e-002 -2.84285191e-002
      -2.09129825e-002 -1.24053974e-002 -2.06851028e-002 1.07127782e-002
      -2.47857231e-003 -2.61411760e-002 -1.89927686e-002
      -1.65996067e-002 -1.90053470e-002 -5.60126407e-003
      -2.11285334e-002 -9.30233102e-004 -3.58446705e-004
      -1.62333902e-002 -2.06358116e-002 -2.95986724e-003 1.80112645e-002
      -2.23984243e-003 1.90124637e-003 1.08933188e-002 3.45388748e-004
      4.22639251e-002 1.47022223e-002 -3.23150493e-002 -2.25210749e-002
      5.60671370e-003 -5.83410216e-003 2.64392439e-002 1.79888587e-002
      -2.99303308e-002 1.62393488e-002 1.75602101e-002 1.41218733e-002
      8.60904809e-004 -9.25957225e-003 -9.23917443e-003 -7.26789352e-004
      -2.48477589e-002 3.06578465e-002 1.11396180e-003 -1.66606009e-002
      -5.10312542e-002 -1.56249814e-002 -2.32843421e-002 2.00756807e-002
      4.98018675e-002 5.02785221e-002 -1.44489680e-003 -6.56686118e-003
      -2.69073062e-002 -6.79119397e-003 6.61298307e-003 -2.17731874e-002
      -8.42612609e-003 5.05824760e-002 4.89743724e-002 -1.64457527e-003
      1.23035312e-002 -4.85581206e-003 1.73930812e-003 1.95281003e-002
      -1.71457212e-002 -4.49499525e-002 -1.17021380e-002 2.00606529e-002
      2.65511386e-002 5.37032522e-002 -2.54249689e-003 -5.24257421e-002
      -7.78056262e-003 -1.23025207e-002 -1.25131486e-002
      -1.61729157e-002 2.77567655e-002 3.05329799e-003 2.05151550e-002
      2.53382921e-002 1.59449913e-002 -1.90635268e-002 -2.17190152e-003
      1.57023370e-002 1.17469868e-002 2.34195683e-002 9.24516562e-003
      1.99228656e-002 -3.61783500e-003 -7.11244764e-003 -9.67672002e-003
      -1.76041387e-002 -4.08141464e-002 3.10260989e-003 -3.43224010e-003
      -8.82202666e-003 2.64534112e-002 2.07426809e-002 1.23875844e-003
      4.09100205e-003 4.25374950e-004 -5.57335792e-003 1.46542331e-002
      6.58485573e-003 -2.70545315e-002 2.80960016e-002 2.73758192e-002
      1.52999079e-002 1.41942594e-002 2.41961088e-002 4.34566895e-003
      4.50412929e-003 -2.07662527e-002 7.49557093e-003 1.48699079e-002
      2.29179617e-002 -1.01860547e-002 -3.95636819e-003 4.60356660e-003
      3.56429326e-003 3.12255882e-003 -1.31983217e-002 -1.11324890e-002
      7.29931006e-003 -2.10522208e-002 -8.35572276e-003 1.95186716e-002
      -3.28730745e-003 -2.11571269e-002 2.59406269e-002 1.99675821e-002
      1.85203012e-002 1.45079391e-002 1.84943508e-002 1.80580579e-002
      5.15557379e-002 3.03069726e-002 -1.31900115e-002 1.67557020e-002
      4.59041037e-002 1.44998683e-002 2.10136473e-002 2.99199987e-002
      -2.50459593e-002 -8.72402359e-003 2.31417865e-002 -2.25557331e-002
      -2.37974440e-004 1.02303158e-002 -6.59136521e-003 2.21484601e-002
      4.18360316e-004 -2.75370735e-003 6.44502044e-003 -1.39587019e-002
      -2.19239742e-002 2.02251729e-002 -4.77035111e-003 2.84507014e-002
      2.25021634e-002 1.95220336e-002 2.86310632e-003 -1.83492508e-002
      -1.18296770e-002 2.54049320e-002 2.06822474e-002 2.32951399e-002
      -1.24362693e-003 5.47171151e-003 -8.11744190e-004 -4.22774814e-002
      -4.39992771e-002 -2.13588141e-002 -1.00147566e-002 4.00341451e-002
      2.17908528e-002 -9.46143642e-003 1.39170764e-002 1.78967435e-002
      -1.98760070e-002 2.36961502e-003 8.15498817e-004 -1.18256221e-002
      -3.13813016e-002 -3.80482748e-002 1.58612821e-002 1.28479814e-002
      2.64708195e-002 1.40405237e-003 -3.93567979e-003 1.63855534e-002
      4.22740076e-003 3.16623338e-002 1.53958611e-003 8.20540765e-004
      -9.59300529e-003 -1.50357820e-002 6.85933791e-003 6.80844113e-003
      2.00992543e-002 -1.10192578e-002 1.72031969e-002 2.34040562e-002
      -3.13316658e-003 1.42728323e-002 1.85939819e-002 -6.79530529e-003
      1.29606510e-002 1.22229364e-002 -1.09221591e-002 1.19519262e-002
      1.67926531e-002 2.06728801e-002 5.33017628e-002 4.69739176e-002
      -1.79655291e-002 -1.38391824e-002 6.96147676e-004 -1.12825707e-002
      1.27934013e-002 2.18222700e-002 -4.12483094e-003 -5.63890673e-003
      1.71760805e-002 9.74677317e-003 -1.14499545e-002 -3.64254788e-002
      -4.50059511e-002 4.78234561e-003 1.01410700e-002 -3.31267511e-005
      1.23166637e-002 4.57279850e-003 -1.00199562e-002 -1.77621038e-003
      -1.36811966e-002 -3.55614461e-002 -2.65089073e-003
      -1.38320047e-002 -8.93562939e-003 -8.95695179e-004
      -1.17458235e-002 -2.68455502e-002 -5.23913726e-002
      -4.76615019e-002 2.10957788e-002 7.71116987e-002 3.62477116e-002
      -6.48241537e-003 -8.22260510e-003 1.40903052e-002 8.37728102e-003
      -4.94853048e-005 7.55892741e-003 -2.00059935e-002 6.47262707e-002
      4.31646071e-002 -7.03462400e-003 -1.21681802e-002 -2.66474119e-004
      8.65097344e-003 1.72355883e-002 1.60252061e-002 -2.22298559e-002
      -9.93534923e-003 -1.82173476e-002 5.77143021e-003 -2.07487363e-002
      -3.20499167e-002 2.63207546e-003 -1.86452828e-002 8.05187598e-003
      -1.90011058e-002 3.74445245e-002 3.57415937e-002 -3.30016366e-003
      -2.10291687e-002 -2.66173817e-002 -2.08581146e-002 1.74958315e-002
      3.40955257e-002 -8.66809953e-003 3.75212654e-002 2.42577884e-002
      3.15778214e-003 1.62634831e-002 2.31544971e-002 -3.06612905e-003
      7.32052000e-003 -7.59410579e-003 -3.19223441e-002 -7.18752667e-003
      -5.11173252e-003 4.26540198e-003 -1.08124071e-003 3.85191813e-002
      4.61996123e-002 5.28516881e-002 -2.45534610e-002 -2.00487208e-002
      -1.46558527e-002 6.68627163e-003 -7.58822029e-003 -1.12378104e-002
      1.98099315e-002 1.70193426e-002 6.51523545e-002 3.11016366e-002
      -4.33123447e-002 -3.87091078e-002 -7.82122370e-003
      -2.14900468e-002 -2.14731526e-002 2.09119474e-003 -1.46574983e-002
      -2.45420523e-002 -1.66902933e-002 -1.57442838e-002
      -1.80817195e-004 -5.67647442e-003 -1.77203922e-003 8.72620754e-003
      2.92341858e-002 4.58187014e-002 -6.64474629e-003 3.43003380e-003
      -8.21415242e-003 5.14024906e-002 1.89411435e-002 -1.25432750e-002
      -3.50080729e-002 -1.09531470e-002 2.80775912e-002 6.05690740e-002
      2.41737254e-002 -3.76690850e-002 8.60859116e-004 7.07815692e-004
      -1.15546696e-002 -3.11018042e-002 -2.57245209e-002
      -1.30077554e-002 2.97655491e-003 -1.09349946e-002 -5.76166548e-002
      -3.82744893e-002 -1.60097163e-002 -1.19924983e-002
      -1.84792113e-002 -2.20057257e-002 -4.06501861e-003 2.18693838e-002
      3.55443805e-002 -6.18411899e-002 2.10827254e-002 7.44347787e-003
      5.21071721e-003 -1.61711071e-002 -1.44451465e-002 -9.19336046e-004
      5.37596494e-002 7.16571584e-002 -6.94248378e-002 -2.31635431e-003
      1.84101090e-002 -1.84252262e-002 -2.24796012e-002 2.16980968e-002
      3.18295620e-002 1.10368785e-002 1.86438742e-003 3.94792482e-003
      -1.45865902e-002 -2.09500547e-002 2.37388979e-003 -1.77072417e-002
      -2.62474865e-002 -2.55819317e-002 -1.65634863e-002
      -5.87720005e-003 1.87620167e-002 9.12878476e-003 2.80239526e-002
      -2.14560963e-002 -1.15101039e-002 -8.66075885e-003
      -9.01355501e-003 -2.26514656e-002 -6.75332453e-003 1.11000109e-002
      1.08591290e-002 7.99135212e-003 -5.34896590e-002 -5.35952374e-002
      -1.89520884e-002 6.82009906e-002 4.55588624e-002 -1.56605132e-002
      -1.72103830e-002 -4.39528264e-002 -5.29393218e-002
      -2.92503694e-003 -2.92868912e-002 3.02188145e-003 -1.81596596e-002
      1.85688622e-002 3.04763298e-002 4.14649136e-002 2.17533261e-002
      2.71351021e-002 1.07073765e-002 9.31988237e-004 -5.56597579e-003
      -4.55822758e-002 -3.39060016e-002 -1.68417450e-002 2.75487732e-002
      1.99456569e-002 9.93567519e-003 -1.32909715e-002 2.30769115e-003
      1.59196164e-002 2.88005378e-002 3.66544127e-002 -9.89286043e-003
      -1.21602584e-002 -1.92469116e-002 -1.70638952e-002 1.28115397e-002
      6.40454562e-003 7.44041894e-003 2.24640593e-003 1.62804127e-002
      -4.22476704e-004 1.71536822e-002 6.21310994e-003 -1.13055483e-002
      1.42927812e-002 1.21970223e-002 -8.64416920e-003 -3.17630842e-002
      -3.69887948e-002 -1.01114083e-002 8.52277223e-003 2.89389724e-003
      -5.01801353e-003 -1.82608496e-002 -1.28104992e-003 8.23740661e-003
      -1.51034966e-002 -2.52324603e-002 1.22317733e-005 1.36702592e-002
      2.32278723e-002 2.61418335e-002 -1.28423814e-002 -1.41886165e-002
      1.03876728e-003 1.12396544e-002 3.25648231e-003 -7.77049363e-003
      4.71886573e-003 6.18688529e-003 9.41861793e-003 -1.29124410e-002
      -3.66390087e-002 -4.04317938e-002 -1.28171500e-002
      -7.04949582e-003 -1.53321028e-002 -1.93351265e-002
      -1.72102284e-002 -1.43263424e-002 2.84646843e-002 1.91067420e-002
      -7.75927678e-003 -2.46614181e-002 -1.84709541e-002 1.91298369e-002
      2.83348430e-002 2.24459246e-002 8.58574547e-003 1.04879541e-003
      1.41055621e-002 2.38726530e-002 -3.70394904e-003 2.13070586e-002
      1.53558478e-002 3.08690891e-002 4.60243560e-002 3.75823751e-002
      -3.20724621e-002 -3.91536392e-002 -4.92018349e-002
      -2.43438911e-002 -2.26416215e-002 -4.77376580e-002
      -3.89433615e-002 -5.90821216e-003 -4.52882377e-003 7.46644475e-003
      2.08435394e-002 4.78470046e-003 1.33598167e-002 -1.24653829e-002
      -2.59295548e-003 4.89164144e-003 -1.09859591e-003 -3.28892632e-003
      2.12816596e-002 3.29842232e-003 -2.87954919e-002 -4.52261306e-002
      -1.07517662e-002 1.04971267e-002 3.32447477e-002 3.04914340e-002
      8.04064143e-003 -1.80957634e-002 -2.43824292e-002 -2.21749954e-002
      -3.67759052e-003 -1.55258756e-002 -3.24760634e-003
      -1.84682999e-002 -1.97969880e-002 -1.15957661e-002 1.11220153e-002
      4.65009920e-003 8.55584815e-003 1.90383308e-002 -1.88499806e-004
      -4.11332026e-003 -7.68245780e-004 9.38191731e-003 9.32548195e-003
      1.00490851e-002 -9.73577518e-003 -1.86360478e-002 1.14734601e-002
      7.07580987e-003 -3.26470425e-003 -4.94902162e-003 3.23915039e-003
      1.88083928e-002 6.49215654e-003 -3.59720958e-004 3.92434777e-005
      -3.17457272e-003 -2.32916065e-002 -2.03687288e-002
      -3.69648747e-002 -5.51880850e-003 -1.01752188e-002 1.12158889e-002
      -1.15936650e-002 -8.94778781e-003 -1.70394797e-002
      -2.06519905e-002 2.11663079e-003 2.55578589e-002 2.96978895e-002
      2.96418853e-002 6.81421906e-003 8.13118895e-005 -3.98913911e-003
      3.02960817e-003 3.30722295e-002 -4.03246656e-002 -3.95216867e-002
      -1.39760356e-002 -1.12453941e-002 7.45587386e-005 1.75187401e-002
      3.31796822e-003 -4.15092614e-003 1.06810383e-003 -4.32493873e-002
      -4.85204197e-002 -4.21122275e-002 -1.82663333e-002 8.55167210e-003
      -3.84898274e-003 -2.62121931e-002 -1.04057360e-002
      -3.20013915e-003 1.51543422e-002 2.02487763e-002 2.12218408e-002
      1.02626132e-002 -2.18032859e-002 -1.42234769e-002 5.10601734e-004
      -1.07686250e-002 9.80694126e-003 -1.75756104e-002 -2.18582787e-002
      -2.85946690e-002 -2.22319681e-002 1.08836573e-002 -3.85779049e-003
      -4.61200625e-003 7.51960371e-003 -2.06741262e-002 -1.36508858e-002
      -1.04617681e-002 -2.33711712e-002 -1.11544859e-002 2.17071772e-002
      -3.58160847e-004 -1.47386221e-002 1.22361851e-003 -1.25881694e-002
      2.43912661e-003 -5.82238473e-003 2.47490592e-002 2.31637172e-002
      2.00281274e-002 -8.38716398e-004 1.61875580e-002 8.57341196e-003
      -1.78509075e-002 -9.74300958e-004 -2.19835080e-002
      -6.10182807e-003 9.81597416e-003 -1.94920241e-004 5.28703351e-003
      2.68783700e-002 5.05635981e-003 1.16453255e-002 -9.12702549e-003
      -2.65301708e-002 -2.50362586e-002 7.24114871e-005 2.34251451e-002
      -3.77083663e-004 -6.79126894e-003 -3.30547690e-002
      -4.77062985e-002 -2.90535521e-002 -2.23674867e-002
      -7.56981364e-003 1.68415774e-002 -4.44942107e-003 2.47820374e-002
      -1.54323569e-002 1.80384773e-003 -3.36713600e-003 -1.70482099e-002
      -3.83375101e-002 -3.16005908e-002 -2.18379516e-002 2.75137648e-002
      1.59977712e-002 -1.30482139e-002 -2.89249513e-002 -3.70749682e-002
      -1.52734676e-002 -5.32191321e-002 -4.41354252e-002
      -1.05124083e-003 -8.83614831e-003 -2.05903351e-002
      -2.78354604e-002 -3.50877345e-002 -3.57058272e-002 1.02005564e-002
      -4.86298988e-004 -2.22593956e-002 -1.16597796e-002 3.17335641e-003
      -9.08870809e-003 -3.09196692e-002 -6.78689266e-003
      -1.86053123e-002 -3.56585532e-002 -6.44346513e-003
      -2.77725067e-002 -1.45200323e-002 -6.29637251e-003 9.97819821e-004
      -1.01315258e-002 -1.19634839e-002 -1.90570075e-002 3.72366305e-003
      -2.99296807e-002 -3.47726196e-002 -1.97749101e-002 2.71633286e-002
      8.62576533e-003 4.19279002e-003 -8.36822111e-003 -4.96455207e-002
      -9.99973435e-003 -1.68456119e-002 -8.05015094e-004 1.63921528e-002
      1.33489920e-002 1.33828970e-003 1.11638168e-002 -3.46792936e-002
      -2.25165877e-002 -3.22429650e-003 -2.22121831e-003
      -1.12408530e-002 1.40603827e-002 -1.47159826e-002 3.34507157e-003
      -5.26137929e-003 -3.52149904e-002 -4.77414578e-003
      -2.02279631e-002 -3.97436097e-002 -5.15962616e-002
      -2.25623753e-002 3.16455923e-002 1.33720478e-002 -7.15739978e-003
      2.15072446e-002 -1.08621549e-002 -4.51254994e-002 -4.58286665e-002
      -1.75735764e-002 5.58203144e-004 4.66383919e-002 4.37759645e-002
      -2.04035919e-002 -2.90185027e-002 -2.69535594e-002 2.12606080e-002
      -2.47913618e-002 -1.79369021e-002 4.04988267e-002 -2.38264259e-002
      1.51203535e-002 -2.76579764e-002 -6.23525344e-002 -2.90221386e-002
      5.67121571e-003 -8.02558847e-003 1.68193690e-002 -2.73417053e-003
      1.80314214e-003 -5.43596083e-003 -9.56354383e-003 -9.60038323e-003
      -3.54085416e-002 -2.21648403e-002 -1.66988466e-003
      -1.33109288e-002 -4.28373739e-003 3.10493652e-002 3.45807113e-002
      -2.20019463e-002 -2.19024271e-002 -1.53290369e-002
      -1.36206225e-002 -2.41198093e-002 -9.47339181e-003 3.48937977e-003
      8.59441236e-003 1.54599044e-002 -1.35152787e-002 -2.98241694e-002
      -1.29149249e-002 -1.06060989e-002 3.60520760e-004 1.58360284e-002
      -9.03405948e-004 -9.43607418e-004 -1.33627066e-002
      -1.20137436e-002 -3.43358144e-002 -2.10147258e-002 4.52129496e-003
      1.32389916e-002 2.78057018e-003 9.16252099e-003 1.14496071e-002
      3.08881998e-002 -8.83815810e-003 -7.63136968e-002 -4.25497107e-002
      -1.96951348e-002 -4.38994691e-002 -4.77819778e-002 4.37615812e-003
      -2.61220895e-002 5.28600626e-003 -2.62283664e-002 -2.17272248e-002
      -1.51418028e-002 -3.75585519e-002 -3.81315798e-002
      -2.05014609e-002 -2.84392964e-002 1.91007294e-002 1.42418453e-002
      -4.40063253e-002 -4.94319685e-002 -1.57314222e-002 2.05356721e-002
      1.97769534e-002 1.79721694e-002 3.75980437e-002 3.57548427e-003
      2.17832699e-002 -8.08562897e-003 -2.09129155e-002 -8.94492865e-003
      -3.32791184e-004 -1.46520871e-003 4.99040298e-002 2.01865267e-002
      -2.16554869e-002 2.04773340e-002 9.42899194e-003 1.53527530e-002
      -1.83482934e-002 -7.17924675e-003 -3.44100967e-002 1.42204305e-002
      9.89121269e-004 2.14225501e-002 3.20314392e-002 -9.96308029e-003
      -2.54651718e-002 -2.15635798e-003 2.17403434e-002 -1.25769190e-002
      5.05509647e-003 5.97547973e-003 1.34335244e-002 1.99158397e-002
      1.17505307e-003 -1.16859935e-002 2.67538615e-002 2.55350415e-002
      2.34262496e-002 3.90643217e-002 1.13780759e-002 5.53465507e-004
      -1.04617712e-003 2.88942251e-002 3.87027115e-002 1.05940206e-002
      -1.49088958e-002 -1.27349105e-002 -5.13544772e-003
      -1.16779795e-002 8.79542716e-003 2.13347878e-002 -2.43953597e-002
      -5.95700853e-002 -2.55609825e-002 -3.31377634e-003
      -1.28822010e-002 -1.26017386e-003 1.76568851e-002 -2.49739923e-002
      1.72922518e-002 -2.68474929e-002 -3.63021158e-002 -1.54876262e-002
      -7.55286217e-003 -6.69030566e-003 -9.63145029e-003
      -3.51210348e-002 -2.26498190e-002 -1.61967136e-003
      -1.11548733e-002 -3.71197164e-002 -2.50588749e-002
      -3.56208608e-002 -3.79347056e-002 -1.59037877e-002
      -5.60502857e-002 5.93736721e-003 2.17626728e-002 -5.88344177e-003
      -2.83085797e-002 -1.84580870e-002 -1.73538423e-003 1.57061797e-002
      6.36894405e-002 4.67821620e-002 1.63579104e-003 3.16149257e-002
      2.77619995e-002 2.65483465e-002 -4.75685149e-002 2.97374837e-002
      1.52602149e-002 2.55579930e-002 6.72721583e-003 7.69982301e-003
      1.65192969e-002 1.46388533e-002 -1.90691072e-002 -2.03502234e-002
      -1.96271725e-002 -6.41110586e-003 -3.63820000e-003
      -1.52591441e-003 1.80521712e-003 6.16494333e-003 -2.41333386e-003
      1.96966957e-002 3.62498388e-002 1.71425510e-002 -4.96747904e-003
      5.59738418e-003 -1.87804666e-003 3.38525549e-002 4.76084761e-002
      6.37147725e-002 4.27262373e-002 -2.08535884e-002 1.10488094e-003
      8.69477590e-005 1.61980484e-002 2.22817459e-003 7.07634678e-003
      1.66880377e-002 8.13973323e-003 3.02822143e-002 1.99604128e-002
      4.11423482e-003 7.31484639e-003 2.53342534e-003 -3.04315909e-004
      -1.54327825e-002 -8.38559004e-004 -3.35819870e-002
      -5.10894172e-002 -1.16603868e-002 -3.29610193e-003
      -3.64540902e-005 5.68076782e-003 -2.65069436e-002 4.33728285e-003
      -2.94759433e-004 -7.83566572e-003 -2.79329978e-002
      -1.82247609e-002 -2.91378573e-002 -3.46097238e-002
      -9.67685692e-003 -1.86812952e-002 -1.14119807e-002
      -6.61406107e-003 3.20497551e-003 -2.19009891e-002 -3.60059328e-002
      -3.04606911e-002 -3.34007554e-002 7.81324040e-003 -8.96165147e-003
      8.36731307e-003 3.53221484e-002 1.14592137e-002 -3.49866562e-002
      -1.72594923e-003 1.27764298e-002 2.19816454e-002 1.07362587e-002
      -1.09883528e-002 3.41585092e-002 3.33698727e-002 2.57803109e-002
      3.92178725e-003 -2.63239238e-002 -2.37068310e-002 2.15876438e-002
      5.39511591e-002 4.13435549e-002 2.41451301e-002 -9.33870766e-003
      -2.84362659e-002 -9.93288029e-003 -4.60818037e-002
      -1.73283182e-002 -1.91722102e-002 3.28733623e-002 5.51542044e-002
      1.07928915e-002 3.09624989e-002 3.06297746e-002 1.58523135e-002
      -1.08085005e-002 -2.63677705e-002 -9.99174081e-003
      -1.22845983e-002 -1.60589684e-002 2.71270648e-002 3.75886858e-002
      4.60622124e-002 4.71973978e-002 4.46462147e-002 3.59581597e-002
      5.45380116e-002 3.18869986e-002 3.19045708e-002 -1.20857107e-002
      -6.01795409e-003 5.57273207e-003 4.01161797e-002 2.68517621e-002
      3.27303261e-002 3.60079259e-002 2.54656114e-002 9.82687436e-003
      -1.31593579e-002 -5.79137495e-003 -6.10708958e-003
      -2.04918496e-002 -3.67316976e-002 -1.33019108e-002
      -3.32448557e-002 -8.10918864e-003 -2.00468823e-002
      -2.99603119e-003 -2.08840892e-002 -1.89066958e-002
      -2.47957874e-002 -4.45351787e-002 -3.19022574e-002
      -1.98867954e-002 3.57384682e-002 -3.31186433e-003 -9.71267466e-003
      -2.19314545e-002 -8.02276470e-003 -1.70734152e-002
      -2.75695249e-002 -1.33378031e-002 -6.40741736e-002 1.85383379e-003
      1.67757310e-002 -2.18466949e-003 3.72174336e-003 1.93557218e-002
      1.47466594e-002 5.70792379e-003 -3.49046895e-003 -1.47160450e-002
      2.40012165e-002 2.74824277e-002 5.32666314e-003 -7.15675903e-003
      -5.07814772e-002 -4.60306518e-002 -7.57255405e-002
      -3.60813029e-002 -2.89598317e-003 3.84788327e-002 1.69986319e-002
      -4.62884549e-003 -4.96310629e-002 -6.43993169e-002
      -4.38259728e-002 -9.69840214e-003 2.72337254e-003 -1.95702463e-002
      4.69475724e-002 1.76424701e-002 -1.73135046e-002 -4.22358187e-003
      4.94784862e-003 4.50485572e-002 3.09462063e-002 3.59731540e-002
      4.33088355e-002 2.76734903e-002 1.06192948e-002 7.46754091e-003
      3.99238314e-004 4.90927720e-004 2.44055912e-002 7.43741961e-003
      2.07290687e-002 5.75529635e-002 4.41038311e-002 2.08867118e-002
      -1.92486849e-002 -1.27085857e-002 -2.09422931e-002
      -1.04638441e-002 2.52929926e-002 3.38878371e-002 1.08436160e-002
      2.47760564e-002 -8.94092768e-003 -5.28186606e-003 -1.95980445e-002
      -3.61724268e-003 -8.34457204e-003 -8.46329331e-003
      -5.38282748e-003 -3.96303833e-002 1.05493627e-002 2.00837515e-002
      3.83081986e-003 -1.20227132e-002 -4.05067671e-003 3.61994054e-004
      -1.30268987e-002 -2.00934056e-003 -5.06629236e-002 2.74697784e-002
      3.79993320e-002 -1.89881176e-002 -3.78318541e-002 -2.27539912e-002
      -9.22865525e-004 -1.92598009e-003 -1.35142272e-002
      -8.61404985e-002 -7.00744614e-003 -1.85225606e-002
      -4.48318152e-003 -3.20038348e-002 -5.43084256e-002
      -1.74219515e-002 -1.24149183e-002 -9.87996440e-003
      -2.51581166e-002 1.12213325e-002 2.13643573e-002 -2.67078057e-002
      -6.34797662e-002 -6.68530241e-002 -2.57668104e-002
      -2.68113781e-002 1.14397164e-002 -3.78363067e-003 1.01270871e-002
      1.68333785e-003 -9.39179119e-003 -2.70078629e-002 -3.37578803e-002
      -1.50931804e-002 3.09006646e-002 2.55162790e-002 -8.27876776e-002
      -2.00760346e-002 3.11895204e-003 -1.33561585e-002 1.45078101e-003
      -1.28265219e-002 1.23220468e-002 3.11400536e-002 1.47789856e-002
      -1.09618828e-002 -1.78951863e-002 -1.64518896e-002
      -1.43540436e-002 -1.57609191e-002 -2.34268270e-002 3.77425388e-003
      3.51471640e-002 1.24563249e-002 1.81014296e-002 2.90871020e-002
      -1.61010940e-002 6.83663820e-004 7.03364378e-003 -7.58622831e-004
      9.71599203e-003 4.79737371e-002 4.63698693e-002 -2.43337117e-002
      2.56522652e-002 -5.41004352e-004 -2.23390386e-002 -1.65864620e-002
      -1.26819527e-002 3.55066359e-002 2.05325261e-002 -6.32338692e-003
      -9.03585926e-003 -1.86842401e-002 -2.85870600e-002 2.16675326e-002
      7.35102827e-003 -5.83545864e-003 4.93025687e-003 -2.85372301e-003
      2.03193184e-002 3.51154990e-002 2.08050888e-002 -1.99999264e-003
      2.01560501e-002 1.48208961e-002 -2.63139568e-002 -3.06153391e-002
      -3.76885384e-002 9.00953356e-003 3.46101597e-002 2.12299339e-002
      7.93610420e-003 -1.18623851e-002 -1.51424482e-002 1.94608886e-003
      4.49212268e-002 2.37084981e-002 1.21364417e-002 7.40171969e-003
      -1.67137738e-002 -1.89121608e-002 -1.60078332e-003
      -2.63245311e-002 -5.34976553e-003 -2.15068031e-002 1.91352163e-002
      -7.99757149e-003 5.70717566e-002 2.06387285e-002 -2.70786770e-002
      9.30678274e-004 2.01088041e-002 -8.19332898e-003 -3.53053510e-002
      -2.25419551e-002 -1.73092950e-002 1.58230029e-002 -6.72161067e-003
      -2.72671673e-002 8.52244999e-003 -2.53989291e-003 -6.73346268e-003
      -2.54856870e-002 -2.47894810e-003 1.55013008e-002 1.34329284e-002
      1.38863390e-002 6.41696854e-003 -6.95638405e-003 -3.25597054e-003
      -4.00952296e-004 1.80696044e-002 2.12785080e-002 1.01612573e-002
      1.84744932e-002 1.30969612e-002 -2.60608667e-003 6.37428486e-004
      9.73862130e-003 1.72713939e-002 -3.28006074e-002 -4.15894538e-002
      -4.07279097e-002 -3.11496132e-003 -9.52720363e-003
      -1.34777036e-002 1.78642776e-002 2.95335595e-002 1.57949910e-003
      9.24668554e-003 -1.37668047e-002 1.28385751e-003 1.95162911e-002
      1.58149395e-002 6.99682161e-004 1.41284531e-002 4.07929998e-003
      -1.59352943e-002 -1.49135208e-002 -2.00127233e-002 2.70033199e-002
      2.80777160e-002 3.53419259e-002 1.95162185e-002 -3.56182307e-002
      -2.41339151e-002 -8.86056200e-003 1.01636173e-002 -2.43982915e-002
      -2.29893085e-002 -2.42357180e-002 -7.35554751e-003
      -1.28355613e-002 8.46051052e-003 1.39924129e-002 5.95743209e-003
      8.54599755e-003 2.18487363e-002 5.06798737e-003 1.36955129e-002
      6.08693867e-004 -1.79204624e-002 -3.65929853e-004 2.16399482e-003
      8.74115527e-003 -9.62761603e-003 3.64628620e-002 1.95900127e-002
      2.51259860e-002 -4.82465746e-003 -2.66141277e-002 -3.45178582e-002
      -3.21215652e-002 -1.87901910e-002 6.27531251e-003 -2.76153889e-002
      -4.39199023e-002 -4.44938429e-002 -6.81109801e-002
      -4.51425277e-002 -3.72032821e-003 -1.43876194e-003
      -8.06972757e-003 1.38513399e-002 2.64761690e-003 -2.19624024e-002
      1.11588871e-003 -5.80020202e-003 -1.17661469e-002 -1.56626815e-003
      1.47375290e-003 3.00885495e-002 -2.40827240e-002 -2.19277965e-004
      -1.65214129e-002 5.43718180e-003 -2.49479357e-002 -2.40528956e-002
      1.49517809e-003 -1.32919252e-002 -2.03818195e-002 -2.98234746e-002
      -5.03862835e-002 2.71290308e-003 8.30751285e-003 -1.45842191e-002
      -6.68791914e-003 1.35935349e-002 1.02769770e-002 5.61740017e-003
      1.06978859e-003 -3.34240706e-003 -8.52222729e-004 1.54359890e-002
      3.09893806e-002 3.15779522e-002 2.39501544e-003 7.46767409e-003
      1.84726622e-002 9.86536033e-003 -9.39961243e-003 -3.77595685e-002
      -2.82602720e-002 -9.07550193e-003 1.02335573e-004 2.38001742e-003
      6.76378654e-003 1.95783237e-003 7.48583302e-003 -2.19394974e-002
      -4.57798541e-002 -5.61973490e-002 -3.57975960e-002
      -1.99646149e-002 2.51693949e-002 8.03279318e-003 -8.80789012e-003
      -1.51607003e-002 -3.51074245e-003 6.78585516e-003 1.55671351e-002
      2.57916544e-002 2.23607998e-002 -2.78717801e-002 5.27020195e-004
      2.15917882e-002 2.68205106e-002 3.13688815e-002 -7.83095043e-003
      -1.78278536e-002 -6.53723106e-002 -4.20688912e-002
      -1.31263072e-002 -1.37018031e-002 1.05241602e-002 9.60644241e-003
      5.70908096e-003 -4.84983996e-002 -2.09751297e-002 -6.33717626e-002
      -3.76717225e-002 1.44258570e-002 4.66817757e-003 5.32042049e-003
      -2.05638912e-002 -1.42543446e-002 -6.28978852e-003 6.90776762e-003
      8.63367133e-003 1.33166257e-002 3.69351823e-003 -1.39116775e-002
      -5.18792961e-003 -8.46742466e-003 6.48629246e-003 2.20335322e-003
      1.51499165e-002 -2.50072237e-002 -1.47023401e-003 -1.18647488e-002
      -2.90053580e-002 -1.71053242e-002 -1.83422596e-003
      -1.35761043e-002 -6.58252230e-003 7.51711987e-003 -3.15343961e-002
      -1.31792882e-002 1.34627409e-002 3.43335536e-003 2.33951975e-002
      1.35712968e-002 -1.57185327e-002 9.26842820e-003 -3.99625627e-003
      1.81117968e-003 1.37122991e-002 2.06949785e-002 3.72387432e-002
      2.00994313e-003 1.68919209e-002 1.49218850e-002 -3.06539964e-002
      -3.49365547e-002 -3.17168161e-002 -1.15472442e-002 1.05689205e-002
      4.70855879e-003 -9.22799390e-003 -1.78473871e-002 4.67135385e-003
      3.10325972e-003 -2.22156700e-002 -2.11005230e-002 -3.61919100e-003
      1.01933992e-002 1.31700914e-002 8.27499479e-003 -1.40149537e-002
      -1.62040945e-002 9.46865184e-004 1.77098308e-002 -2.35177800e-002
      4.24688775e-003 -1.08422479e-002 -4.91837179e-003 8.80167540e-003
      3.31655890e-002 4.80733812e-002 -6.83208811e-004 1.01982746e-002
      -5.66996336e-002 -1.72358770e-002 -1.23506617e-002 3.01469670e-004
      -1.16017852e-002 2.66932026e-002 -1.36231873e-002 9.84615530e-004
      -2.60282420e-002 -4.61198464e-002 -3.57700884e-002 1.18314447e-002
      -5.69297839e-003 -5.97964088e-003 -2.56112218e-002
      -2.65175942e-002 2.62609385e-002 1.09688612e-002 -1.40332934e-002
      7.91218784e-003 -7.42748333e-003 -1.99990328e-002 -1.16759315e-002
      2.11404804e-002 1.88347623e-002 -2.28392575e-002 4.17452399e-003
      -2.12226715e-002 -1.06753008e-002 -1.01458831e-002
      -1.99801568e-003 -7.08614988e-003 -1.16045191e-003
      -1.75354015e-002 -2.35042870e-002 -3.23932245e-002
      -2.49492060e-002 -1.50939114e-002 1.78442560e-002 1.15281865e-002
      -1.21998088e-002 1.15681617e-002 -1.09374085e-002 -1.72935985e-002
      -2.33520586e-002 -1.00546740e-002 -3.73972254e-003 3.79613601e-002
      2.96913069e-002 -3.30199115e-002 -6.28348216e-002 -1.35682467e-002
      1.05553484e-002 -5.77748055e-003 9.42690112e-003 2.52203532e-002
      5.36698848e-004 2.13591345e-002 -1.20928483e-002 -2.88589559e-002
      2.12954148e-003 -1.78932690e-003 1.85637362e-002 3.10671180e-002
      7.92467128e-003 1.67975982e-003 -1.35823395e-002 -1.19762281e-002
      8.94032884e-003 -2.22908072e-002 -9.08242352e-003 -1.98348239e-003
      -2.87430752e-002 -5.06124413e-003 3.69032808e-002 2.68331207e-002
      -1.37778670e-002 1.89608540e-002 -1.39226206e-002 1.07971393e-003
      1.29531054e-002 5.91125060e-003 2.57227151e-003 1.05449399e-002
      1.80450771e-002 -4.06762864e-003 -4.00767438e-002 -2.45990958e-002
      -3.64719168e-003 1.21446429e-002 3.64742838e-002 -3.67578259e-003
      7.02449074e-003 -7.82288797e-003 -1.04713598e-002 4.11771005e-003
      -4.76417318e-002 -3.08807287e-002 -1.41285751e-002
      -1.74852833e-002 4.44886554e-003 1.27996095e-002 4.23817076e-002
      1.48188313e-002 -1.30193196e-002 -4.12322246e-002 -3.57277803e-002
      -3.19384448e-002 3.33838211e-003 -3.33854201e-004 6.67436281e-003
      1.72258951e-002 7.41927838e-003 1.29898656e-002 -1.29769053e-002
      -3.29540335e-002 -7.44153978e-003 -6.68946886e-004
      -4.61579440e-003 1.72878839e-002 9.71108209e-003 -4.43394259e-002
      -6.18021972e-002 -4.33732048e-002 1.26533657e-002 1.55044599e-002
      2.57864669e-002 2.48282664e-002 -2.36057604e-004 2.76828762e-002
      -3.60775590e-002 -7.13739172e-002 -3.52835469e-002
      -1.29790949e-002 1.85655076e-002 5.87512366e-002 1.96531788e-002
      -1.01477951e-002 3.25808278e-003 4.54623345e-003 5.93626348e-004
      -1.24440026e-002 -3.00103072e-002 -1.57174077e-002 8.79090838e-003
      6.09439472e-003 2.14281622e-002 2.07912121e-002 -4.88681011e-002
      -5.36204316e-002 -7.20798448e-002 1.05780158e-002 2.53972616e-002
      3.50674428e-002 1.01982364e-002 8.83015431e-003 1.32582253e-002
      2.67379149e-003 -2.67017279e-002 -4.27094698e-002 1.42426882e-002
      2.67755967e-002 4.14800569e-002 1.36676254e-002 4.36524116e-003
      1.69569498e-003 2.43613068e-002 1.41084464e-002 -1.63254086e-002
      -2.60519423e-002 -3.49080339e-002 -1.19325332e-003
      -1.21126967e-002 1.12474365e-002 2.01734658e-002 -1.18047660e-002
      -2.46369280e-002 -2.37552803e-002 8.01894721e-003 -2.13971850e-003
      1.42528582e-002 2.62195058e-003 -2.56401533e-003 3.48398313e-002
      2.78812721e-002 2.17972863e-002 -3.07479110e-002 -3.63755375e-002
      -1.62944407e-003 -1.00752860e-002 -1.21324863e-002
      -1.79203972e-002 3.35525442e-003 2.70502903e-002 4.20392118e-002
      5.89247141e-003 -1.56016583e-002 -4.44926135e-003 3.11580207e-003
      -1.31661473e-002 5.05119935e-003 -2.69961939e-003 -4.83530015e-002
      -7.19623640e-002 -2.09273882e-002 8.04221537e-003 2.00997666e-002
      4.45297286e-002 3.38526964e-002 2.21650582e-003 2.35275589e-002
      7.32042408e-003 -2.20781974e-002 -2.63418183e-002 -1.95406415e-002
      2.56604748e-003 1.89661905e-002 1.15209511e-002 -5.67755476e-003
      -1.17319042e-003 -7.79608637e-003 -3.54505181e-002
      -2.66629029e-002 -2.03955919e-002 -1.47768687e-002
      -1.87861919e-002 -2.62930449e-002 1.36865340e-002 3.48950527e-003
      -3.39649944e-003 -1.46490354e-002 -2.11374871e-002 2.02449728e-002
      2.76552998e-002 3.36985774e-002 2.70382222e-002 2.29677688e-002
      5.02339639e-002 6.12513535e-002 3.05025261e-002 -4.10324708e-002
      -2.86597125e-002 6.45232573e-003 1.86660271e-002 1.16092833e-002
      5.99896116e-003 3.45610678e-002 1.83599442e-002 1.81741118e-002
      2.62702536e-002 -4.20893468e-002 4.41325316e-003 -1.86523404e-002
      -2.21646819e-002 -1.52273069e-003 1.11216698e-002 3.23070437e-002
      1.76862045e-003 -1.77339409e-002 -3.11060082e-002 -7.47725647e-003
      -8.37743748e-003 -6.80308277e-003 2.22875809e-004 2.75441557e-002
      5.01770638e-002 2.05972288e-002 -2.86235241e-003 1.00349570e-002
      2.93240026e-002 8.16310849e-003 -1.25013869e-002 5.01682330e-003
      1.64774116e-002 4.02132012e-002 3.39036100e-002 7.73634203e-003
      7.14623136e-003 1.79645680e-002 -1.37642436e-002 -1.46160563e-002
      5.72169991e-003 1.10615743e-002 -1.68892313e-002 -6.12018406e-002
      -4.15463299e-002 -1.68008879e-002 1.37471007e-002 1.01902727e-002
      -1.01475762e-002 1.37620809e-004 6.25380455e-003 6.87425910e-003
      -2.10602786e-002 -1.60466395e-002 -4.92928885e-002
      -2.06929371e-002 1.84876996e-003 2.66206590e-003 4.24738135e-003
      -1.96933039e-002 -2.07657684e-002 -1.38090886e-002
      -2.21133083e-002 -2.24510841e-002 -4.82335985e-002
      -2.04384979e-002 1.59551166e-002 3.00065205e-002 3.50669026e-002
      2.11845953e-002 -2.71815304e-002 -4.12164368e-002 -5.54161742e-002
      7.22873211e-003 -1.09653268e-002 -9.03823134e-003 2.10419167e-002
      3.34855616e-002 4.99190651e-002 7.59729557e-003 5.47722401e-003
      -2.71998215e-002 3.98835689e-002 -1.81964971e-002 2.09137262e-003
      3.22837685e-003 5.34841325e-003 6.61930488e-003 2.47723944e-002
      1.59752946e-002 -2.46398915e-002 2.62722708e-002 6.75171800e-003
      1.90766081e-002 2.96398625e-003 1.73913520e-002 3.46481502e-002
      -2.61416403e-003 -1.45645589e-002 -2.98642404e-002 3.29976296e-003
      -1.00281937e-002 -5.69274696e-003 3.14711444e-002 2.69602034e-002
      4.64279540e-002 1.94177572e-002 9.61866416e-003 2.47182101e-002
      3.83440331e-002 9.74192342e-004 8.94752890e-003 9.99506563e-003
      1.56629961e-002 -7.79107073e-003 4.02444089e-003 5.73404506e-002
      3.85828577e-002 2.96434853e-002 -1.12459054e-002 -1.22278975e-002
      -2.79249717e-003 -1.72188319e-002 -4.56380891e-003
      -7.08469655e-003 -2.48363316e-002 -5.17354347e-003
      -1.56481098e-002 -3.32296127e-003 1.58313606e-002 -9.13457666e-003
      -3.91064137e-002 -5.57047501e-002 -4.14182954e-002
      -5.93676716e-002 -3.74962538e-002 -5.24509400e-002 6.68251887e-003
      1.63074527e-002 -1.04738763e-002 -3.59087773e-002 -4.66703139e-002
      -2.59903260e-002 -1.50251258e-002 -3.40724140e-002
      -5.56489192e-002 -7.06905685e-003 1.35999154e-002 -5.25164558e-003
      5.20713953e-003 6.77409815e-003 2.58367490e-002 4.34435345e-002
      2.61196047e-002 3.74030508e-002 1.39728002e-002 1.66617054e-002
      1.62981842e-002 7.50143779e-003 2.06630714e-002 -2.04662923e-002
      -9.09659173e-003 -5.52025773e-002 4.39342819e-002 2.51618698e-002
      3.37094069e-002 -2.56546289e-002 -3.04933507e-002 -5.63033223e-002
      -3.72609831e-002 -1.36740785e-002 -3.56917791e-002
      -8.96354672e-003 2.66484842e-002 -1.22630345e-002 1.59984026e-002
      2.28729676e-002 1.84751786e-002 2.50873789e-002 1.99729856e-002
      3.74994949e-002 2.32309680e-002 -4.98447614e-003 1.71059568e-003
      4.46387334e-003 4.74697212e-003 -1.60240810e-002 2.18054987e-002
      5.63277258e-003 5.31174242e-003 2.38302033e-002 -4.40512411e-003
      -2.82906294e-002 -1.78014934e-002 -2.86771208e-002
      -2.54644603e-002 -1.62160546e-002 3.94082665e-002 2.38096192e-002
      2.03584470e-002 1.54601596e-002 -1.72525849e-002 -1.31586650e-002
      -2.58411299e-002 -3.68418097e-002 -3.14295199e-003
      -5.72600635e-003 -1.00856982e-002 -3.21272165e-002 4.18371474e-003
      1.16289966e-002 -2.04893406e-002 -4.97968458e-002 -5.73841557e-002
      -1.41993901e-002 -3.27207334e-002 -3.80328782e-002
      -6.93237707e-002 1.95139013e-002 8.54677707e-003 -7.76060252e-003
      -1.33939376e-002 -2.70833056e-002 -8.20568763e-003
      -6.62915595e-003 -1.75776295e-002 -1.24130443e-001
      -1.53260259e-002 -1.07076978e-002 -9.77366604e-003
      -8.08948930e-003 -1.47911021e-002 -4.41156887e-003
      -7.90204480e-003 -1.11078098e-002 1.36828078e-002 1.51807833e-002
      1.33900961e-004 -3.06788534e-002 -5.26339300e-002 -6.43699244e-002
      -6.03085803e-003 -6.16991483e-002 1.53713590e-002 -8.51497613e-003
      2.33175606e-002 -4.03065272e-002 -1.06315007e-002 9.06181335e-003
      -1.94096267e-002 -1.67814810e-002 3.11673768e-002 -2.70304102e-002
      -4.95408289e-002 5.34476247e-003 1.04042068e-004 -1.35170184e-002
      -1.26585597e-002 -2.21979935e-002 1.71321537e-002 2.87181512e-002
      4.46178466e-002 2.71896031e-002 5.99173084e-003 -9.55721736e-003
      -3.71483602e-002 -2.44218316e-002 -3.33986208e-002
      -3.56730493e-003 9.49264038e-003 2.42657755e-002 3.01432963e-002
      2.98414752e-002 -3.33758406e-002 -2.08329000e-002 -1.50252916e-002
      -2.08036639e-002 -7.06944149e-003 5.95725179e-002 5.35674766e-002
      -2.65124254e-002 3.42381233e-003 -3.07977665e-003 2.19146139e-003
      1.21240932e-002 1.09670106e-002 2.21916251e-002 -2.13881042e-002
      5.45331603e-003 1.93262231e-002 6.31565554e-003 2.66427035e-003
      5.67584299e-003 -8.44987296e-003 1.90794130e-003 5.06361888e-004
      1.59990583e-002 1.72711089e-002 4.34829295e-002 2.16985010e-002
      -6.50886120e-003 -1.40930628e-002 -1.65328512e-003
      -8.40399042e-003 -2.81230211e-002 -2.42061950e-002 9.74026229e-003
      1.30132185e-002 7.07134185e-003 -1.45685039e-002 1.38765816e-002
      -1.25831608e-002 -1.39193572e-002 -7.20448745e-003 4.57676984e-002
      -2.24660337e-003 2.23478656e-002 2.37435624e-002 1.13689546e-002
      -1.55764874e-002 -1.08845104e-002 1.32600311e-004 1.93223059e-002
      1.89462956e-002 1.03367902e-002 5.83550222e-002 3.01029123e-002
      1.00811450e-002 -2.16143113e-002 -4.60939202e-003 1.47420382e-002
      -8.39731842e-003 2.38913752e-004 -3.33927460e-002 7.97145627e-003
      -2.05990877e-002 -3.39153372e-002 4.83860401e-003 5.33641502e-003
      5.67225579e-005 8.98777042e-003 5.72913699e-003 1.62580423e-002
      -4.11036704e-003 1.04869250e-002 2.87872832e-003 6.70131471e-004
      1.43212033e-002 -3.13976314e-004 -2.13711709e-002 4.34236950e-004
      -7.89554231e-003 1.64468940e-002 6.43396052e-003 -1.41238458e-002
      -1.49182295e-002 4.32079984e-003 -2.24099247e-004 -2.06750818e-002
      -3.81231196e-002 -3.82010639e-002 2.70437403e-003 4.21862537e-003
      -1.51158422e-002 4.84734913e-003 8.88126378e-004 -1.60346478e-002
      2.62281969e-002 1.86650623e-002 6.39654789e-003 1.57570895e-002
      1.41238850e-002 3.99608677e-003 4.05564578e-003 1.04624359e-002
      1.07918279e-002 -4.83661285e-003 6.07538968e-003 1.30913071e-002
      2.74389964e-002 9.26213525e-003 -1.25156473e-002 -1.19228484e-002
      -9.20696743e-003 -6.81229308e-003 1.14643602e-002 -6.04167813e-003
      1.39148883e-003 -2.43402901e-003 -2.55001243e-002 -1.54727148e-002
      -2.22070352e-003 8.22737161e-003 8.22573900e-003 3.36454548e-002
      5.54490127e-002 1.54628756e-003 4.06131335e-002 1.28148859e-002
      -4.69490798e-004 4.09586914e-003 -1.44236227e-002 1.25066703e-002
      -5.60600078e-003 2.44264826e-002 -1.41023425e-002 1.92252919e-002
      -1.12455143e-002 -3.05703953e-002 -5.69859613e-003
      -2.34362595e-002 -1.62787847e-002 -4.65286933e-002
      -3.53605077e-002 -6.24665692e-002 -1.30653689e-002
      -2.36220472e-002 -2.30566952e-002 5.17499773e-003 1.64775569e-002
      8.55425198e-004 -5.24776056e-004 1.38118770e-002 -1.80236660e-002
      1.30941663e-002 -5.42588159e-003 -6.44422416e-003 -2.26657521e-002
      -2.03468301e-003 1.97361466e-002 -8.34217668e-003 -9.89094097e-003
      -4.60077748e-002 2.29137130e-002 1.91118512e-002 -1.59320608e-002
      -1.35918567e-002 -1.52824000e-002 -1.61586422e-002
      -2.38286480e-002 -3.06277703e-002 2.86676222e-003 4.61704377e-003
      6.68570725e-003 -1.06606018e-002 2.92359833e-002 1.42485313e-002
      1.24454265e-002 1.08576231e-002 -7.02691171e-003 -1.28629142e-002
      1.66414883e-002 1.63597260e-002 2.52899118e-002 1.50802759e-002
      2.98293103e-002 3.68094184e-002 2.15651169e-002 1.38698621e-002
      -2.05699597e-002 -9.39627271e-003 -2.93290801e-002 2.45294953e-003
      2.69803475e-003 -3.48538044e-003 2.09450871e-002 1.20326849e-002
      -2.83394922e-002 -4.41024639e-002 -2.07847562e-002
      -3.24355811e-002 -9.79624037e-003 2.33205091e-002 1.22951185e-002
      4.19667587e-002 -1.57084987e-002 -8.37445166e-003 -1.25068873e-002
      1.21870618e-002 1.72384735e-002 2.25843042e-002 1.20479614e-002
      -1.35280257e-002 4.53794328e-003 -2.01484282e-002 3.49897221e-002
      -3.70705947e-002 -2.78874300e-003 -3.80287059e-002
      -2.56575341e-003 -7.69007998e-003 -1.71441715e-002 5.66254137e-003
      -2.49426719e-003 2.01997161e-002 -1.19619584e-002 -1.07153477e-002
      -4.36801352e-002 -1.78941134e-002 7.16968346e-003 1.18168176e-003
      3.12108750e-004 -2.70945369e-003 -2.90759820e-002 -2.12396756e-002
      -2.03838223e-003 1.35028725e-002 1.27412304e-002 -5.72416745e-003
      -1.41519038e-002 -6.92664273e-003 -2.79709864e-002 3.73774506e-002
      3.35349957e-003 1.98254362e-002 -2.88878055e-003 -8.76525324e-003
      -1.27248177e-002 -3.02619059e-002 -3.60439681e-002
      -2.00328883e-002 -2.54189456e-003 -6.09586667e-003
      -1.60314515e-002 -2.91713960e-002 -8.92675947e-003 2.10052654e-002
      1.40721928e-002 2.29643062e-002 6.00534584e-003 -1.67990569e-002
      1.50641194e-002 1.30408341e-002 -3.20524978e-003 1.74540393e-002
      8.54686927e-003 -8.75380170e-003 3.23550366e-002 7.47739710e-003
      1.47957262e-002 -1.27773974e-002 2.73509650e-003 -2.88407244e-002
      1.02722889e-003 -1.66400187e-002 1.29679719e-003 2.00732291e-004
      -5.78082819e-003 -6.71108079e-004 2.43717767e-002 -2.94645429e-002
      -3.60890590e-002 -2.40841974e-002 2.57907826e-002 1.01028122e-002
      8.69883131e-003 -1.28336959e-002 1.30899604e-002 2.73786560e-002
      3.02133355e-002 -1.40314531e-002 1.26961072e-003 7.47007784e-003
      -6.11772435e-003 3.96529883e-002 3.27241458e-002 6.19230941e-002
      -3.21002677e-003 -1.79743848e-003 -3.18106264e-002
      -1.46184051e-002 -3.03879380e-002 1.49780314e-003 2.57842615e-003
      3.46979760e-002 -1.03975637e-002 -1.93616226e-002 -3.14859860e-002
      -3.19692492e-002 -2.57203169e-002 7.16500124e-003 2.92591332e-003
      -8.93763732e-003 -1.89786293e-002 -8.05234257e-003 1.80738904e-002
      1.66082196e-002 -5.04720304e-003 -1.06534106e-003 -9.36294533e-003
      4.87004349e-004 -2.77511831e-002 -9.43626650e-003 1.02730794e-002
      -2.06328519e-002 -3.99396978e-002 -3.51882987e-002 2.51904689e-003
      -1.08302683e-002 -8.78779567e-004 -1.04059116e-003 1.84729081e-002
      -2.07399949e-002 -1.12739094e-002 -2.62202267e-002
      -1.71897411e-002 5.23510505e-004 6.73499843e-003 2.20064278e-004
      8.37467425e-003 -2.06627324e-003 -4.59188111e-002 -2.08582282e-002
      -6.04802881e-005 -1.45865390e-002 3.22360639e-003 1.26132984e-002
      3.08332536e-002 -5.88712515e-003 -2.87475884e-002 -3.75212692e-002
      -3.91141424e-004 -1.64471269e-002 2.79296160e-004 5.16227353e-003
      5.81387524e-003 2.32544672e-002 2.91351345e-003 -7.67773110e-003
      -1.06422547e-002 -1.23457303e-002 6.48095971e-003 1.57621633e-002
      -5.22754295e-003 1.98887344e-002 -2.32059625e-003 3.54129385e-004
      3.61166447e-002 -4.44278261e-003 -1.59823671e-002 -1.62908770e-002
      -1.18863666e-002 2.18682364e-002 1.04299572e-003 4.19923104e-002
      3.01803164e-002 2.78733671e-002 -3.68061736e-002 -4.41224091e-002
      -2.81298853e-004 -1.88608114e-002 2.02268213e-002 1.43492501e-002
      3.45669910e-002 1.36213191e-002 3.14175636e-002 -2.50024386e-002
      -1.39274672e-002 1.12903100e-002 5.90429781e-003 -6.35377644e-003
      1.20539702e-002 5.66000119e-003 -6.86588557e-003 -6.12559915e-003
      -5.71178943e-002 -1.68132540e-002 -2.96223462e-002
      -8.61577969e-003 2.40736566e-002 9.60259885e-003 1.98841747e-002
      1.16158454e-002 -8.10680911e-004 -2.88018193e-002 -4.08243611e-002
      4.69732704e-003 1.48678310e-002 2.17881389e-002 2.76602455e-003
      1.15493769e-002 -1.11025933e-003 -1.76349021e-002 -2.20470037e-002
      -3.61512266e-002 -8.46381672e-003 1.23693573e-003 7.18971947e-003
      9.99297202e-003 1.61042772e-002 -3.67862172e-002 -7.09253401e-002
      -4.75310683e-002 3.76626663e-002 2.11935788e-002 2.79164892e-002
      7.52398046e-003 2.09097862e-002 1.51785910e-002 -7.61943578e-004
      -5.18180467e-002 -5.91365248e-002 -2.26307102e-002 2.32899394e-002
      3.82710397e-002 8.50987621e-003 -7.14184064e-003 -1.14836302e-002
      1.19550722e-002 -1.53260806e-003 -4.74492228e-003 -1.07037947e-002
      2.87755905e-003 1.06912842e-002 3.68799636e-004 2.81741675e-002
      2.15873271e-002 4.35417611e-003 -2.94217523e-002 -8.40614885e-002
      -3.94733176e-002 1.99455079e-002 4.11127098e-002 2.62582917e-002
      2.44310889e-002 5.49434461e-002 2.84427721e-002 -5.74308354e-003
      -2.97410712e-002 -3.10732629e-002 3.15285996e-002 2.68143378e-002
      1.73355639e-002 -2.45014895e-002 4.03995998e-003 2.32153703e-002
      8.77965614e-003 -1.99998287e-003 -1.33243408e-002 3.14367600e-002
      2.20554601e-002 -5.46927424e-003 1.46341091e-002 2.85990108e-002
      6.33106939e-003 -2.42814515e-002 -2.89665461e-002 -2.23885439e-002
      1.51985604e-002 2.25034636e-002 2.07314435e-002 2.38906778e-003
      2.70219650e-002 2.34441441e-002 -8.85240734e-003 -2.98760254e-002
      -5.05968332e-002 -8.39697383e-003 2.30714399e-003 8.69922061e-003
      -1.10457232e-002 1.71605907e-002 2.24525649e-002 3.45749743e-002
      9.72234365e-003 -3.51757999e-003 -1.19275535e-002 -1.70068350e-002
      -6.30713860e-003 5.64586429e-004 -1.68149192e-002 -2.15875674e-002
      -6.67335168e-002 -2.95494590e-002 -5.26308198e-004 3.31900828e-002
      2.95677073e-002 1.58287361e-002 1.13867251e-002 1.59249902e-002
      1.21193361e-002 -2.80573573e-002 -3.22941057e-002 -2.06493940e-002
      3.25195193e-002 2.19442509e-002 5.71795087e-003 -1.45925656e-002
      3.88159440e-003 -4.73062648e-003 -9.16123576e-003 1.37647483e-002
      -1.65763516e-002 1.97998863e-002 -1.51631786e-002 -2.34879199e-002
      8.92159902e-003 8.74946173e-003 2.20090691e-002 -1.67723112e-002
      -3.61164697e-002 -9.84707940e-003 1.81784499e-002 1.90222207e-002
      1.96564179e-002 1.68020856e-002 2.42361035e-002 4.66841608e-002
      -2.35324539e-002 -2.05943286e-002 -2.52838209e-002 6.87100515e-002
      3.26225609e-002 1.49959780e-003 5.43273846e-003 4.42738645e-003
      3.91072817e-002 3.81590612e-002 3.32195684e-002 2.14966331e-002
      3.56227085e-002 -3.18156159e-003 -8.55826866e-003 8.73416662e-003
      2.77529415e-002 2.72297952e-002 -2.36803479e-002 -2.34951079e-002
      -6.78496212e-002 -3.81024964e-002 -1.03616305e-002 8.91038496e-003
      1.91513319e-002 6.30524009e-002 6.50139898e-002 4.74583842e-002
      -2.28433795e-002 -3.36141363e-002 1.10913292e-002 2.90506496e-003
      1.23180375e-002 -1.93263981e-002 1.25072233e-003 5.11999242e-002
      5.11843227e-002 2.75936518e-002 2.30869949e-002 2.90016495e-002
      2.12651351e-003 -8.10635276e-003 -6.77228032e-004 -2.10269773e-003
      -2.85975430e-002 -6.92850500e-002 -4.39489037e-002
      -4.50548455e-002 1.60749033e-002 -2.18623760e-003 -7.27156084e-003
      -6.52677706e-003 -5.34305675e-003 -1.88894011e-002
      -3.66876461e-002 3.27235572e-002 -2.23976001e-003 2.81070191e-002
      -3.01405098e-002 -2.63928548e-002 -1.62856746e-002
      -9.07527283e-006 -1.42131615e-002 1.53640506e-003 2.37207320e-002
      -8.48421268e-003 -6.09688275e-003 -2.56233942e-002
      -1.83073580e-002 -1.61896553e-003 -1.06325652e-002
      -9.44728404e-003 -4.44918908e-002 -1.34507949e-002
      -1.77589580e-002 3.27131078e-002 5.10350103e-003 -4.39770101e-003
      2.63808519e-002 3.17419856e-003 5.10596894e-002 -9.64153465e-003
      -2.91924737e-002 -9.20470152e-003 3.63841504e-002 1.84093863e-002
      2.10395828e-002 -5.49187884e-004 4.35049704e-004 -1.31520666e-002
      -1.03234984e-002 3.56026590e-002 1.47438804e-002 3.00540980e-002
      -1.58610065e-002 -2.66511384e-002 -3.72072845e-003 2.54785232e-002
      2.62334812e-002 -3.26646003e-003 -4.45228629e-002 -4.33178395e-002
      4.80714627e-003 -1.10406531e-002 -1.33656536e-003 -1.66935744e-004
      9.08734463e-003 7.09751397e-002 1.25088952e-002 -1.02391830e-002
      1.02639170e-002 4.10288200e-002 1.94837824e-002 1.88804008e-002
      -1.68223493e-002 4.13029781e-003 2.76420191e-002 3.86559740e-002
      7.92225525e-002 4.18304503e-002 2.82030310e-002 1.02221640e-003
      -2.18197540e-003 -6.41606469e-003 2.00358056e-003 -1.00595132e-002
      -7.12211244e-003 3.97545770e-002 2.97176726e-002 3.78415808e-002
      6.96240691e-004 -7.00378465e-003 -4.59471345e-003 -1.98828313e-003
      -9.59222391e-003 -1.39051499e-002 -1.01221269e-002
      -4.88064215e-002 -6.42933091e-003 -1.58190578e-002
      -1.97590655e-003 -2.52403896e-002 -1.76703818e-002
      -3.05520389e-002 -2.26708278e-002 2.40537375e-002 -3.38940881e-002
      -4.39497381e-002 -2.05104090e-002 -2.88991760e-002 1.64738037e-002
      1.14831524e-002 1.80145912e-002 3.20930616e-003 1.53501295e-002
      3.31963338e-002 8.67749099e-003 -9.88362171e-003 9.88872349e-003
      7.46409351e-004 -1.26829324e-002 1.44823808e-002 1.79947838e-002
      1.18452748e-002 -1.65577792e-002 1.02758659e-002 -3.63570452e-002
      -2.22515035e-002 -4.74306419e-002 -4.18810919e-002
      -2.45917756e-002 -4.14536595e-002 -8.13718233e-003
      -4.85750511e-002 -2.39913240e-002 -3.33698690e-002
      -5.24844751e-002 2.94246332e-004 7.52232550e-003 3.45072970e-002
      3.46747413e-002 2.47421749e-002 1.07677625e-002 -3.03786481e-003
      -4.84534772e-003 7.87259825e-003 -1.40773542e-002 -8.57152417e-003
      1.95404626e-002 2.62869447e-002 4.01844978e-002 2.52194479e-002
      3.30263898e-002 -7.68901128e-003 -6.89937873e-003 -2.32503228e-002
      -1.54947126e-002 -2.74330843e-002 -2.36609653e-002 3.31782065e-002
      4.41983901e-003 2.41651083e-003 -1.76968705e-002 -9.33150668e-003
      -2.31603365e-002 -1.17321117e-002 -9.89447813e-003 8.51851329e-003
      1.54623995e-002 1.27234301e-002 -3.91642330e-003 6.47974593e-005
      -1.38719771e-002 -2.88071167e-002 -1.22720152e-002
      -2.10001450e-002 7.74252112e-004 -4.02702112e-003 -1.95541568e-002
      -3.41035761e-002 -6.31903624e-003 -3.52379791e-002
      -1.54991262e-002 1.28233554e-002 4.30932315e-003 -1.42961731e-002
      2.69608945e-002 -4.47085761e-002 -9.01504084e-002 -7.78202899e-003
      -7.49277556e-003 -2.47360282e-002 -2.17224676e-002
      -1.77144799e-002 1.41879674e-002 1.15323290e-002 1.68897621e-002
      2.56588962e-002 1.19109340e-002 -2.16433536e-002 -6.72743246e-002
      -5.12662679e-002 -3.30874957e-002 -4.00043502e-002
      -1.45302294e-002 2.70489622e-002 2.10035276e-002 3.02265235e-003
      -4.43600193e-002 -4.88639288e-002 -3.29311229e-002
      -4.22186814e-002 -2.01302394e-002 -9.85277072e-003
      -4.61560898e-002 -4.59969267e-002 -4.21099812e-002
      -2.87619419e-002 -2.83927787e-002 -1.22069716e-002
      -7.58564379e-003 2.70864330e-002 3.44429389e-002 4.93768081e-002
      2.55585629e-002 8.49327538e-004 -1.02357101e-002 -3.08946297e-002
      -4.26681899e-002 -5.87130487e-002 -1.29418671e-002 6.92224083e-003
      -1.67458020e-002 2.24259235e-002 -1.24884676e-002 -2.31425278e-002
      -1.92899350e-002 -2.49970574e-002 -3.82552072e-002
      -5.61184250e-003 5.58803752e-002 5.82352355e-002 3.16911787e-002
      -1.35612674e-002 -3.68061699e-002 2.63436846e-002 9.53732897e-003
      -1.32213682e-002 5.41506801e-003 1.64108202e-002 3.01846722e-003
      1.46177942e-002 3.00927162e-002 3.00338995e-002 2.34731864e-002
      2.42154449e-002 6.24742173e-003 8.99650622e-003 1.46154510e-002
      -1.58554327e-003 4.48429696e-002 3.24079096e-002 2.44515613e-002
      -5.61434729e-003 -2.23774055e-004 2.30051912e-002 3.02684843e-004
      -2.68695820e-002 -1.15888072e-002 2.02331841e-002 5.75254718e-003
      -3.02574690e-003 1.27448216e-002 1.41421407e-002 -1.25944254e-003
      1.33489771e-002 4.71391119e-002 2.80545242e-002 -2.30866652e-002
      2.18006521e-002 9.39378142e-003 -1.18938908e-002 1.81919653e-002
      2.80226134e-002 2.50509568e-002 3.16420104e-003 6.13148138e-003
      6.05054162e-002 2.86884625e-002 -1.18281571e-002 -2.63979901e-002
      -1.61143835e-003 6.05671434e-003 -2.01928169e-002 2.62322230e-003
      -2.49788053e-002 3.36452797e-002 1.50096491e-002 -2.29613315e-002
      -1.36125612e-003 -3.47593596e-004 -1.37919020e-002
      -5.98936807e-003 -1.46464640e-002 6.25717081e-003 -1.65812224e-002
      -6.61064731e-003 -5.57460776e-003 -1.27461934e-002
      -5.85313886e-003 -3.69678857e-003 -3.01423613e-002 1.93983968e-002
      1.30876591e-002 1.51384035e-002 6.36114273e-003 -1.58286523e-002
      -2.70855539e-002 -2.79548820e-002 -1.95271708e-003
      -2.08591707e-002 -2.31869742e-002 -4.91302088e-002 7.30948756e-003
      1.40833680e-003 -1.91263072e-002 7.06462748e-003 1.37601011e-002
      1.59778388e-003 1.10732047e-002 1.44446036e-002 -1.78730506e-002
      2.21227128e-002 1.96114611e-002 1.01017831e-002 2.21132464e-003
      -2.58252304e-003 3.84131968e-002 -3.51902214e-003 1.73783698e-003
      -9.45515092e-003 2.98102740e-002 1.48220155e-002 -6.32196758e-003
      -4.81795380e-003 -8.98044184e-003 -6.85112318e-003
      -3.40747461e-002 -3.71338651e-002 -2.52535287e-002 6.76627329e-004
      3.59579665e-003 -1.28518483e-002 1.60396118e-002 2.29070038e-002
      8.91105365e-003 3.97179462e-003 1.98988393e-002 4.91843466e-003
      2.35796645e-002 1.02407038e-002 -2.14632647e-003 -2.61399802e-002
      -3.03465724e-002 1.80102382e-002 2.16798484e-002 4.85208519e-002
      4.27492289e-003 6.71420023e-002 3.25471275e-002 -1.80311948e-002
      -1.94546767e-002 -2.13674270e-002 9.49735579e-004 1.09321028e-002
      -6.98410440e-003 -2.75367722e-002 -6.28514076e-003 1.38870785e-002
      -2.05990169e-002 4.07883944e-003 -7.17469631e-003 1.32815167e-003
      7.69236125e-003 -3.32879508e-003 -5.82272280e-003 2.74052676e-002
      1.29954768e-002 -1.79616234e-003 -5.01090959e-002 -5.25251031e-002
      4.64152731e-003 -1.36716282e-002 2.01210286e-002 -2.94156130e-002
      7.30486261e-003 1.07952831e-002 -1.69218276e-002 -1.39788231e-002
      -1.81511007e-002 -1.92172378e-002 -3.28443050e-002
      -2.25803838e-003 -1.76433790e-002 -5.87102491e-003 2.92434078e-003
      -1.30978075e-003 3.79536417e-003 1.94409327e-003 3.80709842e-002
      1.68753341e-002 -2.10603029e-002 -2.00431161e-002 4.51188814e-003
      1.30022615e-002 1.01343011e-002 1.10979835e-002 -3.22954264e-003
      2.11501610e-003 -2.51160469e-002 3.19832079e-002 -3.03316489e-002
      4.45075240e-003 -1.16992723e-002 -9.24047641e-003 8.51825718e-003
      6.16133912e-003 -9.30973329e-003 -1.24395089e-002 7.41183385e-003
      3.48772993e-003 -1.39181195e-002 -2.38330159e-002 -1.19668972e-002
      -1.33193024e-002 -7.69389700e-003 2.63093412e-002 5.69110364e-003
      2.39102803e-002 -2.36669164e-002 2.56692991e-002 2.58084536e-002
      -1.02122419e-003 -1.61577053e-002 -3.30404080e-002 5.73759759e-003
      -1.63239776e-003 6.96832091e-002 -7.67904753e-003 1.37448432e-002
      -9.66414809e-003 -2.93940809e-002 -2.96998248e-002
      -3.81261632e-002 -3.63528132e-002 5.26949763e-003 2.15860903e-002
      1.41391018e-002 -2.08253916e-002 -3.91257964e-002 -1.05497036e-002
      -1.19328229e-002 -6.96469285e-003 4.00637247e-004 -5.84657490e-003
      2.07154336e-003 -2.92541981e-002 -7.54348142e-003 2.99751642e-003
      -3.12825618e-003 -1.15499394e-002 -1.65238921e-002 3.59629910e-003
      -3.06182657e-003 6.84990063e-002 -1.58601010e-003 3.25207151e-002
      1.47240646e-002 1.55974529e-003 -2.50943247e-002 -1.32648116e-002
      -1.81184020e-002 -1.15659703e-002 -1.06227426e-002
      -1.85830612e-002 -9.60835814e-003 -1.76903829e-002
      -7.90000428e-003 2.04732455e-002 1.86946504e-002 1.00006657e-002
      -2.21059006e-003 -1.19836004e-002 7.15243584e-003 1.51420776e-002
      -3.30769736e-003 3.53447744e-003 3.03317178e-002 2.48810928e-002
      1.01360166e-003 -2.76716746e-004 5.46431402e-003 1.12901460e-002
      -1.64656211e-002 -2.07074750e-002 3.41219245e-003 -1.06543498e-002
      2.73152092e-003 -1.17875068e-002 3.11320927e-003 -2.17236439e-003
      -3.76171432e-003 -2.93971337e-002 -2.18067188e-002
      -8.36541411e-003 1.91003531e-002 4.98046447e-003 -4.70354082e-003
      -1.50157521e-002 2.34917849e-002 2.23443452e-002 3.53522934e-002
      9.44935717e-003 1.59361381e-002 -3.47331725e-002 -9.38388892e-003
      -4.11069440e-003 3.34384218e-002 1.66747812e-002 1.00899832e-002
      -1.59839801e-002 -4.37772721e-002 -1.53342995e-003
      -3.45929749e-002 -2.27470510e-003 9.55122709e-003 2.44123340e-002
      -3.06834150e-002 -3.56433564e-003 -1.14261881e-002
      -4.79819998e-002 -2.78704781e-002 1.90043561e-002 7.64860446e-003
      -7.75704067e-003 -1.53270876e-002 8.12653918e-003 1.86635014e-002
      2.18947753e-002 2.21321620e-002 1.58385597e-002 -2.72686630e-002
      -4.04459564e-003 6.59108395e-003 2.22419072e-002 -8.50980729e-003
      -3.68103907e-002 -1.92122962e-002 -4.22866940e-002
      -1.84344836e-002 -1.86630152e-002 -4.29286016e-003
      -4.68818471e-003 2.06219731e-003 -1.30555471e-002 -8.03054497e-003
      -2.41106041e-002 -2.42317282e-002 -2.07583513e-002 2.60631852e-002
      2.37031300e-002 -9.12255235e-003 3.12803453e-003 -4.02317382e-002
      -1.08724944e-002 -4.53051645e-003 7.38204131e-003 2.18063463e-002
      1.73936691e-002 1.78495143e-002 1.57146156e-002 -2.16146763e-002
      -3.00568175e-002 -1.11038676e-002 1.02259098e-002 2.21252777e-002
      2.34129168e-002 1.15726469e-002 1.24099916e-002 -4.89392411e-003
      1.73192006e-002 1.28334416e-002 -5.28246025e-003 8.54858197e-003
      9.36166383e-003 1.00558195e-002 8.78257770e-003 1.50277056e-002
      -8.16818047e-003 2.92034838e-002 -3.42624425e-003 -1.26200113e-002
      -1.75206680e-002 -2.56726444e-002 1.90066919e-002 6.87501510e-004
      1.93313137e-002 1.66783426e-002 -4.32727188e-002 -1.48862666e-002
      6.35818625e-003 4.09395956e-002 6.51693484e-003 9.65070853e-004
      -1.49913710e-002 2.04728879e-002 6.88333577e-003 -5.40448911e-003
      -2.96260864e-002 -1.94109185e-003 1.24492431e-002 1.69654246e-002
      -7.59062311e-003 4.15027280e-005 1.26370136e-002 -8.16569664e-004
      -6.44058629e-004 -4.42728251e-002 -3.58619988e-002
      -1.21698342e-002 -1.91637110e-002 3.58428084e-003 3.75270867e-003
      1.24443276e-002 8.91155843e-003 -1.94521882e-002 -3.82842906e-002
      -4.37894231e-003 9.35842283e-003 -2.95470469e-003 -5.57880430e-003
      -2.87076812e-002 -8.54313467e-003 -1.85577441e-002
      -6.34436402e-003 6.43916707e-003 4.79578180e-003 -2.01989692e-002
      -5.18919947e-003 -3.12674865e-002 2.41466556e-002 1.03157181e-002
      -2.95056161e-002 -3.89236063e-002 -3.09520047e-002 8.46461859e-003
      4.61017005e-002 4.54473943e-002 3.59830074e-002 2.90703755e-002
      2.67039556e-002 1.39939850e-002 -1.51998885e-002 -3.38535309e-002
      7.79094500e-003 3.58656533e-002 3.40582654e-002 4.11921404e-002
      -1.53306231e-003 4.64288937e-003 1.53857321e-002 2.48201601e-002
      2.89000049e-002 2.49792561e-002 1.73647683e-002 1.63151771e-002
      9.61430930e-003 4.13758447e-003 2.62910165e-002 3.07878060e-003
      -3.19291465e-002 -3.75636816e-002 -1.00392532e-002 5.58313467e-002
      3.61241512e-002 2.34352835e-002 1.34694781e-002 3.35146300e-002
      3.47050391e-002 -3.10006756e-002 -2.35315133e-002 -1.79540068e-002
      4.74049598e-002 3.02220378e-002 2.60202046e-002 -2.48998241e-003
      4.28071246e-002 3.43637057e-002 1.89309120e-002 2.33124197e-002
      7.11679645e-003 1.29970070e-002 -2.46945652e-003 -3.65650700e-003
      5.03422413e-003 2.03273389e-002 5.91014139e-003 -3.03055365e-002
      -3.84349190e-002 1.79730896e-002 1.63739864e-002 1.26470476e-002
      5.48360683e-003 1.21366493e-002 3.31340246e-002 2.57034134e-002
      -5.83047140e-003 -2.75612064e-002 -8.09270144e-003
      -1.47285303e-002 1.08186966e-002 -1.16867255e-002 -7.08991382e-003
      7.72700273e-003 3.28508168e-002 9.47434176e-003 5.77906035e-002
      1.96509026e-002 -6.84504118e-003 1.79245858e-003 -2.11249758e-002
      6.38815062e-003 -1.04935057e-002 -2.67316364e-002 -7.16681182e-002
      -6.51323423e-002 -4.25995048e-003 3.26132625e-002 2.62710471e-002
      2.76541058e-002 4.18919721e-004 5.45681873e-003 8.62016901e-003
      -9.82845202e-003 -1.53682427e-002 1.65942106e-002 5.81247658e-002
      3.94842736e-002 1.70755479e-002 -4.29798756e-003 3.32940463e-003
      1.67586729e-002 2.51096021e-002 1.90948620e-002 2.25146506e-002
      2.35123895e-002 -9.71776724e-004 -3.88959213e-003 1.70292370e-002
      1.56660248e-002 -4.39742533e-003 -4.45272736e-002 -2.45985948e-002
      -6.61441684e-002 -1.11716129e-002 1.76882111e-002 3.01082302e-002
      5.51456548e-002 6.36131093e-002 6.08114861e-002 5.62049309e-003
      -6.70059165e-003 -1.05955824e-002 4.14743461e-002 4.19361927e-002
      3.43634076e-002 -2.13988870e-002 -1.85493845e-003 4.43139337e-002
      5.50202020e-002 3.47120911e-002 2.12551709e-002 4.71498258e-002
      2.20509227e-002 -1.01668891e-002 2.93553285e-002 3.55777703e-002
      9.57269501e-003 -3.49891707e-002 -3.65012027e-002 -5.24284914e-002
      -2.60481685e-002 2.43128650e-002 1.93469357e-002 6.61983015e-003
      4.68739979e-002 6.19764291e-002 -4.64435108e-003 -1.02819242e-002
      3.33383083e-002 1.83447227e-002 2.60709878e-002 -4.39671613e-003
      1.72402314e-003 1.96906123e-002 1.92610193e-002 3.27224545e-002
      4.47272845e-002 -1.21419225e-002 2.24370603e-002 -2.37720413e-003
      -1.64847542e-002 7.63679901e-003 -1.03860460e-002 -2.85596941e-002
      -4.74847928e-002 -4.89861444e-002 -5.79070672e-003 2.71059088e-002
      1.99275427e-002 1.82399638e-002 -6.74864789e-003 -6.60250941e-003
      1.70624536e-002 -1.36960102e-002 -1.33039616e-002 6.47800416e-003
      1.56879574e-002 5.30788535e-003 6.05638791e-003 -9.51470062e-003
      2.06398778e-003 -1.30516468e-002 -2.82075908e-003 4.40270305e-002
      1.55629134e-002 4.23873728e-003 -2.06762161e-002 -2.24234350e-002
      -1.14674158e-002 1.76568457e-003 -1.70217026e-002 -3.21688168e-002
      -3.96953784e-002 -5.14855608e-002 4.09229798e-003 -2.04804540e-003
      -6.31181570e-003 2.44241934e-002 1.94719881e-002 4.57938798e-002
      -6.83145085e-003 -1.55651616e-002 -1.98636111e-002 4.03259844e-002
      3.07535492e-002 1.64346099e-002 -5.49025275e-003 -5.55090187e-003
      1.82679445e-002 3.06588113e-002 5.37552647e-002 2.63687018e-002
      1.32433493e-002 -8.65731295e-003 -1.13011831e-002 -6.49278844e-003
      7.17921043e-003 2.11452860e-002 -1.55093744e-002 -7.33536854e-003
      -4.67254221e-002 -1.11997640e-002 -9.46999434e-003
      -1.40646817e-002 2.23868694e-002 3.73969711e-002 1.01343952e-002
      2.11095228e-003 -6.74547860e-003 -1.43400673e-002 1.19671077e-002
      -2.94093858e-003 6.68641785e-003 1.87091846e-002 1.51581494e-002
      1.42244473e-002 4.72181700e-002 6.36303201e-002 1.56049849e-002
      -1.87855698e-002 -1.10108014e-002 -6.16588397e-003 6.20228844e-003
      4.77229431e-003 -5.58155123e-003 -2.06553587e-003 1.91994105e-002
      3.07922736e-002 1.95029415e-002 -1.68799912e-003 8.90205614e-003
      -1.81094687e-002 -2.24995296e-002 -2.50755399e-002
      -1.99328233e-002 2.66513415e-002 -1.58591401e-002 1.00470474e-002
      -1.69806425e-002 -2.69450005e-002 -3.43509838e-002
      -2.52765678e-002 -1.91992335e-002 -8.93340446e-003
      -1.20354220e-002 -6.59683421e-002 -5.21630719e-002
      -4.63612564e-002 -4.41189893e-002 2.11040266e-002 3.30758002e-003
      1.71935335e-002 1.63045339e-003 1.13684703e-002 7.16721173e-003
      -3.11745331e-004 -4.16835537e-003 9.62206535e-003 -4.99562884e-004
      -4.78774980e-002 2.08036061e-002 4.53109015e-003 2.93751080e-002
      6.06498960e-003 2.65931170e-002 -2.03148350e-002 -8.65192246e-003
      -1.46150747e-002 -3.73633690e-002 -3.90726104e-002
      -4.02883030e-002 -9.53429099e-003 -6.71663582e-002
      -3.15178968e-002 -5.15683740e-002 -2.10394189e-002 2.58211922e-002
      2.31215190e-002 6.61340868e-003 1.04613379e-002 1.58492886e-002
      -1.93227064e-002 -2.32272316e-002 -8.32296722e-003 1.13628609e-002
      1.64931435e-002 -9.43993498e-003 -1.27508184e-002 8.56253784e-003
      3.30481343e-002 -8.69664771e-004 -1.48372063e-002 -1.25775170e-002
      -5.46308700e-003 -1.87605713e-002 -2.76222993e-002
      -2.08075009e-002 -2.48042736e-002 1.89253688e-002 -5.33763878e-003
      -1.71736162e-002 -1.21637546e-002 -1.76953450e-002
      -2.08634958e-002 -1.84693430e-002 -1.44205168e-002 6.27698330e-003
      2.47081108e-002 1.55049898e-002 1.61788967e-002 -4.74196719e-003
      -1.49025572e-002 -4.80734259e-002 -2.91365720e-002
      -4.11042608e-002 -7.82072823e-003 -7.71253090e-003
      -3.55353467e-002 -1.86291970e-002 -1.61933433e-002
      -4.02944200e-002 -1.50969476e-002 -3.40521964e-003
      -1.40946284e-002 1.86576527e-002 1.96235329e-002 -3.69058028e-002
      -5.49009182e-002 -3.25177424e-002 -1.63186956e-002
      -2.66820341e-002 -2.28384361e-002 -1.98997222e-002 8.80084094e-003
      2.75900010e-002 2.42858101e-002 1.86348576e-002 -8.38033855e-003
      -1.03487633e-002 -3.35886404e-002 -5.75724952e-002
      -8.04261421e-004 -3.07779666e-002 2.39801593e-003 -1.45372385e-002
      -2.17587650e-002 -5.22219129e-002 -4.75670323e-002
      -3.54092270e-002 -2.56659351e-002 -2.24085655e-002
      -2.15323945e-003 2.51888409e-002 -2.34378781e-002 -1.72016863e-002
      -5.29686771e-002 -7.06354007e-002 -9.86333750e-003
      -1.13381874e-002 -4.09731036e-003 3.15193310e-002 4.33621444e-002
      2.92423964e-002 -8.07767920e-003 -5.55185648e-003 -6.38996810e-003
      -4.39833924e-002 -3.16766463e-002 -9.79789998e-003 5.75120561e-003
      -7.38170743e-003 -7.44336704e-003 -2.40051672e-002
      -2.88757235e-002 -5.29926270e-002 -3.78759056e-002
      -2.32087001e-002 -2.97072493e-002 1.98445283e-002 6.81060478e-002
      3.64585817e-002 -8.54335632e-003 -1.09333247e-002 -3.96682397e-002
      1.13682766e-002 9.53053217e-003 -8.75372160e-003 7.86030293e-003
      2.32503354e-003 -7.56221917e-003 -1.21646291e-002 9.44063347e-003
      1.09952884e-002 1.41108092e-002 2.23361980e-002 7.81639758e-003
      -1.44868679e-002 -5.92221797e-004 1.82661936e-002 1.95512976e-002
      1.44360429e-002 6.22251444e-003 -2.29583457e-004 7.34761870e-003
      -1.02633901e-003 -6.79259934e-003 -6.37439266e-003
      -1.86120719e-002 2.00867876e-002 1.56532973e-002 7.80289061e-004
      1.20806033e-002 4.34856303e-003 4.38313093e-003 1.09627107e-002
      2.99136750e-002 -3.71020176e-002 -2.61321431e-003 -1.69348456e-002
      2.92763859e-003 -1.65610109e-003 -2.53130333e-003 4.28443551e-002
      -7.02912733e-003 3.15689407e-002 1.42241046e-002 3.56581286e-002
      3.54475295e-003 1.10261692e-002 -3.69927622e-002 -2.06239559e-002
      1.58394333e-002 -1.26687195e-002 1.56068513e-002 -2.24386640e-002
      8.10144097e-003 1.91206369e-003 -2.47112382e-002 -6.46645611e-004
      5.89065533e-003 2.17457525e-002 4.91348933e-003 1.09502114e-003
      2.07384955e-003 -2.40341201e-002 -3.31663191e-002 -1.13819316e-002
      1.63152423e-002 9.80685744e-003 2.95083616e-002 -4.10882290e-004
      2.22979393e-003 1.49204591e-002 1.11260572e-002 -2.50377078e-002
      5.68115897e-003 -1.25563061e-002 9.07416921e-003 1.53488079e-002
      -1.70351677e-002 -1.95287652e-002 -7.15608057e-003 6.00946369e-003
      9.45918262e-003 -9.86363087e-003 1.35096852e-002 9.82350297e-003
      5.88085735e-003 7.51880987e-004 -1.36049441e-003 -9.39796772e-003
      9.56034567e-003 3.90368770e-003 7.61564309e-003 -2.70680524e-002
      -1.26193333e-002 4.69194353e-003 8.09866749e-003 2.34601032e-002
      -3.23486626e-002 2.99604088e-002 1.60426497e-002 -1.30815245e-002
      -2.89915525e-003 2.01801443e-003 5.86652337e-003 -6.76332833e-003
      8.30545672e-004 5.39178820e-003 4.23054118e-003 1.48189655e-002
      2.21507362e-004 6.79238187e-003 -9.67016909e-003 1.24280993e-002
      -6.00245781e-003 3.46817002e-002 -2.34279665e-003 3.16424035e-002
      2.05143038e-002 -3.46734677e-003 -3.99454385e-002 -2.77244560e-002
      1.31657263e-002 -3.66399623e-002 4.52186987e-002 2.38933577e-003
      2.13643350e-002 -4.67946869e-004 -1.50768282e-002 -6.97015272e-003
      -8.17094650e-003 -7.31329387e-003 -1.12966392e-002 1.63443070e-002
      -3.18074077e-002 1.02051273e-002 -4.52017225e-003 3.57491709e-003
      2.23238720e-003 4.63019917e-003 -4.53472836e-003 -2.00469076e-004
      -2.77719051e-002 1.10080764e-002 2.26653516e-002 1.47828972e-002
      9.73591022e-003 -2.77623720e-002 -1.78117268e-002 7.46997399e-003
      -2.29563136e-002 -6.20932458e-003 5.30703226e-003 1.21286241e-002
      1.00312931e-002 -1.24612441e-002 -7.92565104e-003 1.80972379e-003
      -4.15707706e-003 8.38483218e-003 -2.91628391e-003 3.12686781e-003
      -6.35340204e-003 -5.00780437e-003 -1.59627683e-002
      -8.43147095e-003 -1.08184451e-002 1.02498231e-003 1.12632504e-002
      -8.94888490e-003 -2.12769862e-002 7.78404111e-003 9.22593474e-003
      -1.66253571e-003 7.37309176e-003 -1.15934918e-002 -1.83474470e-003
      -1.36690699e-002 1.87491942e-002 -3.19085433e-003 8.68369080e-003
      8.52374732e-003 3.55810346e-003 -1.01512522e-002 -1.06282458e-002
      -2.14554593e-002 -1.12088863e-002 -1.68880750e-003
      -1.12021267e-002 -2.22986452e-002 -1.43644456e-002 5.07032452e-003
      -2.29289830e-002 -2.29074229e-002 3.69488471e-003 -8.61280132e-003
      2.64535472e-002 -3.50342728e-002 -4.97971382e-003 2.61460431e-003
      -2.30774842e-003 -1.97942927e-002 -2.93136295e-002 1.99316610e-002
      1.49903568e-002 6.52199686e-002 -1.45791387e-002 3.36891636e-002
      2.74520321e-003 5.35076112e-003 -3.80339362e-002 -6.62047090e-003
      -7.33643712e-004 -3.84448050e-003 -1.74528658e-002
      -2.24088654e-002 -4.29740734e-003 -2.31495984e-002
      -2.44356245e-002 -5.63076744e-003 -2.70556961e-003 7.69607723e-003
      -1.64378658e-002 -6.16554497e-003 4.96838707e-003 8.51237867e-003
      -1.12745096e-003 -1.10134548e-002 -1.42526813e-003 5.30351419e-003
      1.51060650e-003 1.87393297e-002 8.11681617e-003 -5.77322848e-004
      4.73223487e-003 2.72105378e-003 -1.35731639e-003 -1.14641218e-002
      -7.76463561e-003 -2.44434476e-002 -2.18305867e-002 1.04971286e-002
      -8.77133477e-003 -1.58762708e-002 -6.80437312e-003
      -6.41460577e-003 1.55297052e-002 6.91175787e-003 -9.41002648e-003
      -5.28862374e-003 -1.18757738e-002 1.00326380e-002 1.27630970e-002
      1.26936371e-002 1.79359689e-002 -1.47954719e-002 5.49875572e-003
      -2.28743777e-002 -1.11714797e-002 -5.22809522e-003
      -2.90179756e-002 -2.74882913e-002 -3.30053791e-002 1.91142107e-003
      -2.15474498e-002 2.13057923e-004 -7.48479273e-003 6.57281373e-004
      -2.25595348e-002 -2.26724464e-002 -1.20259123e-002
      -2.94249039e-002 -1.46118598e-002 1.38449064e-002 8.30183551e-003
      6.76168175e-003 -4.21172334e-003 2.03890912e-002 5.41698886e-003
      3.68444584e-002 4.26276624e-002 2.57266760e-002 -5.48756942e-002
      4.33548540e-003 2.28313953e-002 2.73639075e-002 2.85936473e-003
      1.94431413e-002 -3.88755091e-003 -4.79487702e-002 -3.34872156e-002
      -3.11418381e-002 -1.55170970e-002 -7.34931882e-003
      -1.20287137e-002 -3.52052003e-002 -1.35749569e-002
      -1.99981034e-002 -4.87400405e-002 -4.25146893e-002 1.83441918e-002
      1.96634997e-002 7.74979405e-003 1.50714424e-002 1.61327608e-002
      2.85778567e-002 9.88433138e-003 1.77811477e-002 1.89984292e-002
      -1.51776560e-002 -1.12759310e-003 4.79451288e-003 5.35518257e-003
      -8.11876904e-004 5.52537944e-003 -1.74388464e-003 2.53951526e-003
      2.41120625e-003 -3.52641158e-002 -3.87504585e-002 -2.03081742e-002
      -1.89328827e-002 -1.59330070e-002 -5.00613172e-003
      -1.23999212e-002 -1.75299998e-002 -2.75753904e-002 2.95763044e-003
      4.53445083e-003 -9.98007413e-003 -1.18023818e-002 -4.67125662e-002
      -6.20346470e-003 6.02361606e-003 -6.42607501e-003 1.60287209e-002
      -9.96626914e-004 2.61695758e-002 5.68641536e-003 -2.87073143e-002
      -2.49960553e-002 -1.21782357e-002 4.44473512e-002 8.64736270e-003
      3.56009020e-003 -6.96769962e-003 1.16914827e-002 4.41745995e-003
      7.24692363e-003 3.96705093e-003 -1.50057347e-002 3.05135455e-003
      1.45643689e-002 4.54862975e-003 -1.54925240e-002 3.08365542e-002
      3.28720063e-002 3.06703858e-002 -1.85883250e-002 -1.08332569e-002
      4.47562151e-003 -8.85080826e-003 -7.16082752e-003 1.04089649e-002
      2.00775452e-002 -1.73469614e-002 -1.27216782e-002 4.91901021e-003
      1.53321233e-002 4.25944403e-002 -8.15766398e-003 -8.56131595e-003
      -2.48459112e-002 3.50003410e-003 -4.16325126e-003 2.40905862e-002
      -1.50756887e-003 3.29534151e-002 -3.82874650e-003 -1.03588984e-003
      -4.59530316e-002 3.11003928e-003 -3.82478436e-004 1.08342534e-002
      -1.49781881e-002 -3.43195423e-002 -1.49319023e-002 9.61479917e-003
      1.35665014e-002 1.53927514e-002 -9.05908830e-003 -1.21569969e-002
      -8.90667457e-003 -4.05987492e-003 -1.82482824e-002 2.50612572e-003
      -7.16555398e-003 6.21965621e-003 8.01731774e-004 -1.36917280e-002
      -1.44845359e-002 -1.41240731e-002 1.25433672e-002 1.18833967e-002
      -2.06457041e-002 -3.11404057e-002 -2.35314271e-003
      -6.42525125e-003 3.82991182e-003 8.04887898e-003 -4.61459812e-003
      -4.91199121e-002 -5.22912815e-002 -6.81156293e-003 3.75930890e-002
      2.10491866e-002 1.60891004e-002 5.79490466e-003 2.58779451e-002
      1.28465770e-002 -1.86690800e-002 -3.89723144e-002 -1.74128320e-002
      1.39189251e-002 3.26097980e-002 1.52259739e-002 -2.86497502e-003
      2.11109556e-002 3.53215612e-003 -1.61803840e-003 3.87930200e-002
      4.32483293e-002 1.05064139e-002 1.53395417e-003 -1.08870370e-002
      1.82413161e-002 8.96680821e-003 -6.35002134e-003 -5.30288145e-002
      -3.73209715e-002 1.25028435e-002 2.76531074e-002 2.10793521e-002
      1.07514504e-002 2.22053714e-002 3.16600055e-002 2.18922757e-002
      -7.90505786e-004 -3.14847007e-002 1.68249626e-002 3.06657720e-002
      2.19627135e-002 3.49509344e-003 -5.75234275e-003 1.72479432e-002
      4.82036173e-002 1.03375874e-002 2.56173629e-002 4.12207246e-002
      1.08909206e-002 2.88501214e-002 -8.23637657e-003 1.98926702e-002
      1.67425107e-002 1.18829019e-003 -1.13984440e-002 -2.95633525e-002
      -1.05234170e-002 -1.95823610e-002 1.48192495e-002 1.79921165e-002
      1.23100821e-002 5.84769296e-003 1.05067343e-002 -4.66101308e-004
      -4.51594777e-002 -5.85108772e-002 -2.70881299e-002 1.17864460e-002
      2.67181285e-002 -6.73865943e-005 7.37842638e-003 3.44535224e-002
      2.11059246e-002 3.79116833e-002 -8.81040003e-003 -2.80112140e-002
      -8.32121540e-003 7.74417119e-003 5.63196093e-003 7.16294022e-003
      -2.24051159e-002 -6.17981814e-002 -4.90501672e-002
      -2.27780379e-002 6.32177107e-003 2.72034928e-002 2.03857105e-002
      1.77800469e-002 3.49307358e-002 1.81427393e-002 -1.23330383e-002
      -6.55478705e-003 3.54324095e-002 4.98478338e-002 3.10109854e-002
      2.78955512e-003 -2.25738492e-002 -3.26126534e-003 7.29256868e-003
      2.06313245e-002 2.08161902e-002 2.17926893e-002 3.89628410e-002
      3.76847014e-003 -2.46587060e-002 3.26170027e-002 3.03392392e-002
      6.14894787e-003 -3.32155377e-002 -1.28578721e-002 -2.75437478e-002
      -1.41830519e-002 3.48390378e-002 1.67127959e-002 -4.79713362e-003
      5.20990305e-002 4.25895117e-002 -1.76336206e-002 -3.21747772e-002
      5.33772409e-002 4.77477759e-002 8.03050697e-002 8.38645920e-003
      1.20317163e-002 1.24367345e-002 1.28504904e-002 3.21547426e-002
      3.18800360e-002 1.76914223e-002 6.41637668e-002 1.77600868e-002
      -1.11397672e-002 2.44489070e-002 1.91552900e-002 2.51123607e-002
      -2.13169325e-002 -4.21647877e-002 -6.80603534e-002
      -2.97110919e-002 4.79277270e-003 2.05214825e-002 3.18069309e-002
      3.80395241e-002 4.32939157e-002 -3.92475259e-003 -4.30505127e-002
      -2.17111092e-002 -4.93490882e-003 1.50049627e-002 1.66515280e-002
      1.33447386e-002 1.06296344e-002 1.74676422e-002 1.81697570e-002
      2.65754629e-002 -1.47686701e-003 -2.04842463e-002 -2.92906743e-002
      -2.50242352e-002 -1.71625502e-002 -1.91484054e-003
      -2.66778879e-002 -3.97385284e-002 -3.27173732e-002
      -1.34926913e-002 2.80850343e-002 8.58594570e-003 -1.71805434e-002
      -4.73187451e-004 7.54389493e-003 -4.72283596e-003 1.59998704e-002
      2.18646377e-002 1.11251976e-002 3.03725619e-002 2.12510973e-002
      -4.73499997e-004 -8.19394179e-003 -5.11132763e-004 1.82933104e-003
      4.96780612e-002 8.05221125e-002 3.19510587e-002 2.22915504e-002
      4.70694248e-003 -3.28838243e-003 -6.95774471e-003 -1.81600114e-003
      8.64360761e-003 -3.65412273e-002 -3.48832011e-002 -1.85965840e-002
      1.72117352e-002 2.04396136e-002 -4.83447965e-003 1.86599605e-002
      3.30556929e-002 2.72768959e-002 1.31903319e-002 -2.59648245e-002
      2.02966016e-003 6.27161786e-002 3.78552116e-002 6.19183993e-003
      8.50569643e-003 -1.52793797e-002 -4.64595761e-003 2.83947419e-002
      7.37361684e-002 4.86582592e-002 1.15060005e-002 -3.56410211e-003
      -8.47272575e-003 9.07979347e-003 1.80717446e-002 1.18831517e-002
      -3.18129808e-002 -3.79718281e-002 -5.99795319e-002
      -3.71409170e-002 -3.35812056e-003 -3.23066697e-003 2.42841765e-002
      3.35016288e-002 3.40465419e-002 8.25850875e-004 -2.61418391e-002
      1.09547749e-002 -3.82816792e-002 -5.22238053e-002 -2.41377857e-002
      -3.21658375e-003 -6.82662427e-003 -8.28499161e-003 3.46703939e-002
      4.83266748e-002 1.57459863e-002 -1.96877588e-002 -2.77172998e-002
      -1.57137066e-002 2.82646064e-003 -4.00772877e-003 -1.27264038e-002
      1.25329886e-002 1.88050773e-002 3.42566296e-002 3.27200815e-002
      1.77836679e-002 2.07053614e-003 7.93793611e-003 -6.79404009e-003
      -1.20386677e-002 2.76085120e-002 6.04404248e-002 3.05321459e-002
      4.01985534e-002 2.36157086e-002 1.69254523e-002 -1.56803476e-003
      -1.67644699e-003 -1.24697126e-002 2.13437271e-003 1.57769881e-002
      -4.26523611e-002 -3.72795276e-002 -2.49182358e-002
      -1.45653300e-002 2.68141497e-002 1.29521210e-002 -9.53452894e-004
      1.10659357e-002 8.73019919e-003 1.89794749e-002 2.00122762e-002
      1.12888562e-002 1.88435353e-002 3.02571841e-002 -1.58504266e-002
      -9.96182393e-003 2.53590960e-002 2.97748577e-002 2.13181395e-002
      1.22485897e-002 2.46851910e-002 1.89435633e-003 -3.48660164e-002
      -3.77125107e-002 -6.13888539e-003 -1.46486601e-002
      -2.29883604e-002 -4.65454608e-002 -3.85119319e-002
      -2.80378051e-002 -2.92056538e-002 2.01570280e-002 1.47023760e-002
      2.17650570e-002 5.19072777e-003 1.59835592e-002 -9.63947678e-004
      -3.41077559e-002 -2.97250077e-002 -6.13014027e-003 1.29953614e-002
      -2.56939000e-003 -9.76037327e-003 1.46359364e-002 1.22126751e-002
      -1.66281231e-003 -9.89946723e-003 -1.95891894e-002 2.71505304e-003
      -1.91792976e-002 -1.54370945e-002 -3.09937168e-002
      -2.92578377e-002 -2.14380082e-002 -1.80521924e-002
      -1.25273736e-002 -5.27512003e-003 -2.12741620e-003
      -1.05097517e-002 -6.04633382e-003 1.68450599e-004 3.77691388e-002
      5.28363138e-002 3.62410545e-002 1.21201742e-002 5.22480439e-003
      4.52550827e-003 7.46397814e-003 8.62342713e-004 1.08998977e-002
      1.71246175e-002 9.47640464e-003 -3.25427465e-002 -3.86524983e-002
      -3.56825814e-002 -2.33952049e-002 -1.60853565e-002 8.80236796e-004
      2.12303549e-002 5.68801649e-002 3.99167500e-002 -1.57470983e-002
      -3.21679078e-002 -3.15262638e-002 -4.42815833e-002
      -2.39251857e-003 -1.46511896e-002 -8.54483526e-003 2.30881665e-002
      2.72974949e-002 1.69558972e-002 -1.37342969e-002 6.84552360e-004
      1.69632677e-003 -3.11693791e-002 -2.85317358e-002 5.43592265e-003
      -6.16467465e-003 -1.15958264e-003 -1.87943466e-002
      -4.15275022e-002 -4.16091084e-002 -5.31699173e-002
      -7.38248229e-002 -3.43996808e-002 -4.23621722e-002 6.96232746e-005
      5.73416017e-002 -3.98288406e-002 -6.50689229e-002 -4.89216521e-002
      -6.95344731e-002 -2.73205573e-003 6.49887428e-004 -2.04557087e-002
      3.33290808e-002 1.96649227e-002 -9.76549089e-003 -2.53229495e-002
      -1.81910079e-002 -5.23462985e-003 -2.31554788e-002
      -1.83475707e-002 -4.06850986e-002 1.26818577e-002 -2.40525883e-002
      8.86917114e-004 -1.61228201e-003 -9.11916140e-003 -5.03077311e-003
      -2.59930156e-002 -1.34243798e-002 -6.03708215e-002
      -1.39907012e-002 6.58208132e-002 1.61280502e-002 -1.42062781e-002
      -1.32963825e-002 -1.75717361e-002 1.00011462e-002 -4.91369655e-003
      -6.61974400e-003 4.49696276e-003 -2.06523743e-002 -1.02969557e-002
      -1.68061573e-002 -1.22781117e-002 1.57567218e-003 6.51212176e-003
      -5.42505551e-003 2.23388951e-002 -1.32770594e-002 2.42121574e-002
      1.68525800e-002 2.58096736e-002 -6.09814655e-003 -1.08357258e-002
      -1.64716747e-002 -7.60587445e-003 8.80009029e-003 -1.01170717e-002
      8.67491774e-003 -1.93284098e-002 1.51119502e-002 1.20103704e-002
      -1.18886400e-002 -7.53931049e-003 -7.38106528e-003 2.10277159e-002
      9.23122279e-003 2.06104908e-002 -8.69863201e-004 -3.66544351e-002
      -4.72857766e-002 -2.37986036e-002 2.35727951e-002 7.61622738e-004
      3.51450369e-002 -4.89772558e-002 2.43464001e-002 1.74776968e-002
      2.80661881e-002 -1.50072938e-002 1.88150704e-002 -4.54298314e-003
      1.59923602e-002 3.87421856e-003 -3.41788381e-002 3.95731488e-003
      -1.73336442e-003 -9.62294266e-003 5.10126352e-003 3.28123500e-003
      -3.38879274e-003 -1.06596649e-002 1.09915016e-002 -5.78525185e-004
      1.19096246e-002 -7.16532173e-004 4.12834324e-002 -7.81462528e-003
      -4.23808116e-003 -4.96944878e-003 -1.99601818e-002
      -3.43842222e-003 -1.80243962e-002 -3.27918213e-003
      -1.56116989e-002 -2.03582384e-002 -1.90636292e-002
      -4.53190040e-003 -1.13381771e-003 5.56816766e-003 -1.41339414e-002
      -2.36802157e-002 2.38947477e-002 -5.05602639e-003 -2.59827953e-002
      -1.40984515e-002 1.86809595e-003 -3.80745623e-003 -8.46865308e-003
      -5.23839891e-003 1.12586189e-002 6.91828085e-003 1.44791314e-002
      2.88118925e-002 7.17002712e-003 -1.01064648e-002 -2.96777152e-002
      -2.34211385e-002 -1.71924394e-003 -1.41089801e-002 3.45740496e-004
      -3.69277857e-002 8.44458304e-003 5.88993821e-003 -9.77893639e-003
      -4.41323686e-003 4.64610150e-003 1.60138321e-003 -1.27673699e-002
      4.70479717e-003 -7.66661810e-003 -1.97905879e-002 1.23374406e-002
      1.17543126e-002 5.28081553e-003 9.38874204e-003 -7.82780070e-003
      -1.46463579e-002 -7.86204543e-003 -4.57510026e-003 7.58738397e-003
      4.74324776e-003 8.28220323e-003 -2.58186739e-002 -2.03975458e-002
      -1.71112583e-003 -2.94232927e-002 4.73567545e-002 -1.22335618e-002
      6.57360163e-003 -2.41689291e-002 -7.79165048e-003 -1.61222052e-002
      -3.59627511e-003 4.26352397e-003 1.31446926e-003 -1.59169678e-002
      1.27717592e-002 2.91619753e-003 1.66034617e-003 -2.45482661e-002
      6.41113380e-003 1.33250374e-004 -6.42037438e-003 -1.61843803e-002
      -7.61389779e-003 -4.02674871e-003 4.60448256e-003 5.12311794e-003
      1.01872832e-002 -1.21658072e-002 -1.87438019e-002 -2.38876753e-002
      -3.40051055e-002 2.63189301e-002 8.74946173e-003 -1.02102626e-002
      -1.01879407e-002 1.18410885e-002 -1.03750620e-002 -4.06087935e-003
      -1.59506034e-002 -2.12015007e-002 -5.15516382e-003 1.52626298e-002
      2.77131214e-003 -4.89520514e-003 -1.50484033e-002 -6.97282609e-003
      -3.82375205e-003 8.13787337e-003 -2.77822604e-003 -1.13695879e-002
      -2.45171003e-002 -1.52409328e-002 4.71509760e-003 3.45150148e-003
      2.19921232e-003 7.18316805e-005 1.03406692e-002 -1.42856389e-002
      2.18875539e-002 -1.94229260e-002 -1.54382475e-002 9.53243766e-003
      7.67225539e-003 -1.09353727e-002 4.99795564e-003 -6.19396567e-003
      -1.39634535e-002 -6.78565167e-003 -2.19895579e-002
      -2.59315036e-002 -1.14433914e-002 -8.59514717e-003
      -9.34145600e-003 1.04418758e-003 1.51604079e-002 -1.83922648e-002
      1.32354079e-002 -2.73807021e-003 6.07073307e-003 -4.28398576e-004
      -1.47762913e-002 -1.27508054e-002 1.02999574e-002 1.74664147e-002
      1.73872069e-003 3.32733244e-002 -1.97288431e-002 -2.96099167e-002
      -1.87226795e-002 -8.56792089e-003 -2.44555734e-002
      -1.07130902e-002 -2.30518468e-002 -3.46683059e-003 2.43601780e-002
      1.31289400e-002 -2.15073600e-002 -2.36460790e-002 -1.72762815e-002
      -3.81475501e-003 -6.25971286e-003 -3.01970560e-002
      -1.38935465e-002 -5.88909397e-003 4.44167061e-003 -1.39193768e-002
      6.17070962e-003 3.41296964e-003 -2.17465404e-002 -1.57498084e-002
      -1.67805143e-002 -2.42604688e-002 -3.55863967e-003 5.10820514e-003
      9.55676474e-003 -7.15200929e-003 -2.19793525e-002 -3.23651955e-002
      -2.54107341e-002 8.44579772e-004 -4.43898514e-002 -2.21633986e-002
      1.89122688e-002 2.01569358e-003 -9.18504596e-003 -2.24596262e-002
      1.37679074e-002 1.89173445e-002 6.38673408e-003 -2.78807362e-003
      2.98566162e-003 -6.78859977e-003 3.78075242e-003 1.61767043e-002
      1.63614787e-002 -1.20865060e-002 2.51916237e-002 1.99600291e-002
      1.40902959e-003 -2.56161653e-002 -3.31793018e-002 -4.42404952e-003
      -2.59598205e-003 -1.06197027e-002 -2.32897196e-002
      -5.01660630e-003 -2.31687409e-006 -3.18579823e-002
      -3.04346513e-002 -1.57676160e-003 -1.51084950e-002
      -1.80745181e-002 -2.05740631e-002 2.72713918e-002 1.85455959e-002
      2.60330569e-002 1.92977227e-002 3.44796106e-002 1.85035840e-002
      1.59574300e-002 5.16961329e-003 1.55688189e-002 -9.91466269e-003
      -3.01838145e-002 1.01210000e-002 1.45533001e-002 9.78221651e-004
      4.05891426e-002 -3.95409204e-002 -2.13293042e-002 -1.19701168e-002
      -3.29523571e-002 -5.35257235e-002 -4.87977676e-002
      -2.84602735e-002 -3.28012072e-002 1.29390918e-002 -1.00306934e-002
      6.56013098e-003 -3.33708264e-002 -6.50965190e-003 -5.07180067e-003
      -1.82863977e-003 -1.89252514e-002 -1.05532371e-002 1.12676779e-002
      1.49460621e-002 3.76023981e-003 -1.41528817e-002 -2.50013303e-002
      -3.10844965e-002 2.75644637e-003 -1.62867215e-002 -1.68972965e-002
      -1.41243767e-002 -1.99160501e-002 -1.88907273e-002
      -3.53922322e-002 -2.44885832e-002 -2.62733866e-002
      -9.21511184e-003 2.62071425e-003 -4.49527940e-003 -1.38536664e-002
      -1.94074288e-002 -1.80698689e-002 -3.20982896e-002
      -1.68816873e-003 2.10277960e-002 2.47546658e-002 -3.18244332e-003
      -3.72658409e-002 -3.05229947e-002 -2.03490746e-003
      -5.95722464e-004 1.43431278e-003 3.68492538e-003 1.35761714e-002
      7.27035338e-003 -4.48396988e-002 -4.21274155e-002 2.79141869e-002
      1.10657383e-002 8.20537470e-003 -9.36643407e-003 -1.03787072e-002
      -2.53864215e-003 -1.62004028e-002 1.14680231e-002 5.97507227e-003
      5.51212626e-003 -4.85481182e-003 9.45099816e-003 -8.44031759e-003
      1.89148933e-002 4.68831230e-003 2.06275377e-002 1.23384111e-002
      -3.38869914e-003 -1.39827775e-002 -4.63769678e-003 2.01421808e-002
      2.15742011e-002 7.60369841e-003 -9.62811336e-003 -5.53056924e-003
      -9.86134354e-003 -1.52812228e-002 2.40081064e-002 -5.11600031e-003
      3.01199816e-002 2.84770783e-003 -1.86518990e-002 -8.23039003e-003
      -1.68043352e-003 -9.20877047e-003 -1.79280415e-002
      -2.36509014e-002 -1.80658009e-002 8.00654478e-003 -2.19277991e-003
      1.11341327e-002 2.10677669e-003 1.66102257e-002 1.54939014e-003
      -2.40353215e-002 -1.44836195e-002 -6.67221425e-003 1.27708064e-002
      9.23840888e-003 1.31031638e-002 6.24725875e-003 2.22040601e-002
      8.06374475e-003 -3.40930112e-002 -3.38581316e-002 -3.06368861e-002
      6.24409085e-003 -6.26572967e-003 -1.48922047e-002 -4.14767116e-003
      7.28390121e-004 -1.40011795e-002 -2.11652536e-002 -4.12846589e-003
      -2.03234386e-002 9.69053246e-004 9.24387015e-003 1.01570617e-002
      9.86803230e-003 -6.42708736e-003 -5.05275950e-002 -6.62518144e-002
      1.95794497e-002 1.19152199e-002 1.59795266e-002 1.08234631e-002
      1.39435809e-002 5.74512407e-003 2.37081083e-003 -1.97849460e-002
      -1.63517036e-002 8.13366193e-003 6.04076171e-003 3.23072933e-002
      2.96910643e-003 -2.18171972e-005 3.52146919e-003 3.40049490e-002
      1.33253848e-002 5.10829613e-002 8.12963396e-003 7.70091405e-003
      1.94199439e-002 8.44873115e-003 2.37192325e-002 9.77709889e-003
      -1.72953531e-002 -9.63979773e-003 -1.38479229e-002
      -2.26858794e-003 -6.01164997e-003 3.96816880e-002 3.70775089e-002
      1.96248051e-002 1.10549312e-002 2.18108427e-002 3.79595673e-003
      -4.47654352e-002 -1.51827456e-002 -2.38810666e-004 2.96515375e-002
      4.18599099e-002 -5.17364312e-003 3.44960880e-003 2.03991514e-002
      8.62611178e-003 1.46599552e-002 1.70503035e-002 -3.95828043e-004
      -1.00159517e-003 1.96541450e-003 2.93316711e-002 4.15644720e-002
      3.39172706e-002 -1.17582362e-002 -4.78314571e-002 -2.22817324e-002
      -3.18215266e-002 1.64708029e-002 2.98126265e-002 6.47958089e-003
      2.29358673e-002 2.57158782e-002 -2.11281553e-002 -4.76801582e-002
      -4.06682305e-002 -7.72782369e-003 1.60958655e-002 3.70649844e-002
      -2.18887068e-002 -5.74353943e-003 -1.08662085e-003
      -8.98857787e-003 1.12941377e-002 -7.98605103e-003 3.93333752e-003
      -2.68844329e-002 -2.04775259e-002 1.34080881e-002 1.01363687e-002
      -6.91241631e-003 -5.44140115e-002 -4.37723622e-002
      -2.13972889e-002 1.11033963e-002 2.62671839e-002 1.18662585e-002
      5.76544786e-003 2.03770697e-002 4.68729474e-002 -1.66111067e-002
      -1.27932495e-002 1.60361249e-002 5.05753495e-002 5.84919676e-002
      2.13604327e-002 1.57017596e-002 7.05238665e-003 3.92871955e-003
      -1.80322316e-003 3.16122696e-002 2.99662314e-002 3.94285023e-002
      8.75868648e-003 -1.37095025e-003 1.27200671e-002 1.09251589e-002
      1.81542803e-002 -1.18430285e-002 -3.68425474e-002 -3.06106247e-002
      -2.36606449e-002 9.14421119e-003 2.05928292e-002 4.15241867e-002
      4.09087390e-002 4.46593836e-002 1.17933173e-002 -3.69114801e-002
      2.89859460e-003 3.16380523e-002 3.33476923e-002 3.36595327e-002
      1.96817666e-002 1.11438725e-002 1.29839443e-002 1.17001552e-002
      1.15704713e-002 3.67915407e-002 -5.70664241e-004 -2.19411887e-002
      -1.13181835e-002 8.31872597e-003 2.64074728e-002 3.69526483e-002
      -4.45330702e-003 -3.47284265e-002 -6.13067076e-002
      -2.53804680e-002 -6.67367503e-003 -1.04798353e-003
      -7.85097189e-004 1.80609804e-002 2.35353261e-002 -2.48993393e-002
      -3.90309244e-002 -2.58774478e-002 1.45257013e-002 1.36667341e-002
