<?xml version="1.0"?>
<opencv_storage>
<my_svm type_id="opencv-ml-svm">
  <svm_type>C_SVC</svm_type>
  <kernel><type>LINEAR</type></kernel>
  <C>1.0000000000000000e-002</C>
  <term_criteria><epsilon>1.1920928955078125e-007</epsilon>
    <iterations>50000</iterations></term_criteria>
  <var_all>8100</var_all>
  <var_count>8100</var_count>
  <class_count>2</class_count>
  <class_labels type_id="opencv-matrix">
    <rows>1</rows>
    <cols>2</cols>
    <dt>i</dt>
    <data>
      -1 1</data></class_labels>
  <sv_total>1</sv_total>
  <support_vectors>
    <_>
      -3.68827954e-002 -3.08264736e-002 -1.15199881e-002 4.61746566e-002
      5.78326583e-002 1.99812632e-002 1.49438865e-002 -1.43401651e-003
      -1.80557705e-002 -5.07608242e-002 -1.40584946e-001
      -1.21994041e-001 1.03354035e-002 7.60078505e-002 -1.28508667e-002
      8.26134160e-003 9.92276147e-003 1.42386816e-002 -4.84005697e-002
      -8.08352754e-002 -4.62534204e-002 -2.44695079e-002 1.36601683e-002
      -1.12982234e-002 4.70758602e-003 1.30130979e-003 -2.00028345e-002
      -9.93877463e-003 -7.91403949e-002 -1.56053314e-002 3.05113066e-002
      4.02420424e-002 -1.20340856e-002 1.10559138e-002 -3.32301557e-002
      -1.76204219e-002 -7.97578017e-004 -4.74893972e-002
      -1.82164684e-002 -4.87845130e-002 -4.63975817e-002
      -3.87159623e-002 8.45569558e-003 -9.61545203e-003 4.17020023e-002
      -1.52023043e-002 -1.01578040e-002 -4.92075970e-003
      -2.46751197e-002 -3.81454825e-002 -4.38856930e-002
      -6.17149379e-003 4.51150304e-003 3.01516410e-002 -7.42513174e-003
      -2.39422023e-002 2.01516114e-002 3.08067277e-002 2.42021065e-002
      2.44497415e-003 7.91213010e-003 -2.28548944e-002 -2.50737146e-002
      1.73156038e-002 1.30603148e-003 1.63700040e-002 -6.60639443e-003
      4.37744660e-003 1.30092641e-002 1.61562264e-002 1.73467572e-003
      3.79190855e-002 4.46046994e-004 1.29997125e-002 -4.30503786e-002
      -3.53338048e-002 -3.91366668e-002 -1.32298945e-002 2.04586871e-002
      2.47227699e-002 3.53911556e-002 -1.33404722e-002 -6.15261942e-002
      -4.89084683e-002 1.92159228e-002 3.36223952e-002 -6.92536822e-003
      6.92749163e-003 1.86823551e-002 1.55145749e-002 -3.87790464e-002
      -8.60654563e-002 -5.54408133e-002 -9.17705242e-003
      -2.49334425e-003 2.93424469e-004 2.33037006e-002 5.74323256e-003
      -3.51458527e-002 -5.10658510e-002 -6.39026389e-002
      -2.98975110e-002 -1.92919634e-002 9.11523402e-003 8.11120775e-003
      8.36576149e-003 -1.22497082e-002 -7.79214948e-002 9.04535223e-003
      -1.73996910e-002 -1.19090797e-002 -1.81446820e-002
      -2.26478726e-002 -2.21083239e-002 3.61916330e-003 1.80331990e-002
      5.20021990e-002 1.93701684e-003 -1.21996356e-002 1.84058640e-002
      1.21628586e-002 -1.20464503e-003 -6.07675537e-002 -8.88342131e-003
      2.52217986e-002 4.38764840e-002 -5.64613491e-002 -6.43452555e-002
      -4.67611216e-002 -1.49726896e-002 -4.20611501e-002
      -4.58923951e-002 -1.76721031e-003 4.08620201e-002 -1.47003755e-002
      2.67561581e-002 1.99625827e-002 7.52238650e-003 -3.42093944e-003
      -6.83699083e-003 1.04679344e-002 1.76121034e-002 2.05953550e-002
      3.98452580e-002 2.30607931e-002 7.45957764e-003 -4.81791468e-003
      -2.56024003e-002 -2.85635553e-002 -2.27595679e-002 3.62914726e-002
      5.18272109e-002 4.31249179e-002 -2.15710234e-002 -2.59927567e-002
      -3.60203087e-002 -3.71970758e-002 -4.12818640e-002
      -4.51910906e-002 -2.83401888e-002 9.87251662e-003 -1.09726982e-003
      -2.27314550e-002 5.92534943e-003 3.47133284e-003 1.48893176e-002
      1.08366674e-002 1.31958714e-002 2.13650297e-002 -1.46520918e-003
      -4.31886725e-002 -8.74465331e-002 -5.59131391e-002 2.32868246e-003
      8.42567906e-003 6.10084981e-002 2.76835244e-002 2.35688761e-002
      2.41909344e-002 -4.39805612e-002 -9.59293991e-002 -7.29948399e-004
      5.41758761e-002 2.62123160e-002 1.29997274e-002 2.49900250e-003
      3.91607881e-002 2.29010452e-002 -6.10108264e-002 -2.25091297e-002
      -1.55592617e-002 2.54344638e-003 2.28454694e-002 -5.32985944e-003
      -2.62262467e-002 7.36068236e-003 3.68361846e-002 1.34935621e-002
      -5.57872839e-002 -4.39203344e-002 -2.72422116e-002 5.09571843e-003
      -1.07030869e-002 -1.40225664e-002 1.46330288e-002 4.80776280e-002
      5.65068610e-003 -4.54517864e-002 8.48522596e-003 1.47691164e-002
      1.53570110e-002 -2.89450679e-002 -1.37893315e-002 1.44434646e-002
      2.06186436e-002 -1.52800316e-002 2.23792205e-003 1.10425074e-002
      -1.48267224e-002 -7.70490267e-004 -4.78930492e-003 5.92766097e-004
      2.17672028e-002 2.90965270e-002 1.45221250e-002 -4.73698601e-003
      -2.71529835e-002 -6.39275536e-002 -5.19678295e-002
      -3.56971435e-002 -4.65296246e-002 -3.35938372e-002 1.20653315e-002
      1.55041169e-004 7.90257182e-005 2.94246624e-004 -1.67868342e-002
      -2.54388768e-002 -2.59664916e-002 -3.17387059e-002
      -5.83546348e-002 4.82568797e-003 1.65206436e-002 -5.42746782e-002
      -2.97652762e-002 1.24604593e-003 1.87054835e-002 2.69918628e-002
      1.29625648e-002 1.22414511e-002 1.25303026e-002 -3.62607203e-002
      -6.47992641e-002 2.33862530e-002 3.98434512e-002 1.47793849e-003
      -1.10094890e-003 8.50988366e-003 4.06526849e-002 8.55882280e-003
      -8.62120911e-002 -2.20403057e-002 3.90053168e-002 1.49964700e-002
      3.00980872e-004 5.71941622e-002 -1.19746523e-002 -4.08966541e-002
      -4.45568487e-002 -4.16766889e-002 -4.12540101e-002
      -4.59456071e-002 -2.46805605e-002 -1.15839290e-002
      -2.89235283e-002 -1.62151475e-002 1.27333831e-002 5.34307547e-002
      1.13100847e-002 -5.18645532e-002 1.16575928e-002 3.82412858e-002
      4.43768241e-002 1.36524020e-002 1.17988763e-002 5.24827614e-002
      1.17125902e-002 7.51272496e-003 -3.08900606e-002 2.70673390e-002
      1.98274199e-002 -7.40495801e-004 -1.46861197e-002 7.69962731e-004
      -2.92839147e-002 -1.17687415e-002 -1.13408817e-002 2.16858718e-003
      -1.61633287e-002 -3.65801007e-002 -4.59620096e-002
      -2.84160469e-002 -2.82276273e-002 -1.84747372e-002 1.69518609e-002
      1.97524484e-002 2.17495225e-002 2.50726175e-002 -4.18075696e-002
      -2.54538450e-002 -3.56317535e-002 -3.41403410e-002
      -8.11007172e-002 -5.67077100e-003 4.13314104e-002 1.55880935e-002
      1.51109854e-002 -1.13834685e-003 -6.15808927e-002 -5.54806665e-002
      -1.05574252e-002 -4.14198264e-002 -2.16404144e-002 1.36081846e-002
      -1.15746194e-002 6.53654709e-002 6.87965518e-003 -2.64112372e-002
      -3.85996234e-003 -6.37165410e-003 1.50683904e-002 -6.06880989e-004
      -1.71914883e-002 2.53878552e-002 9.43805575e-002 3.77159975e-002
      -8.76447186e-003 4.98635396e-002 -2.90931873e-002 -6.72435760e-002
      -3.14218849e-002 2.20774412e-002 2.86649652e-002 6.93951035e-003
      -7.22233625e-003 -4.56809625e-002 -4.14951406e-002
      -9.43171307e-002 -1.14751510e-001 -5.03332168e-002 4.28338498e-002
      1.38819693e-002 5.93182147e-002 5.66846691e-002 2.36615725e-002
      1.34863867e-003 7.39195291e-003 1.94755066e-002 1.21758319e-002
      4.63441797e-002 4.58038710e-002 4.86239232e-002 6.47895783e-002
      5.04327454e-002 -3.40274237e-002 2.50105299e-002 -1.15701668e-002
      1.23693720e-002 3.74095365e-002 1.97576489e-002 4.94431034e-002
      -4.92672762e-003 -9.26174447e-002 -6.90664798e-002
      -7.22979382e-002 -7.49908388e-002 -6.24875575e-002
      -2.47883778e-002 3.16495635e-002 2.09186953e-002 -2.99594388e-003
      -1.70266593e-003 -1.31951980e-002 -9.60499921e-004
      -3.80912088e-002 -3.74443061e-003 3.10679190e-002 3.87579314e-002
      4.96918224e-002 -6.95740990e-003 -7.33440071e-002 -5.21678552e-002
      1.20232021e-002 -2.26525534e-002 -1.15538086e-003 2.00759489e-002
      -1.25614004e-002 1.71389338e-002 -9.94784385e-003 -7.50312507e-002
      -1.16786631e-002 -2.60093510e-002 -5.31484606e-003 1.15865255e-002
      -1.30058127e-002 7.17899203e-002 6.45333827e-002 8.57534539e-003
      -5.39029762e-003 4.15855609e-002 -2.36048978e-002 -4.52943370e-002
      2.21603760e-003 7.43782595e-002 8.10665935e-002 4.14101593e-003
      -4.46782373e-002 -8.19619894e-002 -6.69410005e-002
      -9.49651748e-002 -6.51613995e-002 3.40252109e-002 1.12043992e-001
      6.96989521e-003 -7.80919716e-002 -6.21815287e-002 -4.51367274e-002
      -4.62508760e-002 -6.31720498e-002 -3.69446687e-002 2.96787247e-002
      8.97813886e-002 6.90187067e-002 5.92075661e-002 3.05350423e-002
      2.99403854e-002 1.15965465e-002 5.49037196e-002 1.31449476e-002
      3.76652516e-002 4.93488722e-002 4.12862003e-002 9.04317200e-002
      2.06390619e-002 -5.47064357e-002 -8.62518772e-002 -2.31912639e-002
      -2.32255999e-002 -2.52576508e-002 9.81117785e-003 -2.92360578e-002
      -8.61285906e-003 -3.02960575e-002 -3.93551625e-002
      -3.92546430e-002 -4.27199267e-002 -2.55765375e-002 6.98731979e-003
      -3.29549573e-002 2.29352955e-002 2.14353036e-002 -3.35886306e-003
      -3.24751921e-002 3.23549137e-002 4.08904105e-002 9.33343731e-003
      2.40437351e-002 1.79054998e-002 1.16591314e-002 5.28949574e-002
      1.48054902e-002 -3.61587740e-002 -2.40255836e-002 1.68245658e-002
      1.67336967e-002 5.05181439e-002 2.24024393e-002 -3.39274369e-002
      5.79584995e-003 2.37239674e-002 1.44996131e-002 -1.13357520e-002
      -2.93064080e-002 -1.55859350e-004 1.34429242e-003 -2.67720725e-002
      7.96030685e-002 -2.00810805e-002 -2.86987927e-002 -4.77657728e-002
      -2.84339562e-002 -3.55628654e-002 1.71159450e-002 6.29424825e-002
      1.27143517e-001 5.22373170e-002 -5.93148768e-002 -8.09828863e-002
      -2.89720111e-002 5.39040472e-003 -2.16665748e-003 1.50263021e-002
      1.28252342e-001 1.49014533e-001 -5.84307732e-003 1.60551642e-003
      -1.92307774e-002 -2.01433524e-002 2.04135291e-002 -2.06466741e-003
      -4.71781604e-002 1.71369035e-002 6.00767694e-002 6.22058995e-002
      6.90001845e-002 -1.77510059e-003 -6.09792285e-002 -3.75068635e-002
      -2.89598517e-002 -4.89325076e-003 1.91817731e-002 4.35784236e-002
      -1.81010421e-002 2.60661524e-002 1.04608592e-002 4.33757761e-003
      -1.61387715e-002 2.98971077e-003 4.32097353e-002 3.44943553e-002
      3.68597321e-002 2.68407864e-004 3.32712606e-002 -2.67516784e-002
      -2.48297285e-002 -1.67029351e-002 -1.98543314e-002
      -2.28052847e-002 1.47855263e-002 -4.19927435e-003 2.61027762e-003
      3.41028199e-002 2.55867634e-002 6.82467595e-003 7.79151823e-003
      1.27118488e-003 9.08437558e-003 1.70894098e-002 1.18007539e-002
      -2.89668255e-002 3.96105461e-002 4.26629223e-002 3.61094885e-002
      1.33187464e-002 9.71362367e-003 2.02367213e-002 1.12143680e-002
      -1.97388474e-002 1.64316949e-002 3.03843953e-002 3.11633423e-002
      -2.55911215e-003 -5.13368472e-003 4.51612333e-003 1.43206576e-002
      -3.66163254e-003 -3.64361666e-002 -1.61259226e-003
      -2.83105262e-002 -4.45910618e-002 -1.38798095e-002 3.56554687e-002
      2.56656427e-002 -6.00873586e-003 5.53353801e-002 8.87313858e-002
      1.26952017e-002 1.31425736e-002 7.12548336e-003 1.94035713e-002
      7.99635127e-002 5.03434725e-002 -2.10052487e-002 3.52081507e-002
      6.17583543e-002 8.91489629e-003 2.65393015e-002 2.15971768e-002
      -1.00593604e-002 3.34598217e-003 3.77316284e-003 -8.57686158e-003
      4.88494225e-002 3.57391089e-002 -6.44009968e-004 1.93018727e-002
      -1.96149107e-002 -1.46158934e-002 5.56190498e-003 -7.95562379e-003
      -2.77809240e-003 1.43949604e-002 -2.18678191e-002 2.75420267e-002
      6.61076382e-002 1.04236603e-002 8.83220416e-003 -4.42262925e-002
      -2.14792211e-002 4.12716623e-003 4.52686176e-002 3.71767469e-002
      1.12332578e-003 1.00481110e-002 -1.55160697e-002 -4.20174412e-002
      -4.04316373e-002 -3.26484106e-002 -1.93825364e-002 8.34171921e-002
      3.27985473e-002 -3.85983405e-003 2.12745927e-002 2.98150480e-002
      -1.55719025e-002 -2.26352643e-002 -2.17102543e-002
      -1.27160028e-002 -3.68345976e-002 -4.87736799e-002 1.59180164e-002
      3.43946144e-002 3.08111608e-002 3.15257721e-002 -7.67253293e-003
      2.78856587e-002 1.11844856e-002 4.34518158e-002 -1.94586311e-002
      1.11020608e-002 -5.45027526e-003 -1.59339961e-002 1.39710661e-002
      6.67648576e-003 1.44883068e-002 -2.58062016e-002 4.45217006e-002
      2.87264325e-002 -2.01503690e-002 6.59207301e-003 1.97594217e-003
      -1.84922628e-002 3.13975923e-002 2.16489863e-002 -2.55029444e-002
      3.89433056e-002 2.64217854e-002 1.02873826e-002 5.51942289e-002
      4.14531790e-002 -3.83606949e-003 -3.50273377e-003 -8.07342492e-003
      -1.03681232e-003 4.57837135e-002 4.05543000e-002 1.72240846e-002
      3.51888500e-003 1.03320563e-002 8.80750921e-003 1.21331727e-002
      8.45226366e-003 -3.80252190e-002 -5.37402090e-003 3.13998610e-002
      -1.33092990e-002 2.03841161e-002 -1.50554311e-002 -2.88381316e-002
      -5.44847175e-003 -3.33457477e-002 -5.93722053e-002 2.40402818e-002
      -2.08502505e-002 -1.59852635e-002 1.95543491e-003 -2.66177263e-002
      -7.09743500e-002 -8.59874040e-002 -5.93799800e-002
      -2.80580367e-003 1.08585514e-001 6.13391474e-002 -2.31979508e-002
      -1.28409257e-002 -1.51253231e-002 -1.00138960e-002 8.96407943e-003
      4.62840423e-002 -1.70362536e-002 1.05180092e-001 3.77523564e-002
      -8.63620453e-003 -1.12217423e-002 -8.63873865e-003 7.15722609e-003
      1.23182321e-002 -1.69190078e-003 -3.72489579e-002 -9.32877511e-003
      -3.36965658e-002 5.17358910e-003 -2.22566947e-002 -5.00041246e-002
      -1.48319395e-003 -3.76763456e-002 -1.90717988e-002
      -4.06636707e-002 5.62625080e-002 3.15662622e-002 -3.02389245e-002
      -3.41479443e-002 -4.61718775e-002 -3.08255125e-002 1.64882913e-002
      4.81288321e-002 -3.66236344e-002 4.73699905e-002 1.98797733e-002
      1.22651067e-002 1.55860307e-002 1.73152871e-002 1.07189128e-003
      1.38697517e-003 -7.00242305e-003 -3.65001969e-002 1.53388316e-003
      1.40186539e-002 3.22567299e-002 2.12459695e-002 3.78235728e-002
      4.61377874e-002 8.28062817e-002 2.58185510e-002 -7.41651142e-003
      -1.15425941e-002 3.60737666e-002 -1.68761669e-003 -1.30500505e-002
      9.69486218e-003 1.09628076e-002 6.49314970e-002 4.43155468e-002
      -6.20860681e-002 -4.56615277e-002 2.42869407e-002 -2.24407911e-002
      -1.17074968e-002 -1.67057104e-002 -2.19469536e-002
      -3.45363654e-002 -2.90346295e-002 -2.25491393e-002 3.49126905e-002
      5.76569582e-004 -3.40971388e-002 2.97732139e-003 -2.97546200e-003
      2.48316918e-002 -7.89230037e-003 1.10372007e-002 -2.30818018e-002
      5.63334189e-002 3.27116437e-002 -1.81883369e-002 -4.85714041e-002
      -3.23191807e-002 3.26299667e-003 7.62054548e-002 6.93512755e-003
      -7.39975348e-002 -1.53563628e-002 2.52173189e-002 -2.72894222e-002
      -3.39929052e-002 -4.02726419e-002 -2.74855290e-002
      -2.17881240e-002 -2.45706048e-002 -7.90267289e-002
      -2.31904034e-002 -8.96790251e-003 -4.72905934e-002
      -4.47915941e-002 -4.93947379e-002 -1.41946534e-002 3.11897658e-002
      4.30159457e-002 -1.14133686e-001 7.32942251e-003 -2.97475257e-003
      -1.99675895e-002 -1.96788330e-002 -3.25346813e-002
      -4.96001448e-003 6.63799867e-002 4.42605466e-002 -1.41615704e-001
      -5.06184390e-003 1.91469751e-002 -1.93952192e-002 -3.90134268e-002
      9.24273115e-003 3.02304886e-002 2.04244666e-002 8.62768572e-003
      6.08281512e-003 -2.26426255e-002 -2.30386071e-002 2.57853139e-003
      -4.84591629e-003 -3.82377021e-002 -1.49090961e-002
      -1.88766178e-002 -1.69888849e-003 1.45559218e-002 -1.19170814e-004
      2.66336054e-002 -2.06795726e-002 1.26853841e-003 -1.85243301e-002
      -2.04898510e-002 -3.06588355e-002 -1.59698501e-002 1.14733409e-002
      1.81141496e-002 2.08320897e-002 -3.11586801e-002 -5.10283709e-002
      -5.02822734e-003 6.20347559e-002 3.37523185e-002 -8.22146516e-003
      -1.89950690e-002 -5.70653118e-002 -6.61825538e-002 8.18686653e-003
      -1.77398697e-002 2.07932033e-002 -2.04888359e-002 9.37425438e-003
      3.12864818e-002 2.89355610e-002 6.09457912e-003 3.57920714e-002
      1.51204346e-002 -4.66234563e-003 -1.72602404e-002 -5.18270545e-002
      -6.37520477e-002 -3.01310904e-002 3.31015475e-002 2.92690732e-002
      4.43393700e-002 -1.64040942e-002 2.91357450e-002 3.79436240e-002
      5.79180159e-002 1.45177282e-002 -1.30757224e-002 -1.52049642e-002
      -3.22237536e-002 -3.80122997e-002 8.35129712e-003 2.27904823e-002
      1.81797165e-002 -8.50209501e-003 2.51840390e-002 1.11711258e-002
      1.29145132e-002 -1.45263718e-002 -4.41300161e-002 8.72718403e-004
      -8.75586364e-003 -3.33255604e-002 -7.45288357e-002
      -6.40462041e-002 -1.22767761e-002 1.62467710e-004 5.57686435e-003
      -1.44697819e-002 -1.36011234e-002 -4.15250333e-003 8.61431845e-003
      3.56547534e-003 -2.17458643e-002 4.32982808e-003 1.62590593e-002
      2.15939749e-002 3.49598825e-002 -1.57184824e-002 3.44781927e-003
      1.52088632e-003 3.36925462e-002 1.05581349e-002 -3.19258869e-002
      1.69227012e-002 2.82820910e-002 2.74492297e-002 -4.37541269e-002
      -4.67208996e-002 -3.99470478e-002 -4.53287316e-003
      -4.93797474e-004 -4.48876582e-002 -2.14611944e-002 4.04121075e-003
      -2.38809921e-002 4.55836989e-002 2.40186471e-002 1.14934789e-002
      -1.85034648e-002 -1.94934215e-002 2.03829389e-002 2.96340939e-002
      2.73841955e-002 3.72950025e-002 -3.01865977e-003 -8.41284730e-003
      2.93998327e-002 -6.14895718e-003 1.25625487e-002 2.69861575e-002
      5.57145812e-002 5.31040691e-002 4.93670143e-002 -5.91913015e-002
      -5.54878637e-002 -8.18028450e-002 -6.10484816e-002
      -7.05925822e-002 -7.56881237e-002 -5.66977710e-002
      -5.66824432e-003 -2.45222338e-002 5.16440906e-003 3.05831768e-002
      1.32660696e-003 4.50668950e-003 -7.27723306e-003 -3.34656332e-003
      1.84469286e-003 -1.73255953e-003 -1.31428167e-002 1.80688035e-002
      -6.41946821e-003 -3.81990410e-002 -6.58599287e-002
      -1.56754348e-002 8.15527327e-003 2.88284998e-002 4.44124378e-002
      6.08698186e-003 -2.43811738e-002 -4.07830514e-002 -2.94233002e-002
      -1.73587091e-002 -3.80002260e-002 -1.97483543e-002
      -2.84761693e-002 -3.68408635e-002 -2.16012541e-002 1.18383905e-003
      1.44091332e-002 2.24611480e-002 3.68864685e-002 1.86467692e-002
      -1.04143973e-002 3.17802024e-003 2.23829374e-002 7.84217380e-003
      -1.86463632e-002 -3.47247124e-002 -3.73504385e-002 1.11731039e-002
      1.93268955e-002 -1.39643215e-002 2.83888076e-003 3.23271863e-002
      1.24360668e-002 6.16299949e-005 -4.97999415e-003 6.57697767e-003
      1.18805096e-002 -2.04487462e-002 -3.09488047e-002 -4.16151360e-002
      6.07917504e-003 8.22055340e-003 1.84041355e-002 1.38141550e-002
      -6.34045526e-003 -2.30520573e-002 -1.95035096e-002 1.31611163e-002
      4.26968187e-002 5.20158298e-002 4.48706001e-002 -2.10566055e-002
      -2.31705718e-002 -5.22136986e-002 -7.49722449e-003
      -1.55928615e-003 -4.94413562e-002 -4.77039851e-002
      -1.10885287e-002 -2.22734362e-002 -2.68384675e-003 1.90380234e-002
      -1.54111264e-002 -1.38644055e-002 -1.52022894e-002
      -7.71552995e-002 -7.44485036e-002 -4.51928563e-002
      -1.27821313e-002 1.06572965e-002 -1.21541938e-003 -2.03045942e-002
      -2.09379867e-002 -1.74575038e-002 2.57135835e-002 2.24158149e-002
      2.90943440e-002 1.18414434e-002 -2.49074921e-002 -3.63272578e-002
      -3.00623430e-003 -2.34213360e-002 2.87016015e-003 -4.05933335e-002
      -2.66862549e-002 -4.35857214e-002 -3.37831527e-002
      -4.66669584e-003 -9.14339069e-003 -2.12737173e-002 1.33335199e-002
      -3.00923269e-002 -3.81486937e-002 4.56562062e-004 -3.68899032e-002
      -2.62256265e-002 5.10334037e-003 -2.65628323e-002 -3.61661389e-002
      -1.82555374e-002 -5.06515242e-003 -4.10454301e-003 2.06357776e-003
      3.71509269e-002 3.23877037e-002 2.36398429e-002 1.99449286e-002
      2.18914133e-002 6.04260387e-003 -1.90879796e-002 -2.91732163e-003
      -2.24807095e-002 1.57051999e-002 4.56280634e-002 1.33687928e-002
      3.37227806e-002 4.24067266e-002 -2.21643504e-002 6.90030726e-003
      -3.82299884e-004 -2.80110128e-002 -6.57188660e-003 1.56653523e-002
      1.12831555e-002 -2.24247966e-002 -2.53130160e-002 -5.25342040e-002
      -6.61482885e-002 -4.65054959e-002 -2.72966735e-002 8.50717258e-003
      2.77752019e-002 3.63107584e-002 4.58327793e-002 -1.87597889e-002
      1.43769272e-002 -2.95090973e-002 -3.87724824e-002 -5.74939549e-002
      -3.11112795e-002 1.44238332e-002 4.48951907e-002 3.70738991e-002
      -9.47257318e-003 -4.40576486e-002 -7.71720409e-002
      -1.68906506e-002 -7.34617859e-002 -4.48405817e-002 1.72505882e-002
      -1.40836881e-002 -3.60408574e-002 -3.36645432e-002
      -3.51780914e-002 -3.93929146e-002 -2.93385494e-003 1.29823026e-003
      -2.93808207e-002 -1.72449201e-002 2.81573460e-003 5.74997161e-004
      -5.07466085e-002 1.01048332e-002 -2.37254798e-002 -5.63090220e-002
      -7.84909353e-003 -4.76115346e-002 -4.05951478e-002 2.90845940e-003
      1.27404891e-002 -3.69533040e-002 -4.01311517e-002 -2.06180960e-002
      -1.11473654e-003 -4.09580246e-002 -4.54153642e-002
      -2.01363657e-002 3.17127146e-002 3.68092433e-002 1.22498907e-002
      -1.50574585e-002 -4.95225564e-002 2.92125926e-003 -1.55403418e-002
      1.15991607e-002 3.77550945e-002 4.54626903e-002 4.57931198e-002
      2.33637337e-002 -6.25671819e-002 -4.18142155e-002 1.38786612e-002
      -1.66376098e-003 2.21531913e-002 2.30015293e-002 -5.85185830e-003
      1.75641067e-002 -3.01433611e-003 -5.71155287e-002 -2.61015296e-002
      -3.41610387e-002 -4.77242097e-002 -2.68712975e-002
      -1.75494328e-002 6.43576831e-002 4.67343815e-002 -1.10903075e-002
      8.06890428e-003 -4.57651168e-002 -4.22850698e-002 -6.04424402e-002
      -1.96808353e-002 2.82888040e-002 9.20147002e-002 7.88177848e-002
      -4.58461139e-003 -1.15942387e-002 -4.30567823e-002 6.22519366e-002
      -2.24564373e-002 -5.94849279e-003 6.10116273e-002 3.60839092e-003
      2.91682743e-002 -2.38052625e-002 -9.30587277e-002 -2.26113461e-002
      3.62339523e-003 -5.67641016e-003 5.25448285e-002 1.78413503e-002
      1.36014512e-002 8.15513171e-003 -2.83241831e-002 -7.19636679e-003
      -4.57651503e-002 -3.08419839e-002 -3.26704467e-003
      -2.49266680e-002 -1.31814070e-002 5.59198856e-002 6.10630251e-002
      -2.65833735e-002 -5.48780337e-002 -4.52586152e-002
      -2.71663554e-002 -3.40259224e-002 -1.01879155e-002 2.96005532e-002
      6.61985576e-003 2.93376092e-002 -5.21704508e-003 -6.27823323e-002
      -2.41940022e-002 -2.57631205e-002 -4.04704222e-003 3.11719384e-002
      5.84874535e-003 1.86234210e-002 1.39827030e-002 -7.53395399e-003
      -6.24739714e-002 1.64064963e-003 2.48639360e-002 1.53992074e-002
      2.83191614e-002 1.50146615e-002 3.76895927e-002 4.41939570e-002
      -1.87063199e-002 -1.04981653e-001 -5.17335385e-002
      -3.98158208e-002 -3.06968968e-002 -2.20251437e-002 1.12390909e-002
      -4.57842723e-002 -1.64383221e-002 -3.90781462e-002
      -2.72124875e-002 -4.12790813e-002 -6.38279393e-002
      -3.09861246e-002 -1.53759038e-002 -4.06090207e-002 5.38013205e-002
      3.07781156e-002 -3.43835726e-002 -5.03247865e-002 -2.27745287e-002
      5.66571392e-002 2.54573040e-002 5.26972003e-002 5.76435067e-002
      1.64540354e-002 4.51543815e-002 1.73633290e-003 -3.06692868e-002
      -2.23288257e-002 3.71260829e-002 3.54144499e-002 1.21236466e-001
      5.26969582e-002 -2.23555807e-002 1.32359620e-002 2.18597669e-002
      2.90856380e-002 -1.78261679e-002 -2.56494824e-002 -6.82974886e-003
      2.77167354e-002 -1.10044135e-002 3.23012620e-002 4.23591435e-002
      -1.48517564e-002 -6.49815425e-002 1.11667635e-002 1.65317245e-002
      -2.04441417e-002 5.48921945e-003 2.45454647e-002 1.42439120e-002
      5.61477095e-002 2.87488475e-002 -1.76267885e-002 1.72853861e-002
      2.65157502e-002 2.89140977e-002 7.52410218e-002 2.37913895e-002
      -3.72194778e-003 7.54593546e-003 3.06047909e-002 5.10815904e-002
      -5.40905911e-003 -2.30026990e-002 -5.90412645e-003
      -6.15870720e-003 -2.87495684e-002 2.71807443e-002 3.24144512e-002
      -2.65002344e-002 -7.52537251e-002 -2.81175300e-002
      -9.08942334e-003 -3.90942814e-003 1.75524782e-002 2.95851510e-002
      -5.29986061e-002 2.08146707e-003 -3.77025604e-002 -2.87482776e-002
      -3.48813720e-002 -2.53135096e-002 2.01693196e-002 -4.72327368e-003
      -5.66072091e-002 -4.52347659e-002 1.40405272e-003 -2.08109673e-002
      -5.16465232e-002 -3.17948908e-002 -3.91449407e-002
      -2.59356722e-002 -2.21777484e-002 -8.36379156e-002 3.07555031e-002
      3.53167728e-002 -3.48020461e-004 -2.96192290e-003 -2.05768887e-002
      3.31334583e-002 5.96355386e-002 1.02832004e-001 7.61198401e-002
      -6.22341642e-004 5.49662560e-002 6.70989677e-002 7.57706910e-002
      -3.66047248e-002 2.83249635e-002 3.43572572e-002 5.99612072e-002
      1.41961630e-002 2.47486178e-002 3.32858711e-002 2.93565802e-002
      7.77756795e-003 -3.64226438e-002 6.09935261e-003 8.60040914e-003
      8.16051569e-003 -2.80405488e-002 -7.73323292e-004 2.24196147e-002
      1.18748182e-002 2.12600492e-002 5.97177073e-002 3.27542461e-002
      1.55425500e-002 3.76186706e-002 5.10405051e-003 3.08282152e-002
      6.36725873e-002 7.53710419e-002 7.83096030e-002 -1.19648194e-002
      1.56565234e-002 2.05482747e-002 2.22338866e-002 -4.31618700e-003
      7.51934422e-004 1.70712303e-002 1.11363744e-002 4.54890057e-002
      2.63630413e-002 2.85477992e-002 3.01768482e-002 -2.71108351e-003
      -9.97329783e-003 -2.54784841e-002 -2.07380601e-003
      -3.92374136e-002 -5.89555651e-002 -2.58557424e-002
      -2.17935573e-002 1.21398661e-002 2.74658389e-003 -4.24979143e-002
      -4.66499338e-003 2.18766220e-002 -9.53761861e-003 -2.56379545e-002
      -1.62784588e-002 -3.99597920e-002 -3.27697955e-002 1.15223052e-002
      -2.57182717e-002 -1.70551967e-002 -3.30725941e-003
      -6.40934752e-003 -2.26745233e-002 -3.83473933e-002
      -3.18377949e-002 -5.61976209e-002 3.43271457e-002 -1.97809450e-002
      2.11378206e-002 6.61776140e-002 3.93657386e-002 6.17003359e-004
      -1.95511002e-002 8.25492386e-003 1.81617439e-002 1.77492443e-002
      -1.70421619e-002 3.79305258e-002 3.44092958e-002 4.12621535e-002
      4.20253091e-002 -2.66683903e-002 2.88298707e-002 1.80843901e-002
      9.28904414e-002 3.87562253e-002 3.07960361e-002 -4.71340725e-003
      -4.08977941e-002 1.66709367e-002 -3.46214697e-002 -9.88912676e-003
      -2.18520369e-002 6.75586984e-002 6.80994168e-002 8.62657931e-003
      4.52251099e-002 4.46853489e-002 4.21344936e-002 -3.84452902e-002
      -2.85114143e-002 3.57635971e-003 -1.76963452e-002 -3.10787074e-002
      3.10452059e-002 4.94853482e-002 7.64149129e-002 7.58088306e-002
      7.76903629e-002 7.45920762e-002 6.54559284e-002 4.82858643e-002
      3.40146050e-002 -1.56947374e-002 -7.44231697e-003 1.33290077e-002
      6.53955862e-002 4.71943654e-002 4.71826978e-002 3.50013971e-002
      4.35547903e-002 1.36353597e-002 -2.00849921e-002 -3.98414582e-003
      -1.86062008e-002 -3.42203602e-002 -3.75347510e-002
      -2.87966542e-002 -3.84468995e-002 3.34868790e-004 -3.31135169e-002
      -3.42685613e-003 -1.02107190e-002 -2.49132682e-002
      -3.25737298e-002 -4.18488011e-002 -2.29996946e-002
      -4.31876108e-002 7.37140328e-002 1.49164713e-004 -2.55509075e-002
      -2.04997305e-002 -2.80275643e-002 -3.03360466e-002
      -1.28885414e-002 1.63883474e-002 -7.27378801e-002 3.63538526e-002
      1.19748907e-002 1.61096454e-002 -3.87153309e-003 -1.33413798e-003
      2.28495523e-002 1.34718372e-002 2.18841638e-002 -1.27567081e-002
      3.89472768e-002 2.12466344e-002 -1.17590297e-002 -1.31265139e-002
      -6.40460774e-002 -5.22964187e-002 -9.55768749e-002
      -2.55836286e-002 -1.59421358e-002 8.51426870e-002 2.80895475e-002
      -3.98515016e-002 -5.42242937e-002 -8.47732648e-002
      -5.13847098e-002 -2.26869769e-002 -5.52952103e-003
      -3.41813043e-002 6.70601055e-002 1.17556136e-002 -1.54507188e-002
      -1.64882839e-002 3.83150601e-003 6.72371611e-002 5.25844470e-002
      4.74043861e-002 3.73252407e-002 3.27703655e-002 1.90794077e-002
      7.88955856e-003 1.05429776e-002 6.94728410e-003 4.42821644e-002
      4.53353114e-003 1.64387226e-002 5.37282974e-002 6.75764009e-002
      2.43417863e-002 -2.83256508e-002 -1.23636816e-002 -3.87707539e-002
      -2.72650383e-002 9.42209829e-003 3.40888686e-002 2.03606486e-002
      5.15271053e-002 -1.81128904e-002 -8.11010692e-003 -1.49015635e-002
      -1.90005228e-002 -1.27315819e-002 -3.47391400e-003
      -4.04006336e-003 -4.66099530e-002 3.14094834e-002 2.00318508e-002
      -1.21263722e-002 -1.18803764e-002 -2.62565073e-002
      -2.05113385e-002 9.91117209e-003 3.20205539e-002 -6.22596629e-002
      5.80773577e-002 7.11571649e-002 -1.56088211e-002 -2.46823784e-002
      -2.83978526e-002 -9.67745669e-003 1.52806770e-002 -2.45326180e-002
      -1.29873946e-001 2.76537100e-003 2.85227913e-002 -1.34371845e-002
      -3.64782177e-002 -7.90233091e-002 -1.12481741e-002
      -4.47670259e-002 -6.17477251e-003 -3.01067308e-002 5.09401858e-002
      2.78811380e-002 -5.96246682e-002 -8.84246603e-002 -9.46615115e-002
      -2.55290512e-002 -2.30591297e-002 9.01242311e-004 -3.53010818e-002
      1.80194713e-002 -5.24174329e-003 -3.11747175e-002 -2.46193819e-002
      -3.93888056e-002 1.56129012e-002 6.36635348e-002 -3.41584254e-003
      -1.28354400e-001 -8.05728976e-003 7.65986275e-003 -1.28568746e-002
      3.23704048e-003 -1.43487472e-002 9.01746005e-003 7.03603216e-003
      1.25948051e-002 -1.43104289e-002 -4.04893514e-003 -1.79242026e-002
      -3.91331874e-002 -2.88729239e-002 -5.63812368e-002
      -1.85554139e-002 2.74692085e-002 1.07315350e-002 1.37959011e-002
      6.83965012e-002 -2.63681374e-002 -1.15755165e-003 1.23577483e-003
      -2.28542648e-003 2.90641151e-002 7.58401603e-002 3.11397798e-002
      -1.10841624e-001 2.41834447e-002 -1.07309618e-003 -3.92045500e-003
      1.01648422e-003 6.07543904e-003 5.95730320e-002 6.38312614e-003
      -6.17208984e-003 -9.53393709e-003 -2.52426788e-002
      -3.41186672e-002 3.51500884e-002 3.35308202e-002 4.61029308e-003
      1.77644752e-002 1.61184594e-002 3.38337608e-002 3.60624604e-002
      1.53889274e-002 5.09512192e-003 1.67697016e-002 -6.98723830e-004
      -3.24851610e-002 -5.92039824e-002 -5.71589954e-002 4.99346806e-003
      4.41853590e-002 3.30440737e-002 2.26833075e-002 -2.34063715e-002
      2.43048854e-002 1.24108735e-002 6.41906634e-002 1.59791261e-002
      4.32886370e-002 7.47517869e-003 -1.46279149e-002 -3.63094471e-002
      4.58402699e-003 -3.30797769e-002 -1.94721986e-002 -1.16516436e-002
      1.55797601e-002 9.29315388e-003 8.07844624e-002 2.56532710e-002
      -3.59082259e-002 8.49136338e-003 4.52225981e-003 -2.48100255e-002
      -5.26649877e-002 -5.36121801e-002 -2.49178838e-002 5.09300129e-003
      1.75951812e-002 -3.39314789e-002 2.54630833e-003 6.60272175e-003
      -1.16754239e-002 -2.81969793e-002 -9.31751728e-003 2.23229490e-002
      2.03573424e-002 2.90513355e-002 5.24695870e-003 -8.94557405e-003
      5.95003087e-003 -3.31033254e-003 7.49858283e-003 7.43729807e-003
      7.36777624e-003 4.77741361e-002 5.50922081e-002 1.31165702e-003
      -3.80737311e-003 5.90869319e-003 1.36707593e-002 -2.61856969e-002
      -7.35801607e-002 -6.01683222e-002 -1.49694802e-002 9.53899976e-003
      -7.90136214e-003 2.44520493e-002 2.61940025e-002 8.64233263e-003
      9.61423852e-003 1.46869686e-003 7.77361856e-004 2.04494055e-002
      1.93312615e-002 9.10614897e-003 1.20518710e-002 -5.59199881e-003
      -6.83270628e-003 -3.81942503e-002 -2.94544827e-002 4.05467041e-002
      5.10057509e-002 5.73374256e-002 3.53606716e-002 -3.58580947e-002
      -2.20908877e-002 2.88489554e-003 -1.27970884e-002 -5.28677925e-002
      -4.27328050e-002 -3.24228927e-002 -7.24636624e-003
      -9.17833950e-003 6.12695189e-003 2.03932468e-002 1.03397248e-002
      -2.12942227e-003 1.74589138e-002 8.37358739e-003 2.62745507e-002
      2.28847060e-002 -2.02266872e-002 1.45131946e-002 6.24595722e-003
      -5.41750062e-003 -3.51930149e-002 3.46173979e-002 2.42295340e-002
      1.43831139e-002 2.37083156e-002 -2.65806485e-002 -2.84973010e-002
      -4.25604880e-002 -2.99363565e-002 -1.35861775e-002
      -6.53433427e-002 -9.79795009e-002 -6.22147955e-002
      -7.89174363e-002 -3.57865281e-002 -7.39457551e-003
      -1.82421936e-003 -8.85615870e-003 1.96917541e-002 4.61263815e-003
      -3.62509526e-002 9.41621512e-003 2.85043139e-002 4.51198919e-003
      -1.04219439e-002 9.92312934e-003 2.82872096e-002 -1.30340438e-002
      -5.71404491e-003 -6.26452081e-003 -9.94702708e-003
      -4.30011144e-003 -2.15716474e-002 -6.03384618e-003
      -2.41823606e-002 -4.30431515e-002 -3.20582986e-002
      -7.44835809e-002 -4.73495852e-003 7.69100524e-003 -2.84686871e-002
      -6.11452851e-003 2.05062870e-002 2.05955468e-002 6.80471258e-003
      -1.91402324e-002 -1.33584272e-002 5.05356025e-003 2.29884405e-002
      4.12646197e-002 4.16821949e-002 -8.81142449e-003 1.82937377e-003
      1.36631373e-002 2.38693948e-003 -3.07552926e-002 -5.49028143e-002
      -5.34230098e-002 -1.89817287e-002 -6.25824695e-003
      -5.50357997e-003 1.02630993e-002 3.69620090e-003 1.70935765e-002
      -2.61376183e-002 -6.57430962e-002 -6.66190684e-002
      -5.61019145e-002 -3.03515512e-002 3.58041935e-002 2.63393112e-002
      -1.72168715e-003 -1.41310226e-002 -1.17310230e-002 2.55191587e-002
      1.14196185e-002 3.91978920e-002 2.78016161e-002 -2.40733251e-002
      3.28640011e-003 1.14874057e-002 1.56874787e-002 8.51966441e-003
      -3.57036479e-002 -4.14098948e-002 -7.55357295e-002
      -5.35252802e-002 -2.61718817e-002 -1.02666831e-002
      -6.11063093e-003 2.49376055e-002 -1.76140852e-002 -6.22731522e-002
      -1.99136697e-002 -8.64030793e-002 -4.88504916e-002 9.61977616e-003
      8.31186026e-003 5.05041657e-003 4.11932776e-003 -3.19913030e-002
      4.45064530e-003 6.53739041e-003 1.76685359e-002 1.16457138e-002
      7.82761630e-003 -9.30452347e-003 -1.48995146e-002 2.04151589e-003
      -2.49645580e-002 -4.74989321e-003 1.26577374e-002 -3.40190306e-002
      4.63817705e-004 -2.86059324e-002 -2.33052168e-002 -3.11965644e-002
      5.82245935e-004 -1.95799768e-002 -2.30408274e-003 -2.33947323e-003
      -2.81273220e-002 -2.17825826e-002 8.06232076e-003 7.77981826e-004
      2.56907027e-002 1.79484636e-002 -6.14319113e-004 -1.01663461e-002
      -1.09040579e-002 -8.60266155e-004 1.21160997e-002 2.47694477e-002
      4.67305183e-002 -9.27937566e-004 2.65279151e-002 4.59370529e-003
      -3.55976783e-002 -4.24657762e-002 -5.33179715e-002
      -1.79419890e-002 1.83987375e-002 1.09424153e-002 -9.60281678e-003
      -3.85990404e-002 -7.86800869e-004 -3.38812033e-003
      -3.30933742e-002 -2.82415263e-002 -4.66292986e-004 7.17191352e-003
      2.49006297e-003 9.47416946e-003 2.40829380e-004 -1.67746339e-002
      -5.12070302e-003 1.98390204e-002 -3.86826694e-002 3.93864204e-004
      -8.54170322e-003 1.34687498e-002 2.51360680e-003 8.29769149e-002
      4.78951223e-002 5.64703392e-003 9.77089442e-003 -7.82010779e-002
      -3.84165198e-002 -2.53366539e-003 1.89259816e-002 -3.56878601e-002
      3.40690352e-002 -3.11889946e-002 1.27722537e-002 -3.60791497e-002
      -6.23830222e-002 -3.34152393e-002 9.78537742e-003 -3.30833416e-003
      -1.09942136e-002 -2.03189161e-002 -3.70975919e-002 2.50259023e-002
      1.80657599e-002 -1.17225964e-002 1.40193524e-002 -1.78087912e-002
      -3.99899296e-003 -1.76508650e-002 3.59630957e-002 9.37511213e-003
      -1.77176148e-002 -6.10183971e-003 -2.10898947e-002
      -2.87150219e-002 -6.18983805e-003 9.99349542e-003 -4.98320349e-003
      -5.93031291e-003 -1.56226959e-002 -3.82990949e-002
      -5.24638928e-002 -3.77767533e-002 -2.57745944e-002 2.97294166e-002
      2.12813299e-002 -1.09546585e-002 9.85465851e-003 -1.43178012e-002
      -7.08793197e-003 -1.94245428e-002 -1.87691338e-002 3.10836622e-004
      6.89108446e-002 5.17688952e-002 -1.92906931e-002 -9.49316323e-002
      -1.89420730e-002 3.72124463e-002 -1.15018450e-002 1.82021838e-002
      5.35703078e-002 8.29153135e-003 3.45582440e-002 -6.71479432e-003
      -6.01564832e-002 4.66271210e-003 2.38062858e-004 2.77192742e-002
      4.66574878e-002 1.76515672e-002 2.06303094e-002 1.03433803e-002
      -2.62108482e-002 3.78562436e-002 -4.14163955e-002 -1.54136121e-002
      -2.64001638e-003 -3.28738056e-002 -1.70252286e-002 7.17604682e-002
      6.20020851e-002 -1.14862928e-002 3.69504578e-002 -2.42513362e-002
      5.85076138e-002 2.72175428e-002 2.02838667e-002 3.24451588e-002
      2.18192432e-002 6.04472272e-002 2.93134283e-002 -4.59708013e-002
      -3.28898430e-002 -1.54793067e-002 1.44004095e-002 5.63338958e-002
      2.02409700e-002 1.55788511e-002 1.71810612e-002 -4.11809469e-003
      5.61728515e-003 -6.09787740e-002 -5.14772125e-002 -2.21010242e-002
      -1.21735102e-002 2.45945132e-003 3.92887667e-002 6.25290573e-002
      2.99880672e-002 -1.48646785e-002 -5.11244684e-002 -3.40247937e-002
      -3.68584432e-002 -5.62159577e-003 1.36357946e-002 1.41265132e-002
      3.11662778e-002 1.66185088e-002 -2.73684156e-003 -3.24299112e-002
      -4.29057106e-002 -2.15923991e-002 -2.18565646e-003 1.04056764e-002
      3.57896946e-002 2.41831802e-002 -4.47311774e-002 -9.73858759e-002
      -1.70108769e-002 2.70492770e-002 1.94397438e-002 4.25509922e-002
      4.07630913e-002 2.42930930e-002 4.07648310e-002 -3.98678370e-002
      -8.88411477e-002 -2.21107900e-002 9.03996080e-003 4.25568372e-002
      1.01335213e-001 4.75323871e-002 -7.63038453e-003 5.41559700e-003
      9.99153871e-003 1.37973344e-002 -2.76314374e-002 -3.86295505e-002
      -9.69696045e-003 1.49798989e-002 -2.76418374e-004 4.97523360e-002
      4.97821569e-002 -3.90800945e-002 -7.43488520e-002 -8.73568133e-002
      3.23985033e-002 2.43772026e-002 5.03441431e-002 4.79342602e-002
      4.43332866e-002 7.15943500e-002 3.12858708e-002 -1.92891546e-002
      -3.75923105e-002 5.25302626e-002 6.51473030e-002 9.35508832e-002
      6.41980916e-002 8.46255943e-003 1.53835388e-002 2.58549042e-002
      3.47781256e-002 -2.65310686e-002 -3.15800905e-002 -1.97558254e-002
      4.75630164e-003 -2.35871579e-002 3.71747613e-002 3.43310870e-002
      3.87804629e-003 -4.22098823e-002 -2.17025783e-002 1.02311419e-002
      -4.57872608e-004 1.63868312e-002 1.93884559e-002 1.69297680e-002
      5.39853312e-002 5.03312573e-002 -4.34189010e-003 -3.80180739e-002
      -6.63487799e-003 9.94547177e-003 -8.63607507e-003 2.18815659e-003
      -1.31221199e-002 -2.29272223e-003 2.47291829e-002 6.19970299e-002
      -1.13127315e-002 -9.63454880e-003 1.94177835e-003 -1.21098282e-002
      -1.78853013e-002 1.41142430e-002 4.59997071e-004 -6.37192130e-002
      -9.46595073e-002 -1.66631863e-002 2.50310935e-002 3.90638597e-002
      7.23837838e-002 4.77279015e-002 -3.75203299e-003 3.59055735e-002
      1.99987646e-002 1.62129030e-002 -3.17976177e-002 -8.43365490e-003
      2.32513305e-002 2.41390243e-002 -1.14643648e-002 -1.27042402e-002
      3.59752541e-003 -4.73643420e-003 -2.93745864e-002 -3.91119532e-002
      -2.41940189e-003 1.98242860e-003 -2.30063535e-002 -4.88986745e-002
      1.70139913e-002 3.55379246e-002 3.50071257e-003 2.86102644e-004
      -2.24243365e-002 5.16469851e-002 5.40418290e-002 6.96141645e-002
      3.79045010e-002 3.97574715e-002 6.26700968e-002 7.24179447e-002
      5.97269163e-002 -6.41663298e-002 -2.10843813e-002 3.70040908e-002
      5.81317879e-002 2.00651418e-002 -2.16889312e-003 4.53838632e-002
      3.54871005e-002 3.83482836e-002 1.94260590e-002 -1.11507969e-002
      2.65122447e-002 -1.60191730e-002 -3.27718072e-002 1.31068854e-002
      3.15427408e-002 3.81423980e-002 4.15618019e-003 -2.88557336e-002
      6.11308322e-004 6.44960068e-003 -9.81974602e-003 1.07156031e-003
      2.29218579e-003 4.45565246e-002 5.43450527e-002 6.69949800e-002
      -2.14667711e-003 2.58018449e-002 4.28561270e-002 1.64799653e-002
      -5.07872272e-003 6.68825163e-003 3.12759839e-002 4.93769720e-002
      5.92169464e-002 3.40012424e-002 1.70127098e-002 3.06519773e-002
      -2.37645376e-002 -1.66354310e-002 -2.43519456e-003 1.81576721e-002
      -8.93670879e-003 -4.95011955e-002 -7.74069205e-002
      -1.78331453e-002 2.14143507e-002 1.16858110e-002 -2.57327072e-002
      -2.02500122e-003 -1.04453769e-002 -3.77790583e-003
      -7.51480786e-003 -2.66831424e-002 -2.18189117e-002
      -1.08725568e-002 6.21013716e-003 -1.32686896e-002 -7.44881108e-003
      -2.40437221e-002 -3.04958727e-002 8.05723388e-003 -2.67587416e-002
      -1.17173903e-002 -6.03398904e-002 -1.23956613e-002 1.78666203e-003
      2.42212731e-002 5.91491945e-002 3.23046707e-002 -9.03024711e-003
      -8.19383785e-002 -4.50743660e-002 2.01129317e-002 -3.57606518e-003
      -2.34947857e-002 2.50271708e-002 6.04962222e-002 1.03484295e-001
      4.31058630e-002 3.12259234e-003 1.54545046e-002 3.96979600e-002
      4.90080100e-004 9.73299518e-003 -1.40865920e-002 8.28848686e-003
      1.73617695e-002 6.23555966e-002 5.03280908e-002 -5.33164712e-003
      2.36495659e-002 4.67386423e-003 7.61188613e-003 2.18790770e-003
      3.06047108e-002 3.94615531e-002 2.66937204e-002 -2.01296918e-002
      -1.87134761e-002 9.29017644e-003 -1.67921502e-002 -6.68938644e-003
      4.06673402e-002 8.09597448e-002 8.90853927e-002 6.31250143e-002
      4.16183844e-002 5.08809425e-002 4.98630218e-002 -6.07885479e-004
      1.60955917e-002 -5.65841282e-003 1.47066833e-002 -7.61197589e-004
      3.31486128e-002 1.07750475e-001 5.80451749e-002 4.39059474e-002
      8.18937318e-004 -7.86184892e-003 -1.17683364e-002 -3.51040512e-002
      -2.81463172e-002 -6.90222392e-003 -2.34112050e-002
      -6.32681372e-003 -1.18449172e-002 -8.78531777e-004 3.60235645e-005
      -1.93436909e-002 -5.13070002e-002 -8.15250576e-002
      -3.00838780e-002 -7.29784667e-002 -5.51938526e-002
      -7.41652101e-002 3.31941620e-002 2.00939327e-002 -3.00669260e-002
      -3.91832441e-002 -5.72341606e-002 -3.85592990e-002
      -3.76394168e-002 -5.47353290e-002 -7.56162331e-002 1.03603695e-002
      5.14482753e-003 -8.44634662e-004 8.91770329e-003 2.01445445e-002
      4.50833924e-002 7.21417889e-002 4.80384976e-002 3.90917212e-002
      1.55923199e-002 2.43266504e-002 -5.22750476e-003 1.07827280e-002
      3.08420137e-002 9.09527112e-003 -3.20079215e-002 -4.45620306e-002
      2.76424251e-002 3.10517196e-002 3.16451229e-002 -6.55147657e-002
      -5.13716303e-002 -8.92751142e-002 -7.20087960e-002
      -3.49721052e-002 -6.14474826e-002 -1.88760385e-002 4.75207232e-002
      -3.26903053e-002 2.42972281e-002 4.53378633e-002 4.55168560e-002
      5.64323552e-002 7.65402243e-002 4.97042574e-002 3.53963040e-002
      -9.02716815e-003 7.15282885e-003 3.13652237e-003 4.82090889e-003
      -1.15350503e-002 4.19545360e-002 3.76554206e-002 2.51618363e-002
      4.87857014e-002 3.84812430e-002 8.11558589e-003 -1.15621909e-002
      -3.69682536e-002 -4.55496274e-002 -4.45530862e-002 3.65133807e-002
      3.65526080e-002 4.01879251e-002 3.12535539e-002 -8.59899167e-003
      -2.07929965e-002 -2.99690813e-002 -4.24030237e-002 3.61424824e-003
      -1.70958843e-002 -4.18671267e-003 -4.07776013e-002 3.77050415e-002
      1.30349565e-002 -4.49930914e-002 -5.46356849e-002 -7.38206506e-002
      -2.24324428e-002 -1.32859927e-002 -4.57252003e-002
      -1.00331865e-001 4.05060612e-002 7.02378526e-003 -2.31627058e-002
      -1.29650384e-002 -1.84074454e-002 1.06191896e-002 1.49609800e-002
      -6.34440780e-002 -1.87124506e-001 -1.35149742e-002
      -3.54914647e-003 -1.02761388e-002 -5.49489260e-003
      -2.31029429e-002 -1.27364220e-002 -2.48058867e-002
      -1.85891427e-002 2.96790712e-002 4.01483923e-002 1.13231847e-002
      -7.13181794e-002 -7.64173344e-002 -1.06723174e-001
      -3.05072498e-002 -6.15347065e-002 -8.02589487e-003
      -1.14933727e-002 4.23755534e-002 -3.80154401e-002 -1.29456948e-002
      4.13959986e-003 -1.64773110e-002 8.73627514e-003 2.91580819e-002
      -5.04067615e-002 -1.23859704e-001 -2.44928291e-004
      -1.37710222e-003 -1.40234618e-003 -1.24812461e-002
      -2.26636697e-002 1.23772295e-002 6.86752051e-002 6.93797842e-002
      4.13226448e-002 2.81811226e-002 7.14032212e-003 -3.70011218e-002
      -3.46496701e-002 -4.78005148e-002 -2.77513824e-002 4.54089791e-002
      4.65083085e-002 6.29221126e-002 5.19069992e-002 -2.10357029e-002
      -2.68008150e-002 -1.99984740e-002 -3.31896134e-002 2.31044577e-003
      9.26921442e-002 7.37932399e-002 -4.17454764e-002 -1.38699263e-002
      -2.82440372e-002 -3.31961410e-003 2.41803005e-002 1.62353348e-002
      1.02578048e-002 -4.01929840e-002 1.54880937e-002 3.15028280e-002
      2.21267659e-002 -1.65192701e-003 -1.19568617e-003 4.67190333e-003
      -8.87291506e-003 -4.84017131e-004 -1.38002336e-002 2.74237953e-002
      7.57506788e-002 4.77651730e-002 -3.68738198e-004 -6.02614647e-003
      1.17171637e-003 -1.33243613e-002 -3.49558219e-002 -4.52455655e-002
      -6.60854764e-003 7.62727391e-003 2.58652866e-002 -1.53527642e-002
      -7.52628723e-004 -3.58807808e-003 -2.29821764e-002 1.23709487e-002
      4.97583859e-002 3.93342562e-002 4.54980657e-002 5.09968847e-002
      6.42102864e-003 -1.89375319e-002 1.96765382e-002 -7.66016636e-003
      4.55736332e-002 -1.21915322e-002 6.77814102e-003 7.44834915e-002
      7.12246150e-002 6.07762719e-003 -2.01603472e-002 -3.13753332e-003
      -2.14370107e-003 5.62082510e-003 -2.37763990e-002 -5.57771213e-002
      -3.17741797e-004 7.06941029e-003 -2.40228195e-002 -4.43958124e-004
      -1.13548548e-003 1.26120681e-002 4.14496288e-002 8.06239620e-003
      1.70924217e-002 1.74150243e-002 8.53608921e-003 9.74685012e-004
      -6.40783599e-003 4.25392166e-002 2.34981254e-003 -2.10689846e-002
      -2.94794999e-002 -9.35903843e-003 2.71083955e-002 6.50841568e-004
      -2.46457886e-002 -1.70947704e-002 -6.01255568e-003
      -1.01355398e-002 -4.52706404e-002 -5.49274646e-002
      -5.82271367e-002 8.25124513e-003 1.26605742e-002 -1.10272095e-002
      4.84926486e-003 6.07373938e-003 -2.72212476e-002 1.72530785e-002
      4.71054204e-003 5.04930038e-003 2.41095610e-002 3.33593376e-002
      5.82406949e-003 1.56235704e-002 9.88811534e-003 7.10697798e-003
      -9.25206230e-004 -5.33015188e-003 2.67697852e-002 2.43683755e-002
      3.23421583e-002 -1.34862065e-002 1.33131607e-003 -1.01729231e-002
      -1.24484543e-002 1.88280921e-002 -2.43522916e-002 -5.63223055e-003
      -9.20332223e-003 -3.74878272e-002 -5.97879756e-003 1.05512133e-002
      2.65859738e-002 1.24914069e-002 3.27780806e-002 3.77283394e-002
      -1.12338345e-002 4.53498214e-002 5.73552102e-002 1.77544560e-002
      -1.44127747e-002 -1.20741595e-002 1.08173378e-002 1.51554756e-002
      2.15162616e-002 -1.55646298e-002 -6.75949384e-004 -2.17553671e-003
      -2.90567633e-002 -2.41342038e-002 -3.04847732e-002
      -2.43421402e-002 -3.80661860e-002 -5.49030714e-002
      -8.03034455e-002 -2.68592853e-002 -4.82970849e-002
      -3.93115096e-002 5.48938522e-003 3.53880562e-002 8.46184604e-003
      -1.49149774e-002 -1.11623073e-003 -2.66940929e-002 1.31962188e-002
      -7.84627814e-003 -5.26721915e-003 -1.98438279e-002
      -3.31893303e-002 1.05126658e-002 -3.02543468e-003 -1.93774439e-002
      -3.66233289e-002 4.99158315e-002 3.00029870e-002 -1.27370292e-002
      -2.19772384e-002 -2.05198601e-002 -2.56380271e-002
      -3.87004912e-002 -5.07448576e-002 5.55015681e-003 1.80738028e-002
      -1.43538276e-003 -9.16367210e-003 3.50953415e-002 2.19978411e-002
      2.02360768e-002 2.00599842e-002 -1.69382300e-002 -1.93903514e-004
      1.83368679e-002 2.59731989e-002 2.69400496e-002 2.79421434e-002
      3.59956883e-002 3.48032340e-002 3.05125061e-002 -4.80961893e-003
      -3.21992487e-002 -1.66595038e-002 -4.44616601e-002 4.21405444e-003
      -2.66361213e-003 5.78387873e-003 1.46683687e-002 3.77976336e-002
      -2.31582392e-002 -4.63769957e-002 -2.73849275e-002
      -4.88179587e-002 -2.46381350e-002 1.48735205e-002 1.95067599e-002
      4.68132049e-002 1.42628513e-002 -1.78030059e-002 -5.55659039e-003
      1.73888989e-002 3.52107100e-002 2.42799949e-002 -3.83207342e-003
      -2.59419228e-003 1.67287234e-002 9.18213278e-004 1.17023997e-002
      -2.72479560e-002 -2.27899384e-002 -4.71957587e-002
      -2.82332115e-002 -3.23036015e-002 -1.42424721e-002
      -2.22316235e-002 -7.76527636e-003 -1.75926508e-003 2.72540841e-002
      -2.79811583e-002 -6.37901723e-002 -4.81192470e-002 1.65027194e-003
      -7.94378668e-003 -2.80521391e-003 -8.13746650e-004
      -3.93151380e-002 -1.85966324e-002 2.37948243e-002 3.14984731e-002
      1.89983509e-002 -1.42718134e-002 -2.48582019e-005 -1.33964363e-002
      -3.20500229e-003 4.53698412e-002 1.41424290e-003 2.10011210e-002
      -1.39182527e-002 -1.73305664e-002 -2.26535220e-002
      -3.00892405e-002 -6.68088794e-002 -3.76995094e-002 6.21257583e-003
      -1.12131117e-002 -3.69584672e-002 -3.98181565e-002
      -2.39098091e-002 2.29611676e-002 1.68561731e-002 2.89467555e-002
      2.70655453e-002 -1.93086790e-003 1.80375148e-002 2.25461051e-002
      -1.39218001e-002 1.83355231e-002 6.58985367e-003 1.88085362e-002
      3.31438966e-002 4.82248552e-002 3.43035534e-002 -4.32400405e-003
      1.20579004e-002 -3.85695696e-002 -1.53621985e-002 -1.43955797e-002
      9.92663577e-003 -7.95393344e-003 -1.03293555e-002 1.09309750e-002
      2.42909696e-002 -2.25164089e-002 -4.49978933e-002 -3.01202182e-002
      3.02777458e-002 1.64254829e-002 1.60834733e-002 -9.96932969e-004
      1.54375918e-002 4.15965952e-002 3.12109888e-002 -1.58049520e-002
      7.51224207e-003 2.36719404e-003 7.94004463e-003 2.19829753e-002
      3.94254103e-002 6.21103495e-002 2.26722769e-002 -1.35660199e-002
      -4.93910424e-002 -4.27509025e-002 -3.13112028e-002 1.75431836e-002
      2.91184336e-003 2.94466186e-002 -2.42406633e-002 -3.60881388e-002
      -6.20719716e-002 -5.20881712e-002 -4.26290892e-002 1.48020936e-002
      9.84528288e-003 -2.02896241e-002 -9.87411384e-003 -1.38878524e-002
      1.94687117e-002 1.60796754e-002 -3.65871447e-003 -1.37470406e-003
      -6.42543379e-003 1.46119259e-002 -4.92870659e-002 -1.91734359e-002
      5.45203174e-003 -3.01828459e-002 -6.36899844e-002 -3.34273353e-002
      -2.30053975e-003 -1.46075767e-002 2.15933509e-002 4.18559182e-003
      -3.49710579e-003 -4.15831134e-002 -6.19864278e-002
      -5.06281257e-002 -2.00713822e-003 -4.89329221e-003 1.96534693e-002
      1.59879681e-002 4.24425164e-003 1.23744030e-002 -4.00369801e-002
      -1.05337575e-002 1.17845219e-002 -6.58500846e-003 2.18354375e-003
      3.67807932e-002 5.58681861e-002 9.08372644e-003 -5.09387106e-002
      -3.64542007e-002 2.71520410e-002 -2.81943248e-005 6.11927547e-003
      3.12737711e-002 1.20864781e-002 4.46970426e-002 9.96783935e-003
      -3.01196184e-002 -1.67575628e-002 -1.33770006e-002 3.68489511e-003
      2.43692826e-002 1.37956413e-002 4.34067510e-002 5.11699952e-002
      1.12491902e-002 3.38327251e-002 -2.33469103e-002 -2.22025029e-002
      -3.53597924e-002 1.47903760e-004 3.58766317e-002 3.13379429e-002
      7.13281557e-002 4.60164994e-002 6.78831413e-002 -5.05665615e-002
      -5.12384251e-003 -6.89679349e-004 4.56528942e-004 2.46765260e-002
      2.75782328e-002 5.25780916e-002 3.77036557e-002 2.63233967e-002
      -3.33011746e-002 -1.34568941e-003 6.78783143e-003 1.13983909e-002
      2.08649114e-002 2.65024882e-002 3.65361236e-002 -7.74008641e-003
      -3.83678637e-002 -8.79801065e-002 -4.88994159e-002
      -3.43558416e-002 2.02670302e-002 4.17959318e-002 2.98969578e-002
      5.45524247e-002 1.99061297e-002 -1.58264991e-002 -5.91623299e-002
      -6.47035092e-002 -1.41771920e-002 4.41938117e-002 2.99974289e-002
      6.16949704e-003 1.87494475e-002 -1.92957779e-003 -3.95847559e-002
      -6.20487481e-002 -4.40041386e-002 -2.03964580e-002
      -1.94751064e-003 1.29485773e-002 2.99850665e-002 4.00326215e-002
      -2.30083428e-002 -9.20260549e-002 -3.98916565e-002 6.16286211e-002
      3.76241393e-002 4.26380634e-002 3.75669599e-002 3.32734995e-002
      5.20651937e-002 1.63164604e-002 -5.75935096e-002 -7.20603764e-002
      -1.40783886e-004 4.30611148e-002 6.11893311e-002 3.86650302e-002
      -8.17267876e-003 -6.27805525e-003 5.95103763e-003 8.50234646e-003
      -2.15839539e-002 -8.51395819e-003 1.16334707e-002 1.64499953e-002
      -2.05642823e-003 5.57827540e-002 4.20895256e-002 1.37873711e-002
      -1.02470079e-002 -1.03870325e-001 -3.28167086e-003 2.93495897e-002
      5.54401577e-002 4.71387953e-002 5.62486239e-002 8.20429251e-002
      7.26863667e-002 -8.66547972e-003 -2.86498647e-002 4.96147424e-002
      6.08696900e-002 4.07193005e-002 3.91102061e-002 -9.58803296e-003
      8.94383341e-003 1.93434861e-002 4.84104007e-002 -2.45863590e-002
      7.03741191e-003 3.18097249e-002 8.05713143e-003 3.26324278e-003
      2.50224527e-002 4.00094166e-002 1.28697949e-002 -3.03521417e-002
      -4.09260131e-002 -2.55546235e-002 1.23786172e-002 3.65446657e-002
      2.77084894e-002 1.56898070e-002 5.92207834e-002 4.54084575e-002
      -2.34778244e-002 -6.58447072e-002 -3.34671251e-002
      -4.05048393e-003 1.80090982e-002 3.15175243e-002 -7.27163628e-003
      2.69756317e-002 3.79245132e-002 7.21236467e-002 1.90849826e-002
      2.41938396e-003 -1.81961786e-002 -2.19984632e-002 5.87957120e-003
      5.59768965e-003 7.59140356e-003 -2.89062969e-002 -7.41441846e-002
      -3.85403037e-002 1.63290836e-002 4.07326072e-002 3.90519202e-002
      2.46073138e-002 1.19860154e-002 3.02676428e-002 7.58484472e-003
      -1.86562017e-002 -7.42940381e-002 -5.34574641e-003 5.60577177e-002
      3.52811515e-002 2.09012930e-003 -1.51642449e-002 1.51515398e-002
      3.25709884e-003 -1.43241482e-002 6.98572549e-004 -1.95999281e-004
      3.35618816e-002 -1.18439253e-002 -3.11775915e-002 2.80464329e-002
      3.85705195e-002 3.47938128e-002 -1.10714417e-002 -4.84081022e-002
      2.66772844e-002 3.13882492e-002 1.92103125e-002 3.38898078e-002
      2.06874665e-002 5.14378250e-002 3.28206904e-002 4.03733477e-002
      -3.51853073e-002 -3.93974548e-003 8.38711783e-002 6.55084923e-002
      2.89804451e-002 -8.48551840e-003 1.65604241e-002 4.60533276e-002
      8.50595832e-002 5.48891947e-002 4.57473844e-002 5.91884069e-002
      1.04296964e-003 -1.27985803e-002 1.84639934e-002 4.54613231e-002
      3.24444957e-002 -3.17040160e-002 -6.38594031e-002 -6.54267371e-002
      -4.36624959e-002 -3.79833253e-003 1.68163367e-002 1.54296756e-002
      8.95950273e-002 8.35805535e-002 9.27007869e-002 -2.73916218e-002
      -5.86604513e-003 2.97374036e-002 1.39075378e-002 3.02976537e-002
      -2.24967040e-002 2.40680040e-003 4.42703553e-002 8.40927884e-002
      6.71376139e-002 5.22187687e-002 3.47781442e-002 1.33714955e-002
      -4.90463478e-003 -4.59835073e-003 1.04821380e-002 -3.78278568e-002
      -8.62683356e-002 -1.08226404e-001 -3.91238108e-002 2.52708383e-002
      -1.04786933e-003 -1.70044973e-002 -4.77605872e-003 2.02674475e-002
      6.93641463e-003 -2.50180997e-002 2.25133076e-002 3.18113784e-003
      1.33836949e-002 -3.75548154e-002 -3.15263979e-002 -3.47244665e-002
      -3.57166026e-003 -1.62526350e-002 1.47727923e-002 3.91386710e-002
      8.13004281e-003 -9.39490832e-003 -2.85933930e-002 -2.67434791e-002
      6.18890394e-003 5.66415396e-003 -1.88409258e-002 -1.28724929e-002
      -2.13533007e-002 -3.78255732e-002 2.89177578e-002 9.70150717e-003
      1.10630617e-002 -6.48259884e-003 4.99886796e-002 6.08749352e-002
      3.45803797e-002 -1.64755713e-002 3.69295664e-002 7.03199580e-002
      4.02756454e-003 9.32002161e-003 -2.68476494e-002 -8.90839566e-003
      -1.95883829e-002 2.88475361e-002 8.37896317e-002 4.11442816e-002
      2.70676669e-002 -7.84900319e-003 -3.03972736e-002 -1.69322873e-003
      4.06670310e-002 3.71654257e-002 2.24326402e-002 -4.45965119e-002
      -6.12973534e-002 -2.01439043e-003 -9.88888647e-003 1.04858577e-002
      6.36948447e-004 1.87465940e-002 6.13195859e-002 3.69993150e-002
      3.62042524e-003 3.68286073e-002 4.45294902e-002 1.97050925e-002
      6.84351986e-003 -1.92153882e-002 7.48622697e-003 2.13136096e-002
      6.85080364e-002 1.33242771e-001 6.59316257e-002 9.30180680e-003
      -8.16063024e-003 -1.26284091e-002 -1.19304955e-002 8.46752338e-003
      -4.02147416e-003 -4.44232067e-003 4.15833928e-002 2.17770264e-002
      2.03629937e-002 -1.16889821e-002 -1.44570116e-002 -3.31819654e-002
      -1.54129611e-002 -2.36600470e-002 -2.96180528e-002
      -5.97346341e-003 -5.36355898e-002 -1.37317711e-002
      -1.33885266e-002 -1.63183268e-002 -4.56142798e-002
      -3.13850306e-002 -5.45397103e-002 -4.74243946e-002 6.99757738e-003
      -5.14485911e-002 -4.78500165e-002 -9.15884599e-003
      -3.56860124e-002 -3.08232778e-003 2.90579982e-002 3.02601848e-002
      3.88455689e-002 5.58161251e-002 5.60072623e-002 1.13074966e-002
      -2.57255528e-002 -1.57003943e-002 5.42792538e-003 -9.23929084e-003
      1.09266452e-002 4.22361419e-002 3.27862450e-003 1.60622466e-002
      8.10868759e-003 -8.21800530e-003 -1.39222387e-002 -5.88260330e-002
      -5.46360165e-002 -6.36830628e-002 -6.57204986e-002
      -3.64873707e-002 -3.66067514e-002 -1.25073977e-002
      -7.36207375e-003 -6.14025481e-002 -2.20385706e-003 1.55215431e-002
      3.27442810e-002 6.20493367e-002 7.08760992e-002 2.26411838e-002
      -1.76209323e-002 -1.44004701e-002 -2.20867409e-003
      -1.26910983e-002 -5.49338991e-003 2.98871868e-003 4.58955243e-002
      7.21507072e-002 4.65468913e-002 2.14572176e-002 -3.91620118e-003
      -2.03927830e-002 -3.22005488e-002 -2.36309711e-002
      -4.55783643e-002 -3.45019735e-002 3.24933194e-002 3.55249946e-003
      1.11583555e-002 -1.52360694e-002 -3.45598832e-002 -2.68426966e-002
      -1.84865091e-002 -2.02865005e-002 1.04764360e-003 2.51763128e-002
      1.72614418e-002 4.11337335e-003 9.79789440e-003 -8.48554261e-003
      -5.60228489e-002 -3.14348824e-002 -5.71036190e-002
      -3.08940094e-002 1.73267326e-003 -3.84955816e-002 -4.55790758e-002
      1.39694531e-002 -4.48235832e-002 -7.16942549e-003 1.13593787e-002
      -3.75858811e-003 3.05492128e-003 3.59335281e-002 -7.96567202e-002
      -1.52640268e-001 -1.49267949e-002 -1.78025067e-002
      -2.06900928e-002 -3.28943729e-002 -3.17829885e-002 1.87655091e-002
      3.35060321e-002 4.77330610e-002 3.76833156e-002 3.84637341e-002
      -1.06592420e-002 -8.29306915e-002 -6.21378310e-002
      -6.06117509e-002 -4.93466295e-002 -1.73894167e-002 6.47743344e-002
      2.06168965e-002 1.31428894e-002 -5.75894788e-002 -9.53793749e-002
      -4.76507060e-002 -6.76340610e-002 -1.83996875e-002 9.66618117e-003
      -2.94465255e-002 -9.60741043e-002 -1.08044498e-001
      -9.92263556e-002 -2.15261485e-002 -9.59859509e-003
      -8.70752521e-003 5.92655577e-002 9.86628905e-002 7.95914903e-002
      3.31849381e-002 7.18806917e-003 -2.00334936e-002 -5.69737181e-002
      -4.75555547e-002 -7.14322329e-002 -1.27345901e-002 6.21086359e-002
      -3.97081906e-003 3.78232114e-002 -8.48629512e-004 -5.28037287e-002
      -4.55080904e-002 -3.06508448e-002 -5.70592806e-002
      -3.51468287e-002 8.14574957e-002 9.59770456e-002 2.97521371e-002
      -3.08929533e-002 -5.70098162e-002 1.24319047e-002 1.11927241e-002
      -1.28712021e-002 1.53247621e-002 1.49768451e-003 9.37154889e-003
      2.99437214e-002 3.82899866e-002 2.15040892e-002 2.07491759e-002
      4.72006723e-002 1.73892993e-002 1.18997544e-002 -2.34637223e-002
      -4.06126631e-003 6.82202578e-002 6.45027757e-002 1.26989204e-002
      -1.37310708e-002 -3.20776063e-003 9.94621497e-003 -1.48846465e-003
      -3.97241227e-002 -4.10146452e-002 2.47296747e-002 2.69294586e-002
      2.57177767e-003 -2.87423329e-003 4.30419296e-003 3.83634213e-003
      5.06001748e-002 9.39724967e-002 4.73885685e-002 1.21033587e-003
      1.46518536e-002 1.28414249e-003 -8.63237493e-003 4.41536941e-002
      5.31275582e-004 3.20077762e-002 1.25171803e-003 5.88733330e-002
      6.41510338e-002 2.59259827e-002 -2.67470665e-002 -3.38449962e-002
      -1.48779694e-002 -1.67450178e-002 -4.33767177e-002
      -9.44057480e-003 -1.97856165e-002 3.77890132e-002 2.88557503e-002
      -2.21419260e-002 -1.71761885e-002 -3.80815531e-004
      -3.47579294e-003 -2.14439188e-003 1.38352849e-002 4.56869490e-002
      -6.90959301e-003 -1.65454280e-002 -2.42097098e-002
      -4.33233567e-002 -7.54878158e-003 -2.88814232e-002
      -3.12826633e-002 3.89505588e-002 4.02143933e-002 3.43728587e-002
      -6.49228692e-003 -4.32364382e-002 -4.28592302e-002
      -3.16088386e-002 -3.02502643e-002 -2.83231400e-002
      -2.01303922e-002 -5.11239655e-002 -8.39451852e-004 1.09493313e-003
      -3.03060263e-002 1.15195643e-002 2.36621816e-002 -4.44445154e-003
      2.99861841e-003 6.59003621e-003 -2.64796522e-002 4.05604541e-002
      3.94480601e-002 1.60407536e-002 -1.09586651e-002 -9.68212448e-003
      2.63736844e-002 1.73747297e-002 9.46840388e-004 -9.19947959e-003
      4.68657464e-002 2.77197678e-002 -4.97236568e-003 -1.49490740e-002
      -1.32384999e-002 -1.41182970e-002 -3.21639106e-002
      -5.40653095e-002 -2.08519250e-002 9.90288984e-003 -8.47159233e-003
      -2.07603611e-002 1.84826963e-002 4.90816124e-002 1.52728586e-002
      5.55140339e-003 1.61414500e-002 1.83885712e-002 3.17657851e-002
      2.17541791e-002 4.25330782e-003 -3.37472744e-002 -5.35359904e-002
      -8.28001241e-004 2.22530682e-002 3.22910435e-002 2.97072046e-002
      1.00645356e-001 4.68869060e-002 -3.46921608e-002 -3.33135761e-002
      -1.61387213e-002 -1.21500036e-002 -7.73884496e-003
      -4.26402176e-003 -8.53776373e-003 2.66287737e-002 5.80943096e-003
      -3.12285107e-002 -2.24497821e-003 -5.99855650e-003
      -7.03838933e-003 -2.45725783e-003 5.93980402e-003 4.02688608e-003
      3.62854861e-002 1.94769893e-002 6.68822962e-004 -6.48892894e-002
      -5.14946170e-002 -3.56804915e-002 -7.55163701e-003 1.97283234e-002
      -8.08053091e-003 1.79049615e-002 1.71681438e-002 -3.58459204e-002
      -3.95732746e-002 -2.26693414e-002 -1.59925967e-002
      -3.38034108e-002 1.08151818e-002 -1.97057072e-002 -7.77945243e-005
      1.05350455e-002 -2.39284113e-002 -2.65011098e-003 -1.31815404e-003
      3.11123822e-002 3.70025672e-002 -2.73218174e-002 -1.43441735e-002
      1.89007651e-002 2.72778179e-002 8.12718365e-003 6.74110744e-003
      7.07593141e-003 1.55209145e-002 4.87495726e-003 1.84627660e-002
      -1.61050186e-002 -8.83127004e-003 -3.79404724e-002
      -2.33082771e-002 -3.21376743e-003 1.15947900e-002 -1.43646691e-002
      -1.81989651e-002 1.61509160e-002 1.93393286e-002 -3.39981429e-002
      -4.71323952e-002 -2.25908123e-002 -1.29960431e-002
      -1.12717897e-002 1.90075394e-002 6.94056088e-003 1.91139374e-002
      6.02285028e-004 6.68025166e-002 4.65009585e-002 2.31970986e-003
      -2.22861469e-002 2.98892241e-003 1.02970086e-003 7.35945208e-003
      7.16679171e-002 8.51074234e-003 1.13790436e-002 -1.71020124e-002
      -4.05954681e-002 -4.01233882e-002 -3.47799547e-002
      -7.82974437e-002 -6.62641879e-003 3.38109545e-002 8.45812261e-004
      -7.13500902e-002 -7.45265186e-002 -4.25911397e-002
      -2.39667147e-002 -3.42392991e-003 -2.10797391e-003
      -1.38414744e-003 2.51560900e-002 -1.12853516e-002 -8.81890126e-004
      8.11124872e-003 -1.82315707e-002 -3.61496694e-002 -1.17905149e-002
      -7.34070316e-003 6.16790866e-003 6.49738908e-002 -2.01792084e-002
      3.00359931e-002 3.54990587e-002 -1.51227275e-002 -3.89335752e-002
      -1.98742207e-002 -2.97628660e-002 -7.02324416e-003
      -1.90782659e-002 -5.55550568e-002 -3.07318792e-002
      -3.06034740e-002 -3.34522612e-002 2.51681749e-002 2.21503247e-002
      1.45886187e-002 1.62320007e-002 4.05227952e-003 3.10671646e-002
      1.72858406e-002 -5.34758531e-003 5.98231843e-003 2.87016239e-002
      4.98165227e-002 1.34557253e-003 -1.69418417e-002 4.21234546e-003
      1.38176270e-002 -2.55015306e-002 -2.81814914e-002 2.43295566e-003
      -9.53101180e-003 1.93411540e-002 -1.11587914e-002 -1.02486592e-002
      -3.26548726e-003 -9.80760530e-003 -5.10933623e-002
      -3.15268077e-002 -2.15049218e-002 3.62576619e-002 4.38571535e-002
      6.50595175e-004 4.25682124e-003 3.40480804e-002 2.34075598e-002
      3.14988010e-002 1.25175389e-002 2.02665515e-002 -3.13988253e-002
      4.42579342e-003 -2.73399502e-002 3.42961811e-002 3.40679586e-002
      2.01921687e-002 -3.63111757e-002 -5.29882610e-002 -3.37968208e-002
      -4.28019054e-002 2.96901893e-002 2.67861653e-002 6.31883694e-003
      -5.21848872e-002 -4.26957384e-002 -4.09356020e-002
      -2.00114679e-002 -4.84430231e-002 1.35006066e-002 2.09321603e-002
      -6.69054105e-004 -7.23362714e-003 1.38970055e-002 7.09040370e-003
      2.08873488e-002 3.59263979e-002 1.88906342e-002 -3.34303342e-002
      -5.49055752e-004 1.44903213e-002 3.59620079e-002 -2.11101510e-002
      -8.30631107e-002 -2.58682817e-002 -3.98967192e-002
      -4.13233936e-002 -3.34920622e-002 -1.47144645e-002
      -1.29129388e-003 -5.55465417e-003 -1.01044932e-002
      -2.85994932e-002 -3.52791026e-002 -2.02595741e-002
      -3.84777412e-002 4.31252606e-002 5.31637818e-002 -5.64499246e-003
      -1.50710698e-002 -3.82149965e-002 -1.31974565e-002
      -4.19360353e-003 2.00854484e-002 3.55361030e-002 4.58278470e-002
      5.19696102e-002 3.01729832e-002 -2.88962014e-002 -4.64136265e-002
      -2.61298777e-003 2.59621721e-003 3.53777446e-002 2.85670813e-002
      2.22594850e-002 2.21726764e-002 6.46136608e-003 4.78249276e-003
      2.32666801e-003 6.56303763e-003 5.00867667e-004 1.28790056e-002
      2.86358800e-002 2.96646617e-002 5.68625852e-002 1.74799724e-003
      3.43913808e-002 -7.09864823e-003 -4.04523760e-002 -2.06625462e-002
      2.47700363e-002 3.30277644e-002 1.22011267e-002 5.75585365e-002
      3.05074863e-002 -2.53716949e-002 -4.70286757e-002 2.35653035e-002
      4.42180969e-002 5.19190021e-002 1.06316637e-002 1.99673086e-004
      4.13205065e-002 2.08941065e-002 -2.93768104e-003 -4.24007289e-002
      -1.18328864e-003 1.88534409e-002 3.49054784e-002 1.35448975e-002
      8.09499808e-003 2.06373539e-002 8.09452217e-003 -4.67345864e-003
      -4.50234972e-002 -6.11730553e-002 -2.48460216e-003 7.64084933e-003
      9.84768965e-004 7.78717501e-003 2.63687819e-002 2.46835239e-002
      -1.80034917e-002 -6.23382814e-002 -2.12499537e-002 9.36529879e-003
      1.18959742e-002 -2.63260026e-003 -2.68130992e-002 6.45060884e-003
      -4.55933763e-003 -1.93321388e-002 -2.45610327e-002
      -1.57398824e-002 -3.16022262e-002 -6.13228092e-003
      -1.93736907e-002 4.51015569e-002 2.54476573e-002 -1.68738291e-002
      -4.79441322e-002 -3.80307212e-002 3.65640782e-002 4.97164801e-002
      5.26790582e-002 4.76456620e-002 5.62580489e-002 5.01730330e-002
      2.98968870e-002 -4.68351208e-002 -5.77568635e-002 3.08629684e-002
      2.91747581e-002 3.90274823e-002 6.33736476e-002 4.57468536e-003
      1.00632226e-002 1.82329095e-003 3.66568789e-002 2.28340942e-002
      2.57443748e-002 1.88488644e-002 1.21335648e-002 1.69822853e-002
      2.35807765e-002 4.84880470e-002 6.61080377e-003 -1.08350217e-002
      -7.79388770e-002 5.85439010e-003 5.72416894e-002 6.95255846e-002
      4.45675477e-002 3.31534557e-002 8.90915617e-002 5.13742864e-002
      -2.89891213e-002 -4.69471589e-002 1.14044985e-002 9.51671302e-002
      9.94196758e-002 7.47956485e-002 -2.29973625e-003 6.21731691e-002
      6.30386770e-002 5.86421788e-002 3.20446491e-002 3.60049345e-002
      2.40668859e-002 1.61480941e-002 2.27740705e-002 1.63679328e-002
      3.93648557e-002 1.99672617e-002 -2.13889349e-002 -6.48196638e-002
      3.10097192e-003 1.61061436e-002 3.18720266e-002 2.11400539e-002
      1.65915955e-002 5.55832684e-002 4.66382951e-002 -1.58530176e-002
      -6.91993162e-002 -3.95849301e-003 -1.10431034e-002 4.68138084e-002
      1.15359472e-002 -1.43240634e-002 2.03653537e-002 5.01896180e-002
      3.06315478e-002 6.52089417e-002 3.14873084e-002 -8.67259782e-003
      2.00508535e-003 -2.09104307e-002 1.47796646e-002 2.63338117e-003
      -3.41863409e-002 -1.01429522e-001 -9.98771563e-002
      -2.84185237e-003 3.24575342e-002 3.35389972e-002 4.32258137e-002
      1.13305608e-002 8.84728879e-003 -7.02668028e-003 5.12446556e-003
      -8.85717664e-003 7.49646034e-003 6.77816570e-002 4.55193184e-002
      3.45761664e-002 -2.06249189e-002 -4.98860609e-004 7.86337256e-003
      4.26504500e-002 4.21799570e-002 3.49383205e-002 3.53928320e-002
      -2.13769963e-003 -1.64392628e-002 2.04147100e-002 5.01662306e-002
      -1.03579485e-003 -4.47467603e-002 -4.17840146e-002
      -6.08108751e-002 -8.41750018e-003 5.40302694e-002 5.53903319e-002
      3.86771448e-002 1.06998570e-001 9.11649168e-002 1.77119095e-002
      -3.41049545e-002 2.21387129e-002 8.68737847e-002 7.03833327e-002
      4.58169468e-002 -1.91041697e-002 1.48577690e-002 5.48842512e-002
      8.45163763e-002 3.54859009e-002 7.38877580e-002 7.27706477e-002
      4.34892178e-002 -9.47366178e-004 2.51675155e-002 4.29949611e-002
      1.49025731e-002 -6.54422268e-002 -7.16155916e-002 -6.67319819e-002
      -3.69423591e-002 3.81913260e-002 2.83022132e-002 -2.22019575e-004
      6.85107112e-002 8.85019451e-002 1.00095905e-002 -2.91314181e-002
      7.35824108e-002 3.31817381e-002 4.98524681e-002 1.29949240e-005
      8.43556691e-003 4.86322343e-002 4.63643521e-002 5.48441149e-002
      3.91682126e-002 1.06516844e-002 2.13126205e-002 7.52718933e-003
      -1.29545471e-002 1.22225769e-002 -5.51954191e-003 -4.05202173e-002
      -5.41908629e-002 -7.40656704e-002 -2.66517866e-002 2.77545676e-002
      2.43939720e-002 2.59122290e-002 -3.92018855e-002 -1.30025120e-002
      -1.36840958e-002 -4.32747789e-003 -7.88460486e-003 1.54611897e-002
      2.20170431e-002 -1.15709053e-003 -2.47116368e-002 -3.23302448e-002
      -1.39952740e-002 -2.21486408e-002 5.87227987e-003 6.48084953e-002
      2.57312357e-002 5.39006339e-003 -2.02519204e-002 -3.77743654e-002
      -5.95826097e-003 3.07150818e-002 4.15842282e-003 -4.33726907e-002
      -5.29590100e-002 -6.68257922e-002 2.13493370e-002 1.05765183e-002
      1.54542755e-002 3.06034423e-002 4.50283326e-002 5.95199391e-002
      7.41347671e-003 -4.99672033e-002 8.32811929e-003 8.16905126e-002
      4.73940149e-002 1.66124906e-002 -1.17189018e-002 5.69272414e-003
      1.08448314e-002 6.02114983e-002 7.48417452e-002 4.50984836e-002
      -3.93086020e-003 -7.99056236e-003 -1.20078865e-002
      -7.99790141e-004 2.87100784e-002 3.19313556e-002 -2.01498773e-002
      -7.89230838e-002 -7.44840577e-002 -2.61959117e-002
      -2.92987516e-003 -5.00092003e-003 5.04424199e-002 9.87456366e-002
      3.91997360e-002 -1.11590875e-002 -5.56844175e-002 -1.81154292e-002
      9.46347136e-003 1.29688876e-002 2.63001900e-002 2.05666348e-002
      2.87557002e-002 8.71468976e-004 4.96243238e-002 1.10359147e-001
      4.69545349e-002 -1.94319878e-002 -9.62178409e-003 3.08970106e-003
      -1.11658815e-002 1.09259249e-003 -7.48383114e-003 9.02158674e-003
      2.77088508e-002 3.34997661e-002 1.80232786e-002 -1.07328696e-002
      -1.90676674e-002 -3.66818868e-002 -3.38234678e-002
      -4.20699455e-002 -1.52791133e-002 4.46635149e-002 -4.09673061e-003
      -1.13915112e-002 -9.16232821e-003 -3.62552330e-002
      -4.18231823e-002 -3.39295305e-002 -3.59837189e-002
      -3.28242257e-002 -1.82664674e-002 -7.46911690e-002
      -4.83821072e-002 -2.86826957e-002 -4.76058051e-002 2.86521520e-002
      2.83734854e-002 1.42596364e-002 1.63197499e-002 4.97021014e-003
      9.97888297e-003 -1.64753236e-002 -3.89118446e-003 9.50056128e-003
      -9.30428132e-003 -2.18365546e-002 1.40722767e-002 5.31487986e-002
      3.32824886e-002 3.42531428e-002 1.55596565e-002 -1.09266378e-002
      -2.78486758e-002 -4.20652777e-002 -3.68713476e-002
      -5.94643131e-002 -3.48430313e-002 -8.89899116e-003
      -7.00196028e-002 -4.40357924e-002 -6.82534650e-002
      -6.59374073e-002 3.97842228e-002 5.10755852e-002 2.38339696e-002
      5.89971524e-003 5.09159453e-003 -2.25104950e-002 -4.09294590e-002
      -7.60011189e-003 1.93519890e-002 6.96422858e-003 1.34015521e-002
      -3.49297151e-002 4.64003831e-002 6.32975250e-002 3.96138169e-002
      -8.17330554e-003 -2.61911489e-002 -1.95108191e-003
      -3.12562175e-002 -3.05646025e-002 -4.82098721e-002
      -3.28230262e-002 9.21556540e-003 -4.51428397e-003 -1.98919941e-002
      -2.70693675e-002 -2.92333439e-002 -1.77221205e-002
      -2.42575295e-002 -1.66511945e-002 2.33095679e-002 6.11648746e-002
      2.72085760e-002 1.63571183e-002 7.67493993e-003 -1.61373541e-002
      -5.75613789e-002 -3.69597189e-002 -5.06507270e-002
      -2.89970916e-002 6.38775574e-003 -1.78674832e-002 -5.36678312e-003
      -6.03272626e-003 -5.00838645e-002 -4.00430337e-002
      -9.52345412e-003 -2.17727851e-002 5.79427229e-003 4.76934314e-002
      -4.61332165e-002 -9.91356894e-002 -7.21888840e-002
      -5.68036921e-002 -2.51677092e-002 -8.55413545e-003
      -2.10563410e-002 4.85075451e-002 7.72180855e-002 6.49895817e-002
      2.79026665e-002 -1.01235360e-002 -2.18058471e-002 -5.52319996e-002
      -4.94594648e-002 -1.34188086e-002 2.70500453e-003 2.55559981e-002
      2.51139812e-002 -1.68658160e-002 -4.45680283e-002 -8.58812109e-002
      -8.13844055e-002 -2.54212879e-002 -5.29957004e-002
      -1.78598445e-002 1.13233738e-002 -1.12513592e-002 -4.41935323e-002
      -8.00837949e-002 -1.04380466e-001 -1.94665398e-002
      -4.39879810e-003 -5.37171820e-003 7.77108893e-002 1.09218113e-001
      6.78139850e-002 3.64409084e-003 -1.80072617e-002 -1.32557722e-002
      -5.62355928e-002 -1.81437265e-002 -4.21174243e-002 1.03563555e-002
      -2.64731627e-002 -6.95108995e-003 -4.62195016e-002
      -5.61808087e-002 -6.54522851e-002 -5.92613369e-002
      -1.66340414e-002 -5.64685129e-002 1.25728687e-002 1.06125958e-001
      4.67216708e-002 -4.02228273e-002 -3.71900611e-002 -5.78353442e-002
      6.62672613e-003 1.54394200e-002 9.03376320e-004 2.29445361e-002
      3.67752574e-002 2.61705630e-002 -6.64178655e-003 4.36429260e-003
      8.01628176e-003 1.11441417e-002 2.95820702e-002 -7.87960086e-003
      -8.82194936e-003 2.47851368e-002 6.86088353e-002 4.00882140e-002
      1.31140305e-002 2.89243064e-003 -7.85788894e-003 8.94452631e-003
      -9.87037551e-003 -1.50525905e-002 -1.38240745e-002
      -1.09386109e-002 2.74184253e-002 2.20123418e-002 -1.00974168e-004
      -1.72956642e-002 4.80640680e-003 1.90462321e-002 3.21063660e-002
      6.81138113e-002 1.07435593e-002 5.39622689e-003 -3.56445946e-002
      -3.26402895e-002 -3.85983177e-002 8.78728274e-003 2.38385126e-002
      2.03810576e-002 4.45060097e-002 5.14854938e-002 6.22266307e-002
      -6.64171949e-003 -2.06937082e-002 -6.81375340e-002
      -3.54878753e-002 -2.10444201e-002 -3.31326108e-003 2.61280965e-002
      -5.28257713e-003 3.12706688e-003 6.76477328e-003 -3.77287418e-002
      -9.74496547e-003 1.08291386e-002 1.87191032e-002 7.30729429e-003
      1.09424340e-002 3.15709375e-002 -4.11322527e-002 -5.05883954e-002
      -2.31340975e-002 -1.40728178e-002 1.36976759e-003 2.51935218e-002
      2.80427635e-002 4.61824331e-003 4.51019779e-002 -6.87114242e-003
      -3.83170061e-002 -2.00449824e-002 -2.09541172e-002
      -3.09604662e-003 -7.26588489e-003 -1.91281121e-002
      -1.42519064e-002 -9.34879668e-003 1.28605627e-002 4.37352527e-003
      -1.62245650e-002 1.42608676e-002 2.32222471e-002 -4.20173164e-003
      -1.68162864e-002 1.08349388e-002 1.17865978e-002 2.38543041e-002
      8.29586573e-003 9.14420653e-003 -2.29953788e-002 -3.58407036e-003
      -1.22496467e-002 -4.50233975e-003 3.09359264e-002 9.12733562e-003
      7.07244202e-002 3.14041860e-002 -1.67424697e-002 -9.69984976e-004
      1.53404986e-002 5.35794185e-004 -3.43613103e-002 -9.22984723e-003
      3.14377435e-002 2.29588747e-002 2.11416893e-002 2.92074343e-004
      -7.87141081e-003 -5.60203847e-003 -4.59972024e-003 6.61074941e-004
      2.76867989e-002 2.11266670e-002 6.35371879e-002 2.95705181e-002
      -6.17337739e-003 -8.02464634e-002 -4.85716052e-002
      -4.75630946e-002 -3.36611900e-003 4.55498658e-002 2.58903485e-002
      3.20207998e-002 3.63187306e-003 -4.84782048e-002 -6.03010207e-002
      -1.60654262e-002 9.72971693e-003 -1.17540639e-002 2.50325352e-002
      -5.02316765e-002 1.66084021e-002 3.44142597e-003 -3.16513628e-002
      -4.63548861e-003 1.76439877e-003 -3.68720782e-003 1.43117616e-002
      -2.80416273e-002 2.18563564e-002 3.38309221e-002 1.63026862e-002
      1.85518409e-003 -3.13710459e-002 -1.70205645e-002 -1.59620401e-002
      -2.65066773e-002 -1.64540336e-002 -5.60203707e-003 2.47706510e-002
      1.39240669e-002 -1.92268100e-002 -3.07859182e-002 -2.87535088e-003
      -1.64655056e-002 1.33864116e-002 -5.32275392e-003 -4.10155579e-003
      -1.58981141e-002 -8.30743089e-003 -1.73317846e-002
      -4.01306385e-003 -1.22116972e-003 -3.54129402e-003 4.77718888e-003
      -3.03282565e-003 -5.78660890e-003 2.48216782e-002 2.02916171e-002
      2.39450624e-003 1.33865075e-002 2.87511162e-002 -4.22708777e-004
      -6.61718845e-003 2.10573021e-002 -4.27193940e-003 3.28425551e-003
      2.11591087e-002 7.03518884e-003 -5.67219360e-003 4.17837757e-004
      -4.07417119e-002 -2.68984884e-002 -9.39754397e-003
      -4.53534201e-002 -6.00583516e-002 -3.05193774e-002
      -1.80566274e-002 -4.27109264e-002 -1.71647146e-002
      -6.97377464e-003 -2.49832310e-003 4.33714241e-002 -1.87757593e-002
      7.49448081e-003 1.59152281e-002 -2.15809681e-002 -7.35566095e-002
      -1.95691362e-002 1.86008923e-002 1.89548433e-002 8.62420872e-002
      -1.87113117e-002 1.34949768e-002 1.78679116e-002 -3.11668646e-002
      -7.05162510e-002 -1.14144599e-002 9.43927560e-003 1.33584579e-002
      -2.92261634e-002 -6.03347011e-002 -3.99648920e-002
      -4.06624079e-002 -7.85954818e-002 -1.05646364e-002
      -4.89791157e-003 -1.14566348e-002 -1.68792717e-002
      -5.37479483e-003 -6.05569175e-003 2.35559065e-002 1.35325519e-002
      -1.12866145e-002 -3.01389117e-002 1.23519008e-003 -2.10618488e-002
      1.58485398e-002 1.15822926e-002 1.08066564e-002 1.04288757e-002
      1.44472616e-002 -7.04215746e-003 -2.51025632e-002 -2.10027564e-002
      -3.82340699e-002 -1.26506630e-002 -3.27253621e-003
      -1.70948673e-002 -2.77840532e-002 -1.42301470e-002
      -2.79462915e-002 2.75804065e-002 3.27643976e-002 -4.84905578e-003
      8.61864537e-003 -1.12454118e-002 4.59365128e-003 1.49445015e-003
      2.06395872e-002 2.28029210e-002 -1.20980823e-002 3.02052181e-002
      -2.40852926e-002 -2.71860585e-002 -1.12902923e-002
      -6.72228411e-002 -4.68674041e-002 -2.84233820e-002
      -3.09973061e-002 -2.90001128e-002 1.06817642e-002 3.51014128e-003
      -1.14863543e-002 -2.11134963e-002 -3.67629342e-002
      -2.20063217e-002 -1.73008516e-002 -3.92622277e-002
      -4.33181092e-004 2.97133774e-002 2.89066657e-002 2.17292793e-002
      3.40227559e-002 -1.44550633e-002 3.39069553e-002 5.58226779e-002
      2.18713265e-002 -8.10370147e-002 2.08464600e-002 2.93390825e-002
      6.72760680e-002 1.86331589e-002 -7.51528703e-003 -3.70453671e-002
      -4.22895886e-002 -9.06060189e-002 -3.17949429e-002
      -1.52168535e-002 -1.39501062e-003 -2.88859271e-002
      -4.30799127e-002 -1.53499413e-002 -4.03249487e-002
      -5.29281013e-002 -4.95947935e-002 1.23143597e-002 2.79020779e-002
      5.55239990e-003 1.59404930e-002 3.76963839e-002 3.54767479e-002
      1.88089777e-002 2.93783005e-002 2.07127240e-002 -1.52036557e-002
      -3.44963069e-003 7.44939269e-003 2.83235777e-002 -3.06672510e-002
      -5.37398132e-003 -8.80262000e-004 1.16006529e-003 -1.70481987e-002
      -3.31578180e-002 -3.26453522e-002 -2.82086488e-002
      -3.05413939e-002 -2.29590144e-002 1.75733082e-002 -1.03989225e-002
      -1.82647500e-002 -2.96570417e-002 8.36092513e-003 1.97633337e-002
      -6.66715531e-003 -2.70223804e-002 -6.02047071e-002
      -2.52522100e-002 9.79078934e-003 1.42462514e-002 5.23598958e-003
      -1.71089821e-004 4.92937043e-002 1.50825670e-002 -4.08062749e-002
      -4.65836488e-002 -2.78229751e-002 3.54562514e-002 3.62760536e-002
      4.37676487e-003 -1.01152137e-002 1.98163390e-002 5.75809227e-003
      -1.41174961e-002 -3.70358787e-002 -1.89283621e-002 3.23259481e-003
      2.02043969e-002 7.07582524e-003 -6.57680677e-004 3.17338891e-002
      3.19705717e-002 5.22124507e-002 -2.13331189e-002 -3.07416022e-002
      1.05281186e-003 9.13665816e-003 -1.25496015e-002 2.22916249e-002
      4.40460965e-002 1.17210411e-002 -1.00724231e-002 -7.29700411e-003
      3.36863250e-002 3.92466858e-002 7.46121490e-003 5.17754070e-003
      -2.00100485e-002 2.63139494e-002 1.87383480e-002 1.53764011e-002
      -3.36495340e-002 4.90740389e-002 -3.68215796e-003 6.26005000e-003
      -2.98852380e-002 8.91196728e-003 6.36419235e-003 1.43378451e-002
      7.04305759e-003 -3.44566181e-002 -1.56937249e-003 1.25750527e-002
      1.60908531e-002 1.22898975e-002 -6.05906500e-003 5.44404890e-003
      9.64295934e-004 6.57266472e-003 -3.00603230e-002 3.27151455e-002
      1.13206264e-002 2.27487013e-002 3.23340949e-003 -1.38756968e-002
      -5.10942377e-003 -1.68779753e-002 -1.34163466e-003
      -4.80120350e-003 -1.90041829e-002 -4.06420752e-002 1.76285263e-002
      -8.56545288e-003 9.29740723e-003 2.02450231e-002 -6.87708426e-003
      -4.92698550e-002 -6.34162873e-002 -3.37744132e-003 3.87994312e-002
      3.92299928e-002 2.45092716e-002 1.30759524e-002 5.05677238e-002
      2.10516807e-002 -4.41149548e-002 -7.22613707e-002 -2.24634130e-002
      2.44327169e-002 7.34932125e-002 4.42459546e-002 -3.30574391e-003
      2.77690478e-002 2.80915685e-002 2.14164034e-002 5.55342995e-002
      6.16062805e-002 1.68740377e-002 1.68323684e-002 6.68484066e-003
      3.41086686e-002 4.12045047e-002 8.08673631e-003 -4.61456291e-002
      -5.53279780e-002 2.37807874e-002 3.68140303e-002 3.18889543e-002
      2.64240094e-002 5.14982156e-002 6.01743832e-002 3.54018882e-002
      2.02705581e-002 -6.17566332e-002 7.32989386e-002 6.82003647e-002
      8.44514072e-002 3.54708880e-002 -1.56321246e-002 3.39398868e-002
      5.92455417e-002 4.62504663e-002 4.81718108e-002 7.66933337e-002
      1.07835382e-002 3.18126157e-002 -1.24537805e-002 2.77076624e-002
      3.71589549e-002 1.05853295e-002 -2.69684079e-003 -3.15103941e-002
      1.33347977e-002 3.00497562e-003 4.33038175e-002 3.50722224e-002
      4.49815299e-003 2.13622935e-002 -5.12051815e-003 -2.51462087e-002
      -5.34159876e-002 -3.73499505e-002 -1.49235409e-002 5.80019243e-002
      2.98920870e-002 -1.27460854e-002 7.97665492e-003 2.46671997e-002
      3.11676357e-002 3.79123725e-002 -2.00406052e-002 -3.10434829e-002
      -6.56012120e-003 -1.57772601e-002 1.49403382e-002 2.13553309e-002
      -2.21554041e-002 -9.00135115e-002 -8.57321024e-002
      -3.24867330e-002 1.71419084e-002 5.21263145e-002 4.09501456e-002
      1.24437371e-002 5.44310771e-002 4.38177846e-002 -3.35884537e-003
      7.71546504e-004 5.42335398e-002 7.69021362e-002 4.94865924e-002
      2.28826348e-002 -1.68058649e-002 1.00464560e-002 1.22016268e-002
      3.34755629e-002 3.58346812e-002 6.12210631e-002 5.67673743e-002
      2.55323704e-002 -1.20910965e-002 4.59280983e-002 3.99648510e-002
      -5.32979565e-003 -4.41982187e-002 -4.05799896e-002
      -2.20199581e-002 -2.08390169e-002 7.19586089e-002 4.90322448e-002
      -1.45205455e-002 6.65661395e-002 6.08830936e-002 -5.55505464e-003
      -4.91112359e-002 1.10938840e-001 7.80574903e-002 1.15499929e-001
      1.33227743e-002 1.24304695e-002 5.36344796e-002 4.04175408e-002
      6.98949099e-002 2.02132133e-003 5.23999892e-002 6.38429075e-002
      4.02934365e-002 6.60078076e-005 2.13884413e-002 1.41721983e-002
      1.59889665e-002 -3.93659472e-002 -6.79594800e-002 -8.55896249e-002
      -3.50035951e-002 3.29971276e-002 2.90912762e-002 1.67388301e-002
      4.08526473e-002 3.62302698e-002 5.21384506e-003 -5.52250557e-002
      -1.59713663e-002 8.10914789e-004 2.90526021e-002 2.26098439e-003
      -4.24949685e-003 1.01882853e-002 2.47935280e-002 4.48433124e-002
      5.13068624e-002 2.49740519e-002 -1.46840541e-002 -3.72504443e-002
      -3.20460349e-002 -7.14877155e-003 1.50023494e-002 -1.69765819e-002
      -5.50619476e-002 -6.22278228e-002 -1.89633816e-002 4.31085117e-002
      2.59696990e-002 3.83801456e-003 2.31807418e-002 3.82264331e-002
      1.67859124e-003 6.37261104e-003 -1.60345063e-002 2.35403739e-002
      5.06655760e-002 4.50839810e-002 2.86847278e-002 1.79181807e-003
      1.49489725e-002 -3.89407575e-003 4.63739745e-002 9.50457379e-002
      5.10598868e-002 1.29988706e-002 6.60045678e-003 9.48628131e-003
      -3.48610501e-003 1.76862683e-002 8.66901595e-003 -3.69584896e-002
      -7.83070177e-002 -1.74114313e-002 -9.48505942e-004 3.88238505e-002
      -2.68887891e-003 3.18315849e-002 1.03435352e-001 4.55164388e-002
      -7.35990331e-003 -9.30619985e-002 -5.24655497e-003 5.31431474e-002
      5.84364720e-002 1.98468082e-002 3.63209425e-003 9.44396853e-003
      -2.20836401e-002 4.62865569e-002 1.00866504e-001 7.50991851e-002
      6.02957234e-003 4.53166012e-003 6.60846289e-003 -5.77203790e-003
      2.27110051e-002 1.72012183e-003 -4.11733538e-002 -7.10665435e-002
      -9.05596614e-002 -4.89488505e-002 -1.25668393e-002
      -1.34845832e-002 2.27207020e-002 4.05788422e-002 4.30418327e-002
      2.76072969e-004 -4.67109121e-002 2.78806295e-002 -3.88742425e-002
      -5.58611564e-002 -2.53023934e-002 -1.56954080e-002
      -8.44674744e-003 -1.13843484e-002 4.63412665e-002 7.73928985e-002
      4.26528640e-002 -2.60818154e-002 -2.71614380e-002 -2.13696975e-002
      2.24846303e-002 1.83865726e-002 1.31491909e-003 8.47732369e-003
      2.39261072e-002 3.82982530e-002 2.19003186e-002 2.16825921e-002
      2.13125162e-002 1.78898964e-002 1.81339514e-002 -1.46032600e-002
      4.50836718e-002 8.53878260e-002 6.56892210e-002 2.51534563e-002
      1.48496674e-002 2.04690285e-002 -1.01480251e-002 2.94181076e-003
      -1.23772416e-002 1.86622236e-003 9.40810051e-003 -5.67438900e-002
      -4.35590036e-002 -3.70736830e-002 -2.90543083e-002 4.43756804e-002
      5.90163320e-002 1.36226192e-002 2.47540534e-003 -1.89551003e-002
      7.31092924e-003 -1.28132279e-003 2.54289471e-002 3.66186537e-002
      2.67370342e-004 1.40634514e-002 -1.34695759e-002 6.75937757e-002
      1.31039955e-002 5.78769185e-002 2.19745878e-002 9.90609266e-003
      -1.54668279e-002 -5.18322326e-002 -3.45776901e-002
      -4.00625803e-002 -1.25808863e-003 -4.34479006e-002
      -5.15751466e-002 -5.14627509e-002 -4.06427085e-002
      -4.03376445e-002 1.32462280e-002 1.45041747e-002 3.00187729e-002
      -4.77843639e-003 2.78738653e-003 -4.71074134e-003 -4.06207517e-002
      -4.37422954e-002 -1.38838673e-002 -2.61180550e-002
      -8.60104244e-003 -2.89671253e-002 2.35273261e-002 1.16811711e-002
      1.36571042e-002 -3.19746025e-002 -2.69409753e-002 -1.97749045e-002
      -4.22724783e-002 -2.87841801e-002 -5.14327399e-002
      -4.67722788e-002 -3.34038809e-002 -2.62378789e-002
      -1.69723630e-002 -1.03924135e-002 -2.23958325e-002 1.03626633e-003
      9.99830011e-003 8.40143673e-003 7.61394203e-002 9.89407972e-002
      6.75248280e-002 1.39547661e-002 -2.47701490e-003 3.51478695e-003
      -1.00837834e-002 1.01335710e-002 2.71619949e-002 3.92371118e-002
      3.31728011e-002 -3.35493237e-002 -4.14868630e-002 -5.34632392e-002
      -5.08940667e-002 -2.84095630e-002 6.63044350e-003 1.56101631e-002
      4.54446785e-002 8.21032673e-002 -1.71114295e-003 -5.59942946e-002
      -4.35699560e-002 -5.45380600e-002 -3.01338639e-002 3.72299785e-003
      1.02523202e-002 9.81060937e-002 1.07901938e-001 4.55708951e-002
      8.88146367e-003 -1.12888813e-002 -7.97985401e-003 -5.10126352e-002
      -1.74334284e-003 1.13900090e-002 3.03836018e-002 -1.48484008e-002
      1.37306247e-002 -6.40520304e-002 -5.56111299e-002 -7.65859336e-002
      -1.19750544e-001 -2.53614914e-002 -6.24681525e-002 2.89594866e-002
      9.11501870e-002 -3.41511182e-002 -1.06570892e-001 -7.85295144e-002
      -1.05074853e-001 -3.70005406e-002 -1.10410145e-002
      -4.56552068e-003 9.30235609e-002 4.23168764e-002 7.13780290e-003
      -3.32450792e-002 -1.81800015e-002 -1.90966912e-002
      -6.20108731e-002 -8.93695839e-003 -3.57503146e-002 1.77079551e-002
      -5.10331877e-002 2.29005120e-003 8.93554278e-003 -1.03870916e-004
      -4.16708589e-002 -4.96663935e-002 -8.60827882e-003
      -8.08400214e-002 -2.93744598e-002 7.35946819e-002 2.26128176e-002
      -1.14219887e-002 -2.04321444e-002 -4.69993539e-002
      -3.50068160e-003 4.91904747e-003 -2.73831282e-003 -1.55840786e-002
      -5.82290208e-003 3.86258736e-002 -8.29697307e-003 -1.02939392e-002
      -1.37343425e-002 -1.87305380e-002 -1.25539703e-002 1.09477434e-002
      2.56642094e-003 2.91946307e-002 5.42973727e-002 4.86523993e-002
      -6.31789630e-003 -2.91582160e-002 -3.30135189e-002
      -1.72298178e-002 5.16586658e-003 -6.55090855e-003 9.96020250e-003
      -1.13074463e-002 2.03023832e-002 1.74966492e-002 -1.44615117e-002
      -1.54203288e-002 -1.02010534e-004 4.72178683e-002 2.06476264e-002
      5.90302013e-002 3.26460302e-002 -4.04756106e-002 -8.45190957e-002
      -3.92146967e-002 -1.93235953e-003 -8.37213453e-003 3.02146487e-002
      -2.16584820e-002 4.47126441e-002 5.05447946e-002 2.88430620e-002
      -2.35413443e-002 -8.31374433e-003 -1.12464000e-002 1.16578862e-002
      2.27020262e-003 -3.33098695e-002 3.36335949e-003 3.57874716e-003
      1.93122984e-003 1.26779056e-003 -7.65645364e-003 -4.14440082e-003
      -1.47688733e-002 5.34418225e-003 3.29605513e-003 1.50128091e-002
      1.33362343e-003 3.72974500e-002 -1.39231253e-002 -3.35057103e-003
      -1.03281774e-002 -9.00891982e-003 1.25716990e-002 2.81949565e-002
      -1.39182396e-002 -1.53599633e-002 -1.16215891e-003
      -2.80375686e-002 7.43174320e-003 -4.91561834e-003 1.17276534e-002
      5.27767977e-003 -6.19203551e-003 2.15280782e-002 -1.46069592e-002
      -2.71322373e-002 -1.92527100e-002 -4.94747330e-003
      -7.06770830e-003 -9.72722564e-003 -6.54685730e-003 7.12171709e-003
      7.40701333e-003 2.36397162e-002 3.39798965e-002 9.32540931e-003
      -1.01577016e-002 -4.51793484e-002 -2.38306690e-002
      -1.63947064e-002 -1.84450094e-002 7.82018900e-003 -2.15695556e-002
      1.40041476e-002 1.79744605e-002 -1.83808450e-002 -2.42697857e-002
      -1.57703459e-003 2.65177595e-003 -2.01264322e-002 8.83254129e-003
      -3.93025875e-002 -2.42451169e-002 1.10770082e-002 2.56281765e-003
      -5.95822604e-003 8.58627725e-003 -5.88770909e-003 5.48188528e-003
      -9.56326537e-003 2.13113353e-002 2.06365623e-002 -2.79713888e-003
      -3.60872014e-003 -2.08316389e-002 -8.51560663e-003
      -1.73452515e-002 -3.23779508e-002 4.58891951e-002 -1.32265373e-003
      1.27465026e-002 -1.25652384e-002 -2.77772546e-004 -4.77486961e-002
      -3.72088421e-003 -2.18039416e-002 -1.09520229e-002
      -2.86968630e-002 -5.88925229e-003 1.36840739e-004 1.38561812e-003
      -3.33336927e-002 7.52668083e-003 -2.22214498e-003 9.30060225e-004
      4.77327034e-003 -1.81702934e-002 -9.16754175e-003 3.01259253e-002
      1.59569818e-003 9.93376318e-003 -6.26702700e-003 -1.39019946e-002
      -6.52503688e-003 -1.37496674e-002 1.11229038e-002 5.81011130e-003
      3.20591824e-003 2.09864858e-003 -9.85820545e-004 -1.69993546e-002
      -5.67653589e-003 -2.70798299e-002 -3.27467807e-002
      -2.23673694e-002 -3.78247746e-003 -2.54571391e-003 2.38127564e-003
      -1.69131085e-002 -1.35018127e-002 -4.58231050e-004 5.50899748e-003
      7.42039457e-003 -8.08137935e-003 -2.98871864e-002 -1.15576601e-002
      1.35407345e-002 -2.67408113e-003 -2.90748402e-002 -3.91002093e-003
      2.39574928e-002 -2.45836354e-003 3.70093174e-002 -4.44520935e-002
      -5.80762001e-003 1.12271560e-002 -1.10069998e-002 -1.97079498e-002
      3.28486878e-003 -4.47210576e-003 -1.16454326e-002 -1.87258460e-002
      -4.70241942e-002 -3.05138398e-002 -2.23718267e-002
      -2.96326485e-002 -8.57577380e-003 1.06099863e-002 -8.37309472e-003
      -1.07860202e-002 1.46062411e-002 -2.48556454e-002 1.51402727e-002
      1.33669311e-002 -1.34999380e-002 -4.78122234e-002 9.02196392e-003
      -5.53132873e-003 -4.30518854e-003 5.52958921e-002 9.16330551e-004
      -2.49594618e-002 1.70749714e-004 -1.69291105e-002 -3.30315605e-002
      -3.29412296e-002 -3.98548357e-002 3.75593919e-003 -2.82519171e-003
      9.98776127e-003 -2.55934112e-002 -3.80126871e-002 -4.05915789e-002
      -9.22110106e-004 9.61373662e-005 -3.05061787e-002 -1.23296194e-002
      -3.12731980e-004 1.31204454e-002 -1.70111209e-002 1.42971892e-002
      1.57520676e-003 -3.11460700e-002 -2.67775077e-002 -3.30134258e-002
      -2.41611432e-002 2.01574471e-002 -1.09868916e-002 8.77111033e-003
      8.62405542e-003 -2.75702067e-002 -4.36367728e-002 -5.06160222e-002
      -2.95526348e-002 -4.81701009e-002 -4.30759490e-002 2.89591402e-002
      -3.27483355e-003 -1.91334672e-002 -4.22449112e-002 6.63825776e-003
      2.25196332e-002 1.88810136e-002 1.13243768e-002 1.17093464e-002
      -1.77073702e-002 9.00444633e-004 1.95113011e-002 1.35025401e-002
      -1.06025729e-002 2.84642279e-002 1.97563004e-002 1.54662142e-002
      -5.19327410e-002 -6.35288134e-002 -2.08709221e-002
      -1.31000150e-002 -3.59420627e-002 -1.00338534e-002
      -1.76669715e-003 -1.59004461e-002 -4.18150723e-002
      -3.04578599e-002 1.57927107e-002 -2.05325522e-002 -2.02587266e-002
      -1.98968109e-002 1.36570968e-002 2.76392493e-002 1.91234834e-002
      3.17097120e-002 5.80834299e-002 3.24314386e-002 2.73887031e-002
      2.28522979e-002 1.88849308e-002 -2.71910168e-002 -3.84341665e-002
      1.43228173e-002 1.00099929e-002 -1.44297117e-002 5.76512627e-002
      -3.97015139e-002 -3.20966765e-002 -4.17652875e-002
      -4.97463979e-002 -4.91267107e-002 -5.35868742e-002
      -4.23263498e-002 -6.13300540e-002 2.95617003e-002 -3.79013666e-003
      1.42314564e-003 -4.17405367e-002 -1.41792465e-002 -3.04499175e-003
      -1.64462836e-003 -5.59323793e-003 4.14631655e-003 2.23701503e-002
      1.83916949e-002 1.08967405e-002 -1.58701707e-002 -3.27668041e-002
      -3.98301370e-002 -9.35982168e-003 -7.87128042e-003
      -4.03766260e-002 2.91447900e-003 -2.19332110e-002 -2.23423541e-002
      -5.22239171e-002 -3.05634234e-002 -2.83934940e-002
      -1.78927612e-002 -9.42574069e-003 -1.71294250e-002
      -3.37880887e-002 -1.76314749e-002 -1.20911263e-002
      -2.75050271e-002 1.29305106e-002 2.76308879e-002 1.96378995e-002
      4.72382701e-004 -3.94155644e-002 -3.28247547e-002 2.01293081e-003
      1.25442026e-003 7.04734307e-003 2.09738389e-002 3.13049518e-002
      2.89405184e-003 -4.67733741e-002 -5.81107065e-002 4.45370823e-002
      1.09241782e-002 9.61791165e-003 4.56226850e-003 -1.25812448e-003
      1.01216454e-002 -1.11936294e-002 -1.55487033e-002 -1.09176375e-002
      -4.96511767e-003 -2.51541212e-002 7.85872899e-003 4.07569139e-004
      2.05983147e-002 1.35373948e-002 2.90688779e-002 3.12557146e-002
      -3.46366279e-002 1.48581499e-002 -4.71690320e-004 2.22217720e-002
      1.18837003e-002 2.28897538e-002 3.16876434e-002 2.96481345e-002
      9.76596866e-003 -2.85804961e-002 3.77889350e-002 3.51675600e-002
      5.80190346e-002 2.98192413e-006 -1.65032633e-002 1.73970615e-003
      -2.18077353e-003 -1.72984805e-002 -2.14458909e-002
      -2.37955227e-002 -3.00325025e-002 5.10516055e-002 6.60011428e-004
      1.31456228e-002 3.57998931e-003 1.48579590e-002 4.36896598e-003
      -4.21544276e-002 -1.15677435e-002 -1.00557283e-002 8.73736851e-003
      4.33137175e-003 -3.63827054e-003 2.29827259e-002 4.60663177e-002
      1.39380051e-002 -6.75060526e-002 -4.66528609e-002 -1.47618838e-002
      2.98542269e-002 -9.50135582e-004 -1.54559221e-002 -3.52485524e-003
      1.68169364e-002 -1.49777588e-002 -4.47922423e-002 -2.72152890e-002
      -1.06653012e-002 2.05532406e-002 5.27468696e-003 2.40781922e-002
      2.84994505e-002 -1.44127859e-002 -4.51394394e-002 -7.43881762e-002
      3.89590561e-002 2.45219916e-002 3.23381796e-002 2.70242859e-002
      2.60913521e-002 2.41100248e-002 -2.89889693e-004 -5.59366718e-002
      -5.25958687e-002 1.50574064e-002 8.59598536e-003 5.04924580e-002
      2.09226683e-002 9.29583097e-004 1.55642228e-002 2.24555712e-002
      2.92586666e-002 6.24230392e-002 1.49682667e-002 -5.99985011e-004
      2.64614522e-002 5.71322907e-003 3.42699215e-002 5.27506955e-002
      2.61158012e-002 -1.47749670e-003 -3.17740589e-002 1.15258303e-002
      2.93943752e-002 8.57229382e-002 4.87705693e-002 2.42751706e-002
      3.55426781e-002 5.04779769e-003 -1.04604922e-002 -5.23262806e-002
      7.30289891e-003 4.24616523e-002 1.12133719e-001 6.30923733e-002
      -1.66092794e-002 2.52054259e-002 2.84143779e-002 2.60896944e-002
      -3.63559881e-003 1.48622021e-002 1.99506828e-003 2.81270836e-002
      -1.49949919e-002 2.42027752e-002 5.33152856e-002 5.59792854e-002
      3.24474811e-003 -6.54509589e-002 -3.31231579e-002 -9.91059560e-003
      4.11904790e-002 3.11910920e-002 1.34626804e-002 3.76390219e-002
      5.79779819e-002 -1.21610751e-002 -7.31328055e-002 -3.85252163e-002
      1.56005062e-002 6.59939647e-002 3.94405983e-002 -2.91474760e-002
      7.68547645e-003 1.51101016e-002 8.48768372e-003 -1.61319636e-002
      -1.53667731e-002 -1.00562433e-002 -1.25779258e-002
      -2.90371086e-002 2.34088767e-002 1.93286631e-002 -9.27203242e-003
      -8.32350999e-002 -6.06725179e-002 -3.81238237e-002 9.73542966e-003
      4.41764519e-002 3.43211964e-002 4.81864391e-003 3.72780487e-002
      3.82886678e-002 1.05897896e-002 -1.51260868e-002 4.12366763e-002
      5.23985550e-002 6.29425347e-002 2.65244469e-002 1.11147715e-002
      2.38179006e-002 1.39998607e-002 2.31528059e-002 5.36235683e-002
      5.80007657e-002 4.00909670e-002 1.39760338e-002 -3.26767983e-003
      1.15704071e-002 1.37640191e-002 1.28754349e-002 -8.22619814e-003
      -3.99810113e-002 -1.85944978e-002 -6.69754948e-003 7.29488730e-002
      4.97004762e-002 4.24232595e-002 8.36922973e-002 5.74643873e-002
      1.79159753e-002 -6.59809038e-002 3.51993628e-002 6.92822114e-002
      5.98246679e-002 1.46395369e-002 1.21643748e-002 3.07654012e-002
      4.21918817e-002 6.31224588e-002 2.75954194e-002 8.55355859e-002
      3.35738026e-002 -2.90856827e-002 -3.07085868e-002 2.41681430e-002
      4.00622077e-002 5.03949039e-002 -3.99478385e-003 -6.63520023e-002
      -6.79049492e-002 -2.57226564e-002 2.52946131e-002 2.34065596e-002
      -5.07217017e-004 4.00075950e-002 3.43720838e-002 -2.33814499e-004
      -6.04845621e-002 -9.87641979e-003 2.17360910e-002 4.20850068e-002
      -5.36262011e-003 -4.34509516e-002 -2.03500111e-002 1.73799377e-002
      9.24595632e-003 2.59049125e-002 3.10815442e-002 2.75114812e-002
